digraph Tree {
node [shape=box] ;
0 [label="X[19] <= 0.5\ngini = 0.489\nsamples = 6363\nvalue = [4310, 5785]"] ;
1 [label="X[18] <= 0.5\ngini = 0.434\nsamples = 3828\nvalue = [1942, 4148]"] ;
0 -> 1 [labeldistance=2.5, labelangle=45, headlabel="True"] ;
2 [label="X[23] <= 0.5\ngini = 0.447\nsamples = 3566\nvalue = [1914, 3765]"] ;
1 -> 2 ;
3 [label="X[20] <= 0.5\ngini = 0.498\nsamples = 1541\nvalue = [1163, 1313]"] ;
2 -> 3 ;
4 [label="X[14] <= 0.5\ngini = 0.072\nsamples = 378\nvalue = [570, 22]"] ;
3 -> 4 ;
5 [label="X[22] <= 0.5\ngini = 0.097\nsamples = 258\nvalue = [370, 20]"] ;
4 -> 5 ;
6 [label="X[2] <= 0.5\ngini = 0.103\nsamples = 241\nvalue = [346, 20]"] ;
5 -> 6 ;
7 [label="X[24] <= 0.5\ngini = 0.102\nsamples = 224\nvalue = [317, 18]"] ;
6 -> 7 ;
8 [label="gini = 0.0\nsamples = 13\nvalue = [16, 0]"] ;
7 -> 8 ;
9 [label="X[15] <= 0.5\ngini = 0.106\nsamples = 211\nvalue = [301, 18]"] ;
7 -> 9 ;
10 [label="X[6] <= 0.5\ngini = 0.119\nsamples = 180\nvalue = [250, 17]"] ;
9 -> 10 ;
11 [label="X[4] <= 0.5\ngini = 0.126\nsamples = 170\nvalue = [234, 17]"] ;
10 -> 11 ;
12 [label="gini = 0.0\nsamples = 1\nvalue = [1, 0]"] ;
11 -> 12 ;
13 [label="X[12] <= 0.5\ngini = 0.127\nsamples = 169\nvalue = [233, 17]"] ;
11 -> 13 ;
14 [label="X[13] <= 0.5\ngini = 0.13\nsamples = 139\nvalue = [187, 14]"] ;
13 -> 14 ;
15 [label="gini = 0.0\nsamples = 2\nvalue = [3, 0]"] ;
14 -> 15 ;
16 [label="gini = 0.131\nsamples = 137\nvalue = [184, 14]"] ;
14 -> 16 ;
17 [label="gini = 0.115\nsamples = 30\nvalue = [46, 3]"] ;
13 -> 17 ;
18 [label="gini = 0.0\nsamples = 10\nvalue = [16, 0]"] ;
10 -> 18 ;
19 [label="X[4] <= 0.5\ngini = 0.038\nsamples = 31\nvalue = [51, 1]"] ;
9 -> 19 ;
20 [label="gini = 0.0\nsamples = 1\nvalue = [1, 0]"] ;
19 -> 20 ;
21 [label="gini = 0.038\nsamples = 30\nvalue = [50, 1]"] ;
19 -> 21 ;
22 [label="X[15] <= 0.5\ngini = 0.121\nsamples = 17\nvalue = [29, 2]"] ;
6 -> 22 ;
23 [label="X[12] <= 0.5\ngini = 0.142\nsamples = 14\nvalue = [24, 2]"] ;
22 -> 23 ;
24 [label="gini = 0.147\nsamples = 13\nvalue = [23, 2]"] ;
23 -> 24 ;
25 [label="gini = 0.0\nsamples = 1\nvalue = [1, 0]"] ;
23 -> 25 ;
26 [label="gini = 0.0\nsamples = 3\nvalue = [5, 0]"] ;
22 -> 26 ;
27 [label="gini = 0.0\nsamples = 17\nvalue = [24, 0]"] ;
5 -> 27 ;
28 [label="X[4] <= 0.5\ngini = 0.02\nsamples = 120\nvalue = [200, 2]"] ;
4 -> 28 ;
29 [label="gini = 0.0\nsamples = 8\nvalue = [16, 0]"] ;
28 -> 29 ;
30 [label="X[21] <= 0.5\ngini = 0.021\nsamples = 112\nvalue = [184, 2]"] ;
28 -> 30 ;
31 [label="X[24] <= 0.5\ngini = 0.022\nsamples = 110\nvalue = [180, 2]"] ;
30 -> 31 ;
32 [label="gini = 0.0\nsamples = 2\nvalue = [4, 0]"] ;
31 -> 32 ;
33 [label="gini = 0.022\nsamples = 108\nvalue = [176, 2]"] ;
31 -> 33 ;
34 [label="gini = 0.0\nsamples = 2\nvalue = [4, 0]"] ;
30 -> 34 ;
35 [label="X[14] <= 0.5\ngini = 0.431\nsamples = 1163\nvalue = [593, 1291]"] ;
3 -> 35 ;
36 [label="X[13] <= 0.5\ngini = 0.442\nsamples = 822\nvalue = [447, 908]"] ;
35 -> 36 ;
37 [label="X[22] <= 0.5\ngini = 0.399\nsamples = 409\nvalue = [183, 481]"] ;
36 -> 37 ;
38 [label="X[6] <= 0.5\ngini = 0.441\nsamples = 273\nvalue = [142, 291]"] ;
37 -> 38 ;
39 [label="X[21] <= 0.5\ngini = 0.453\nsamples = 232\nvalue = [127, 239]"] ;
38 -> 39 ;
40 [label="X[7] <= 0.5\ngini = 0.361\nsamples = 172\nvalue = [63, 203]"] ;
39 -> 40 ;
41 [label="X[4] <= 0.5\ngini = 0.353\nsamples = 167\nvalue = [59, 199]"] ;
40 -> 41 ;
42 [label="gini = 0.0\nsamples = 1\nvalue = [1, 0]"] ;
41 -> 42 ;
43 [label="X[16] <= 0.5\ngini = 0.349\nsamples = 166\nvalue = [58, 199]"] ;
41 -> 43 ;
44 [label="X[0] <= 0.5\ngini = 0.498\nsamples = 66\nvalue = [54, 48]"] ;
43 -> 44 ;
45 [label="X[11] <= 0.5\ngini = 0.444\nsamples = 2\nvalue = [1, 2]"] ;
44 -> 45 ;
46 [label="gini = 0.0\nsamples = 1\nvalue = [0, 2]"] ;
45 -> 46 ;
47 [label="gini = 0.0\nsamples = 1\nvalue = [1, 0]"] ;
45 -> 47 ;
48 [label="X[15] <= 0.5\ngini = 0.498\nsamples = 64\nvalue = [53, 46]"] ;
44 -> 48 ;
49 [label="gini = 0.497\nsamples = 15\nvalue = [14, 12]"] ;
48 -> 49 ;
50 [label="gini = 0.498\nsamples = 49\nvalue = [39, 34]"] ;
48 -> 50 ;
51 [label="X[11] <= 0.5\ngini = 0.05\nsamples = 100\nvalue = [4, 151]"] ;
43 -> 51 ;
52 [label="X[10] <= 0.5\ngini = 0.051\nsamples = 99\nvalue = [4, 149]"] ;
51 -> 52 ;
53 [label="gini = 0.053\nsamples = 95\nvalue = [4, 144]"] ;
52 -> 53 ;
54 [label="gini = 0.0\nsamples = 4\nvalue = [0, 5]"] ;
52 -> 54 ;
55 [label="gini = 0.0\nsamples = 1\nvalue = [0, 2]"] ;
51 -> 55 ;
56 [label="X[0] <= 0.5\ngini = 0.5\nsamples = 5\nvalue = [4, 4]"] ;
40 -> 56 ;
57 [label="X[15] <= 0.5\ngini = 0.375\nsamples = 2\nvalue = [1, 3]"] ;
56 -> 57 ;
58 [label="gini = 0.0\nsamples = 1\nvalue = [0, 3]"] ;
57 -> 58 ;
59 [label="gini = 0.0\nsamples = 1\nvalue = [1, 0]"] ;
57 -> 59 ;
60 [label="X[15] <= 0.5\ngini = 0.375\nsamples = 3\nvalue = [3, 1]"] ;
56 -> 60 ;
61 [label="gini = 0.0\nsamples = 1\nvalue = [0, 1]"] ;
60 -> 61 ;
62 [label="gini = 0.0\nsamples = 2\nvalue = [3, 0]"] ;
60 -> 62 ;
63 [label="X[12] <= 0.5\ngini = 0.461\nsamples = 60\nvalue = [64, 36]"] ;
39 -> 63 ;
64 [label="X[16] <= 0.5\ngini = 0.32\nsamples = 48\nvalue = [64, 16]"] ;
63 -> 64 ;
65 [label="gini = 0.295\nsamples = 47\nvalue = [64, 14]"] ;
64 -> 65 ;
66 [label="gini = 0.0\nsamples = 1\nvalue = [0, 2]"] ;
64 -> 66 ;
67 [label="gini = 0.0\nsamples = 12\nvalue = [0, 20]"] ;
63 -> 67 ;
68 [label="X[24] <= 0.5\ngini = 0.348\nsamples = 41\nvalue = [15, 52]"] ;
38 -> 68 ;
69 [label="X[2] <= 0.5\ngini = 0.444\nsamples = 7\nvalue = [6, 3]"] ;
68 -> 69 ;
70 [label="gini = 0.444\nsamples = 4\nvalue = [4, 2]"] ;
69 -> 70 ;
71 [label="gini = 0.444\nsamples = 3\nvalue = [2, 1]"] ;
69 -> 71 ;
72 [label="X[9] <= 0.5\ngini = 0.262\nsamples = 34\nvalue = [9, 49]"] ;
68 -> 72 ;
73 [label="gini = 0.0\nsamples = 1\nvalue = [3, 0]"] ;
72 -> 73 ;
74 [label="X[12] <= 0.5\ngini = 0.194\nsamples = 33\nvalue = [6, 49]"] ;
72 -> 74 ;
75 [label="X[0] <= 0.5\ngini = 0.177\nsamples = 31\nvalue = [5, 46]"] ;
74 -> 75 ;
76 [label="X[1] <= 0.5\ngini = 0.165\nsamples = 24\nvalue = [4, 40]"] ;
75 -> 76 ;
77 [label="X[15] <= 0.5\ngini = 0.176\nsamples = 22\nvalue = [4, 37]"] ;
76 -> 77 ;
78 [label="gini = 0.0\nsamples = 17\nvalue = [0, 31]"] ;
77 -> 78 ;
79 [label="gini = 0.48\nsamples = 5\nvalue = [4, 6]"] ;
77 -> 79 ;
80 [label="gini = 0.0\nsamples = 2\nvalue = [0, 3]"] ;
76 -> 80 ;
81 [label="X[16] <= 0.5\ngini = 0.245\nsamples = 7\nvalue = [1, 6]"] ;
75 -> 81 ;
82 [label="gini = 0.0\nsamples = 1\nvalue = [1, 0]"] ;
81 -> 82 ;
83 [label="gini = 0.0\nsamples = 6\nvalue = [0, 6]"] ;
81 -> 83 ;
84 [label="gini = 0.375\nsamples = 2\nvalue = [1, 3]"] ;
74 -> 84 ;
85 [label="X[1] <= 0.5\ngini = 0.292\nsamples = 136\nvalue = [41, 190]"] ;
37 -> 85 ;
86 [label="X[12] <= 0.5\ngini = 0.295\nsamples = 135\nvalue = [41, 187]"] ;
85 -> 86 ;
87 [label="X[6] <= 0.5\ngini = 0.277\nsamples = 115\nvalue = [31, 156]"] ;
86 -> 87 ;
88 [label="X[4] <= 0.5\ngini = 0.295\nsamples = 101\nvalue = [30, 137]"] ;
87 -> 88 ;
89 [label="gini = 0.0\nsamples = 1\nvalue = [0, 3]"] ;
88 -> 89 ;
90 [label="X[16] <= 0.5\ngini = 0.299\nsamples = 100\nvalue = [30, 134]"] ;
88 -> 90 ;
91 [label="gini = 0.315\nsamples = 93\nvalue = [30, 123]"] ;
90 -> 91 ;
92 [label="gini = 0.0\nsamples = 7\nvalue = [0, 11]"] ;
90 -> 92 ;
93 [label="X[16] <= 0.5\ngini = 0.095\nsamples = 14\nvalue = [1, 19]"] ;
87 -> 93 ;
94 [label="X[2] <= 0.5\ngini = 0.105\nsamples = 13\nvalue = [1, 17]"] ;
93 -> 94 ;
95 [label="gini = 0.0\nsamples = 4\nvalue = [0, 7]"] ;
94 -> 95 ;
96 [label="gini = 0.165\nsamples = 9\nvalue = [1, 10]"] ;
94 -> 96 ;
97 [label="gini = 0.0\nsamples = 1\nvalue = [0, 2]"] ;
93 -> 97 ;
98 [label="X[6] <= 0.5\ngini = 0.369\nsamples = 20\nvalue = [10, 31]"] ;
86 -> 98 ;
99 [label="gini = 0.271\nsamples = 15\nvalue = [5, 26]"] ;
98 -> 99 ;
100 [label="gini = 0.5\nsamples = 5\nvalue = [5, 5]"] ;
98 -> 100 ;
101 [label="gini = 0.0\nsamples = 1\nvalue = [0, 3]"] ;
85 -> 101 ;
102 [label="X[21] <= 0.5\ngini = 0.472\nsamples = 413\nvalue = [264, 427]"] ;
36 -> 102 ;
103 [label="X[2] <= 0.5\ngini = 0.418\nsamples = 288\nvalue = [143, 338]"] ;
102 -> 103 ;
104 [label="X[3] <= 0.5\ngini = 0.435\nsamples = 258\nvalue = [137, 292]"] ;
103 -> 104 ;
105 [label="X[6] <= 0.5\ngini = 0.441\nsamples = 254\nvalue = [137, 281]"] ;
104 -> 105 ;
106 [label="X[5] <= 0.5\ngini = 0.439\nsamples = 239\nvalue = [128, 266]"] ;
105 -> 106 ;
107 [label="X[24] <= 0.5\ngini = 0.437\nsamples = 236\nvalue = [126, 265]"] ;
106 -> 107 ;
108 [label="X[4] <= 0.5\ngini = 0.362\nsamples = 137\nvalue = [56, 180]"] ;
107 -> 108 ;
109 [label="gini = 0.0\nsamples = 1\nvalue = [0, 3]"] ;
108 -> 109 ;
110 [label="gini = 0.365\nsamples = 136\nvalue = [56, 177]"] ;
108 -> 110 ;
111 [label="X[0] <= 0.5\ngini = 0.495\nsamples = 99\nvalue = [70, 85]"] ;
107 -> 111 ;
112 [label="gini = 0.0\nsamples = 1\nvalue = [0, 2]"] ;
111 -> 112 ;
113 [label="X[11] <= 0.5\ngini = 0.496\nsamples = 98\nvalue = [70, 83]"] ;
111 -> 113 ;
114 [label="X[9] <= 0.5\ngini = 0.491\nsamples = 94\nvalue = [63, 83]"] ;
113 -> 114 ;
115 [label="gini = 0.0\nsamples = 2\nvalue = [0, 3]"] ;
114 -> 115 ;
116 [label="X[4] <= 0.5\ngini = 0.493\nsamples = 92\nvalue = [63, 80]"] ;
114 -> 116 ;
117 [label="gini = 0.0\nsamples = 1\nvalue = [0, 1]"] ;
116 -> 117 ;
118 [label="gini = 0.494\nsamples = 91\nvalue = [63, 79]"] ;
116 -> 118 ;
119 [label="gini = 0.0\nsamples = 4\nvalue = [7, 0]"] ;
113 -> 119 ;
120 [label="X[0] <= 0.5\ngini = 0.444\nsamples = 3\nvalue = [2, 1]"] ;
106 -> 120 ;
121 [label="gini = 0.0\nsamples = 1\nvalue = [1, 0]"] ;
120 -> 121 ;
122 [label="X[24] <= 0.5\ngini = 0.5\nsamples = 2\nvalue = [1, 1]"] ;
120 -> 122 ;
123 [label="gini = 0.0\nsamples = 1\nvalue = [0, 1]"] ;
122 -> 123 ;
124 [label="gini = 0.0\nsamples = 1\nvalue = [1, 0]"] ;
122 -> 124 ;
125 [label="X[22] <= 0.5\ngini = 0.469\nsamples = 15\nvalue = [9, 15]"] ;
105 -> 125 ;
126 [label="gini = 0.245\nsamples = 4\nvalue = [1, 6]"] ;
125 -> 126 ;
127 [label="X[1] <= 0.5\ngini = 0.498\nsamples = 11\nvalue = [8, 9]"] ;
125 -> 127 ;
128 [label="gini = 0.5\nsamples = 10\nvalue = [8, 8]"] ;
127 -> 128 ;
129 [label="gini = 0.0\nsamples = 1\nvalue = [0, 1]"] ;
127 -> 129 ;
130 [label="gini = 0.0\nsamples = 4\nvalue = [0, 11]"] ;
104 -> 130 ;
131 [label="X[6] <= 0.5\ngini = 0.204\nsamples = 30\nvalue = [6, 46]"] ;
103 -> 131 ;
132 [label="gini = 0.0\nsamples = 1\nvalue = [0, 1]"] ;
131 -> 132 ;
133 [label="X[22] <= 0.5\ngini = 0.208\nsamples = 29\nvalue = [6, 45]"] ;
131 -> 133 ;
134 [label="gini = 0.278\nsamples = 14\nvalue = [5, 25]"] ;
133 -> 134 ;
135 [label="gini = 0.091\nsamples = 15\nvalue = [1, 20]"] ;
133 -> 135 ;
136 [label="X[8] <= 0.5\ngini = 0.488\nsamples = 125\nvalue = [121, 89]"] ;
102 -> 136 ;
137 [label="X[4] <= 0.5\ngini = 0.489\nsamples = 124\nvalue = [120, 89]"] ;
136 -> 137 ;
138 [label="X[3] <= 0.5\ngini = 0.49\nsamples = 24\nvalue = [15, 20]"] ;
137 -> 138 ;
139 [label="X[5] <= 0.5\ngini = 0.494\nsamples = 18\nvalue = [12, 15]"] ;
138 -> 139 ;
140 [label="X[6] <= 0.5\ngini = 0.5\nsamples = 16\nvalue = [12, 12]"] ;
139 -> 140 ;
141 [label="gini = 0.0\nsamples = 1\nvalue = [2, 0]"] ;
140 -> 141 ;
142 [label="X[1] <= 0.5\ngini = 0.496\nsamples = 15\nvalue = [10, 12]"] ;
140 -> 142 ;
143 [label="X[0] <= 0.5\ngini = 0.465\nsamples = 13\nvalue = [7, 12]"] ;
142 -> 143 ;
144 [label="gini = 0.375\nsamples = 6\nvalue = [2, 6]"] ;
143 -> 144 ;
145 [label="gini = 0.496\nsamples = 7\nvalue = [5, 6]"] ;
143 -> 145 ;
146 [label="gini = 0.0\nsamples = 2\nvalue = [3, 0]"] ;
142 -> 146 ;
147 [label="gini = 0.0\nsamples = 2\nvalue = [0, 3]"] ;
139 -> 147 ;
148 [label="X[6] <= 0.5\ngini = 0.469\nsamples = 6\nvalue = [3, 5]"] ;
138 -> 148 ;
149 [label="gini = 0.5\nsamples = 2\nvalue = [1, 1]"] ;
148 -> 149 ;
150 [label="gini = 0.444\nsamples = 4\nvalue = [2, 4]"] ;
148 -> 150 ;
151 [label="gini = 0.479\nsamples = 100\nvalue = [105, 69]"] ;
137 -> 151 ;
152 [label="gini = 0.0\nsamples = 1\nvalue = [1, 0]"] ;
136 -> 152 ;
153 [label="X[22] <= 0.5\ngini = 0.4\nsamples = 341\nvalue = [146, 383]"] ;
35 -> 153 ;
154 [label="X[3] <= 0.5\ngini = 0.496\nsamples = 151\nvalue = [104, 125]"] ;
153 -> 154 ;
155 [label="X[10] <= 0.5\ngini = 0.495\nsamples = 148\nvalue = [102, 124]"] ;
154 -> 155 ;
156 [label="X[1] <= 0.5\ngini = 0.496\nsamples = 147\nvalue = [102, 123]"] ;
155 -> 156 ;
157 [label="X[21] <= 0.5\ngini = 0.496\nsamples = 145\nvalue = [101, 121]"] ;
156 -> 157 ;
158 [label="X[0] <= 0.5\ngini = 0.464\nsamples = 87\nvalue = [49, 85]"] ;
157 -> 158 ;
159 [label="X[4] <= 0.5\ngini = 0.49\nsamples = 15\nvalue = [9, 12]"] ;
158 -> 159 ;
160 [label="gini = 0.48\nsamples = 14\nvalue = [8, 12]"] ;
159 -> 160 ;
161 [label="gini = 0.0\nsamples = 1\nvalue = [1, 0]"] ;
159 -> 161 ;
162 [label="X[5] <= 0.5\ngini = 0.457\nsamples = 72\nvalue = [40, 73]"] ;
158 -> 162 ;
163 [label="X[9] <= 0.5\ngini = 0.45\nsamples = 71\nvalue = [38, 73]"] ;
162 -> 163 ;
164 [label="gini = 0.444\nsamples = 4\nvalue = [4, 2]"] ;
163 -> 164 ;
165 [label="X[4] <= 0.5\ngini = 0.438\nsamples = 67\nvalue = [34, 71]"] ;
163 -> 165 ;
166 [label="gini = 0.492\nsamples = 10\nvalue = [9, 7]"] ;
165 -> 166 ;
167 [label="gini = 0.404\nsamples = 57\nvalue = [25, 64]"] ;
165 -> 167 ;
168 [label="gini = 0.0\nsamples = 1\nvalue = [2, 0]"] ;
162 -> 168 ;
169 [label="X[0] <= 0.5\ngini = 0.483\nsamples = 58\nvalue = [52, 36]"] ;
157 -> 169 ;
170 [label="gini = 0.375\nsamples = 3\nvalue = [1, 3]"] ;
169 -> 170 ;
171 [label="X[7] <= 0.5\ngini = 0.477\nsamples = 55\nvalue = [51, 33]"] ;
169 -> 171 ;
172 [label="X[5] <= 0.5\ngini = 0.479\nsamples = 54\nvalue = [50, 33]"] ;
171 -> 172 ;
173 [label="X[4] <= 0.5\ngini = 0.481\nsamples = 53\nvalue = [49, 33]"] ;
172 -> 173 ;
174 [label="gini = 0.5\nsamples = 4\nvalue = [4, 4]"] ;
173 -> 174 ;
175 [label="gini = 0.477\nsamples = 49\nvalue = [45, 29]"] ;
173 -> 175 ;
176 [label="gini = 0.0\nsamples = 1\nvalue = [1, 0]"] ;
172 -> 176 ;
177 [label="gini = 0.0\nsamples = 1\nvalue = [1, 0]"] ;
171 -> 177 ;
178 [label="X[5] <= 0.5\ngini = 0.444\nsamples = 2\nvalue = [1, 2]"] ;
156 -> 178 ;
179 [label="gini = 0.0\nsamples = 1\nvalue = [0, 2]"] ;
178 -> 179 ;
180 [label="gini = 0.0\nsamples = 1\nvalue = [1, 0]"] ;
178 -> 180 ;
181 [label="gini = 0.0\nsamples = 1\nvalue = [0, 1]"] ;
155 -> 181 ;
182 [label="X[4] <= 0.5\ngini = 0.444\nsamples = 3\nvalue = [2, 1]"] ;
154 -> 182 ;
183 [label="gini = 0.0\nsamples = 2\nvalue = [2, 0]"] ;
182 -> 183 ;
184 [label="gini = 0.0\nsamples = 1\nvalue = [0, 1]"] ;
182 -> 184 ;
185 [label="X[4] <= 0.5\ngini = 0.241\nsamples = 190\nvalue = [42, 258]"] ;
153 -> 185 ;
186 [label="X[0] <= 0.5\ngini = 0.212\nsamples = 34\nvalue = [7, 51]"] ;
185 -> 186 ;
187 [label="X[2] <= 0.5\ngini = 0.342\nsamples = 22\nvalue = [7, 25]"] ;
186 -> 187 ;
188 [label="gini = 0.0\nsamples = 2\nvalue = [0, 5]"] ;
187 -> 188 ;
189 [label="gini = 0.384\nsamples = 20\nvalue = [7, 20]"] ;
187 -> 189 ;
190 [label="gini = 0.0\nsamples = 12\nvalue = [0, 26]"] ;
186 -> 190 ;
191 [label="gini = 0.247\nsamples = 156\nvalue = [35, 207]"] ;
185 -> 191 ;
192 [label="X[9] <= 0.5\ngini = 0.359\nsamples = 2025\nvalue = [751, 2452]"] ;
2 -> 192 ;
193 [label="X[6] <= 0.5\ngini = 0.092\nsamples = 145\nvalue = [216, 11]"] ;
192 -> 193 ;
194 [label="X[15] <= 0.5\ngini = 0.098\nsamples = 136\nvalue = [202, 11]"] ;
193 -> 194 ;
195 [label="X[17] <= 0.5\ngini = 0.102\nsamples = 130\nvalue = [193, 11]"] ;
194 -> 195 ;
196 [label="gini = 0.0\nsamples = 1\nvalue = [2, 0]"] ;
195 -> 196 ;
197 [label="X[14] <= 0.5\ngini = 0.103\nsamples = 129\nvalue = [191, 11]"] ;
195 -> 197 ;
198 [label="X[12] <= 0.5\ngini = 0.114\nsamples = 84\nvalue = [124, 8]"] ;
197 -> 198 ;
199 [label="X[5] <= 0.5\ngini = 0.116\nsamples = 82\nvalue = [121, 8]"] ;
198 -> 199 ;
200 [label="gini = 0.117\nsamples = 81\nvalue = [120, 8]"] ;
199 -> 200 ;
201 [label="gini = 0.0\nsamples = 1\nvalue = [1, 0]"] ;
199 -> 201 ;
202 [label="gini = 0.0\nsamples = 2\nvalue = [3, 0]"] ;
198 -> 202 ;
203 [label="gini = 0.082\nsamples = 45\nvalue = [67, 3]"] ;
197 -> 203 ;
204 [label="gini = 0.0\nsamples = 6\nvalue = [9, 0]"] ;
194 -> 204 ;
205 [label="gini = 0.0\nsamples = 9\nvalue = [14, 0]"] ;
193 -> 205 ;
206 [label="X[6] <= 0.5\ngini = 0.295\nsamples = 1880\nvalue = [535, 2441]"] ;
192 -> 206 ;
207 [label="X[0] <= 0.5\ngini = 0.301\nsamples = 1567\nvalue = [452, 1998]"] ;
206 -> 207 ;
208 [label="X[14] <= 0.5\ngini = 0.466\nsamples = 41\nvalue = [24, 41]"] ;
207 -> 208 ;
209 [label="X[2] <= 0.5\ngini = 0.444\nsamples = 25\nvalue = [13, 26]"] ;
208 -> 209 ;
210 [label="X[3] <= 0.5\ngini = 0.456\nsamples = 24\nvalue = [13, 24]"] ;
209 -> 210 ;
211 [label="X[7] <= 0.5\ngini = 0.32\nsamples = 7\nvalue = [2, 8]"] ;
210 -> 211 ;
212 [label="X[15] <= 0.5\ngini = 0.32\nsamples = 3\nvalue = [1, 4]"] ;
211 -> 212 ;
213 [label="X[5] <= 0.5\ngini = 0.375\nsamples = 2\nvalue = [1, 3]"] ;
212 -> 213 ;
214 [label="gini = 0.0\nsamples = 1\nvalue = [1, 0]"] ;
213 -> 214 ;
215 [label="gini = 0.0\nsamples = 1\nvalue = [0, 3]"] ;
213 -> 215 ;
216 [label="gini = 0.0\nsamples = 1\nvalue = [0, 1]"] ;
212 -> 216 ;
217 [label="gini = 0.32\nsamples = 4\nvalue = [1, 4]"] ;
211 -> 217 ;
218 [label="X[5] <= 0.5\ngini = 0.483\nsamples = 17\nvalue = [11, 16]"] ;
210 -> 218 ;
219 [label="X[15] <= 0.5\ngini = 0.493\nsamples = 16\nvalue = [11, 14]"] ;
218 -> 219 ;
220 [label="gini = 0.475\nsamples = 13\nvalue = [7, 11]"] ;
219 -> 220 ;
221 [label="gini = 0.49\nsamples = 3\nvalue = [4, 3]"] ;
219 -> 221 ;
222 [label="gini = 0.0\nsamples = 1\nvalue = [0, 2]"] ;
218 -> 222 ;
223 [label="gini = 0.0\nsamples = 1\nvalue = [0, 2]"] ;
209 -> 223 ;
224 [label="X[2] <= 0.5\ngini = 0.488\nsamples = 16\nvalue = [11, 15]"] ;
208 -> 224 ;
225 [label="X[7] <= 0.5\ngini = 0.497\nsamples = 15\nvalue = [11, 13]"] ;
224 -> 225 ;
226 [label="gini = 0.0\nsamples = 1\nvalue = [3, 0]"] ;
225 -> 226 ;
227 [label="X[3] <= 0.5\ngini = 0.472\nsamples = 14\nvalue = [8, 13]"] ;
225 -> 227 ;
228 [label="gini = 0.0\nsamples = 3\nvalue = [5, 0]"] ;
227 -> 228 ;
229 [label="gini = 0.305\nsamples = 11\nvalue = [3, 13]"] ;
227 -> 229 ;
230 [label="gini = 0.0\nsamples = 1\nvalue = [0, 2]"] ;
224 -> 230 ;
231 [label="X[16] <= 0.5\ngini = 0.295\nsamples = 1526\nvalue = [428, 1957]"] ;
207 -> 231 ;
232 [label="X[13] <= 0.5\ngini = 0.296\nsamples = 1517\nvalue = [428, 1943]"] ;
231 -> 232 ;
233 [label="X[14] <= 0.5\ngini = 0.315\nsamples = 927\nvalue = [281, 1155]"] ;
232 -> 233 ;
234 [label="X[4] <= 0.5\ngini = 0.329\nsamples = 329\nvalue = [105, 401]"] ;
233 -> 234 ;
235 [label="X[7] <= 0.5\ngini = 0.408\nsamples = 5\nvalue = [2, 5]"] ;
234 -> 235 ;
236 [label="gini = 0.0\nsamples = 1\nvalue = [2, 0]"] ;
235 -> 236 ;
237 [label="gini = 0.0\nsamples = 4\nvalue = [0, 5]"] ;
235 -> 237 ;
238 [label="X[12] <= 0.5\ngini = 0.328\nsamples = 324\nvalue = [103, 396]"] ;
234 -> 238 ;
239 [label="gini = 0.325\nsamples = 287\nvalue = [89, 346]"] ;
238 -> 239 ;
240 [label="gini = 0.342\nsamples = 37\nvalue = [14, 50]"] ;
238 -> 240 ;
241 [label="X[4] <= 0.5\ngini = 0.307\nsamples = 598\nvalue = [176, 754]"] ;
233 -> 241 ;
242 [label="X[5] <= 0.5\ngini = 0.494\nsamples = 6\nvalue = [4, 5]"] ;
241 -> 242 ;
243 [label="gini = 0.5\nsamples = 3\nvalue = [2, 2]"] ;
242 -> 243 ;
244 [label="gini = 0.48\nsamples = 3\nvalue = [2, 3]"] ;
242 -> 244 ;
245 [label="gini = 0.304\nsamples = 592\nvalue = [172, 749]"] ;
241 -> 245 ;
246 [label="X[4] <= 0.5\ngini = 0.265\nsamples = 590\nvalue = [147, 788]"] ;
232 -> 246 ;
247 [label="gini = 0.0\nsamples = 4\nvalue = [0, 7]"] ;
246 -> 247 ;
248 [label="gini = 0.267\nsamples = 586\nvalue = [147, 781]"] ;
246 -> 248 ;
249 [label="gini = 0.0\nsamples = 9\nvalue = [0, 14]"] ;
231 -> 249 ;
250 [label="X[2] <= 0.5\ngini = 0.266\nsamples = 313\nvalue = [83, 443]"] ;
206 -> 250 ;
251 [label="X[15] <= 0.5\ngini = 0.308\nsamples = 124\nvalue = [39, 166]"] ;
250 -> 251 ;
252 [label="X[14] <= 0.5\ngini = 0.265\nsamples = 97\nvalue = [25, 134]"] ;
251 -> 252 ;
253 [label="X[3] <= 0.5\ngini = 0.273\nsamples = 52\nvalue = [14, 72]"] ;
252 -> 253 ;
254 [label="X[0] <= 0.5\ngini = 0.298\nsamples = 47\nvalue = [14, 63]"] ;
253 -> 254 ;
255 [label="gini = 0.0\nsamples = 2\nvalue = [0, 2]"] ;
254 -> 255 ;
256 [label="X[16] <= 0.5\ngini = 0.304\nsamples = 45\nvalue = [14, 61]"] ;
254 -> 256 ;
257 [label="X[12] <= 0.5\ngini = 0.307\nsamples = 44\nvalue = [14, 60]"] ;
256 -> 257 ;
258 [label="gini = 0.305\nsamples = 39\nvalue = [12, 52]"] ;
257 -> 258 ;
259 [label="gini = 0.32\nsamples = 5\nvalue = [2, 8]"] ;
257 -> 259 ;
260 [label="gini = 0.0\nsamples = 1\nvalue = [0, 1]"] ;
256 -> 260 ;
261 [label="gini = 0.0\nsamples = 5\nvalue = [0, 9]"] ;
253 -> 261 ;
262 [label="X[3] <= 0.5\ngini = 0.256\nsamples = 45\nvalue = [11, 62]"] ;
252 -> 262 ;
263 [label="X[0] <= 0.5\ngini = 0.219\nsamples = 40\nvalue = [8, 56]"] ;
262 -> 263 ;
264 [label="gini = 0.0\nsamples = 2\nvalue = [0, 3]"] ;
263 -> 264 ;
265 [label="gini = 0.228\nsamples = 38\nvalue = [8, 53]"] ;
263 -> 265 ;
266 [label="gini = 0.444\nsamples = 5\nvalue = [3, 6]"] ;
262 -> 266 ;
267 [label="X[3] <= 0.5\ngini = 0.423\nsamples = 27\nvalue = [14, 32]"] ;
251 -> 267 ;
268 [label="X[0] <= 0.5\ngini = 0.434\nsamples = 25\nvalue = [14, 30]"] ;
267 -> 268 ;
269 [label="gini = 0.0\nsamples = 1\nvalue = [0, 2]"] ;
268 -> 269 ;
270 [label="gini = 0.444\nsamples = 24\nvalue = [14, 28]"] ;
268 -> 270 ;
271 [label="gini = 0.0\nsamples = 2\nvalue = [0, 2]"] ;
267 -> 271 ;
272 [label="X[13] <= 0.5\ngini = 0.237\nsamples = 189\nvalue = [44, 277]"] ;
250 -> 272 ;
273 [label="X[15] <= 0.5\ngini = 0.235\nsamples = 122\nvalue = [28, 178]"] ;
272 -> 273 ;
274 [label="X[12] <= 0.5\ngini = 0.248\nsamples = 88\nvalue = [20, 118]"] ;
273 -> 274 ;
275 [label="X[16] <= 0.5\ngini = 0.243\nsamples = 83\nvalue = [18, 109]"] ;
274 -> 275 ;
276 [label="gini = 0.248\nsamples = 81\nvalue = [18, 106]"] ;
275 -> 276 ;
277 [label="gini = 0.0\nsamples = 2\nvalue = [0, 3]"] ;
275 -> 277 ;
278 [label="gini = 0.298\nsamples = 5\nvalue = [2, 9]"] ;
274 -> 278 ;
279 [label="gini = 0.208\nsamples = 34\nvalue = [8, 60]"] ;
273 -> 279 ;
280 [label="gini = 0.24\nsamples = 67\nvalue = [16, 99]"] ;
272 -> 280 ;
281 [label="X[5] <= 0.5\ngini = 0.127\nsamples = 262\nvalue = [28, 383]"] ;
1 -> 281 ;
282 [label="X[6] <= 0.5\ngini = 0.124\nsamples = 257\nvalue = [27, 378]"] ;
281 -> 282 ;
283 [label="X[4] <= 0.5\ngini = 0.152\nsamples = 207\nvalue = [27, 300]"] ;
282 -> 283 ;
284 [label="gini = 0.0\nsamples = 6\nvalue = [0, 9]"] ;
283 -> 284 ;
285 [label="X[15] <= 0.5\ngini = 0.155\nsamples = 201\nvalue = [27, 291]"] ;
283 -> 285 ;
286 [label="X[21] <= 0.5\ngini = 0.147\nsamples = 182\nvalue = [23, 266]"] ;
285 -> 286 ;
287 [label="X[12] <= 0.5\ngini = 0.136\nsamples = 180\nvalue = [21, 265]"] ;
286 -> 287 ;
288 [label="X[13] <= 0.5\ngini = 0.137\nsamples = 179\nvalue = [21, 263]"] ;
287 -> 288 ;
289 [label="X[9] <= 0.5\ngini = 0.091\nsamples = 105\nvalue = [8, 160]"] ;
288 -> 289 ;
290 [label="gini = 0.0\nsamples = 1\nvalue = [0, 1]"] ;
289 -> 290 ;
291 [label="X[24] <= 0.5\ngini = 0.091\nsamples = 104\nvalue = [8, 159]"] ;
289 -> 291 ;
292 [label="X[23] <= 0.5\ngini = 0.054\nsamples = 90\nvalue = [4, 140]"] ;
291 -> 292 ;
293 [label="gini = 0.105\nsamples = 12\nvalue = [1, 17]"] ;
292 -> 293 ;
294 [label="gini = 0.046\nsamples = 78\nvalue = [3, 123]"] ;
292 -> 294 ;
295 [label="X[16] <= 0.5\ngini = 0.287\nsamples = 14\nvalue = [4, 19]"] ;
291 -> 295 ;
296 [label="gini = 0.332\nsamples = 10\nvalue = [4, 15]"] ;
295 -> 296 ;
297 [label="gini = 0.0\nsamples = 4\nvalue = [0, 4]"] ;
295 -> 297 ;
298 [label="X[24] <= 0.5\ngini = 0.199\nsamples = 74\nvalue = [13, 103]"] ;
288 -> 298 ;
299 [label="X[22] <= 0.5\ngini = 0.208\nsamples = 68\nvalue = [13, 97]"] ;
298 -> 299 ;
300 [label="gini = 0.209\nsamples = 56\nvalue = [11, 82]"] ;
299 -> 300 ;
301 [label="gini = 0.208\nsamples = 12\nvalue = [2, 15]"] ;
299 -> 301 ;
302 [label="gini = 0.0\nsamples = 6\nvalue = [0, 6]"] ;
298 -> 302 ;
303 [label="gini = 0.0\nsamples = 1\nvalue = [0, 2]"] ;
287 -> 303 ;
304 [label="gini = 0.444\nsamples = 2\nvalue = [2, 1]"] ;
286 -> 304 ;
305 [label="X[23] <= 0.5\ngini = 0.238\nsamples = 19\nvalue = [4, 25]"] ;
285 -> 305 ;
306 [label="X[22] <= 0.5\ngini = 0.494\nsamples = 4\nvalue = [4, 5]"] ;
305 -> 306 ;
307 [label="gini = 0.0\nsamples = 1\nvalue = [4, 0]"] ;
306 -> 307 ;
308 [label="gini = 0.0\nsamples = 3\nvalue = [0, 5]"] ;
306 -> 308 ;
309 [label="gini = 0.0\nsamples = 15\nvalue = [0, 20]"] ;
305 -> 309 ;
310 [label="gini = 0.0\nsamples = 50\nvalue = [0, 78]"] ;
282 -> 310 ;
311 [label="X[23] <= 0.5\ngini = 0.278\nsamples = 5\nvalue = [1, 5]"] ;
281 -> 311 ;
312 [label="gini = 0.0\nsamples = 1\nvalue = [1, 0]"] ;
311 -> 312 ;
313 [label="gini = 0.0\nsamples = 4\nvalue = [0, 5]"] ;
311 -> 313 ;
314 [label="X[9] <= 0.5\ngini = 0.483\nsamples = 2535\nvalue = [2368, 1637]"] ;
0 -> 314 [labeldistance=2.5, labelangle=-45, headlabel="False"] ;
315 [label="X[11] <= 0.5\ngini = 0.215\nsamples = 1299\nvalue = [1811, 253]"] ;
314 -> 315 ;
316 [label="X[16] <= 0.5\ngini = 0.269\nsamples = 97\nvalue = [24, 126]"] ;
315 -> 316 ;
317 [label="X[23] <= 0.5\ngini = 0.383\nsamples = 23\nvalue = [23, 8]"] ;
316 -> 317 ;
318 [label="X[14] <= 0.5\ngini = 0.391\nsamples = 22\nvalue = [22, 8]"] ;
317 -> 318 ;
319 [label="X[10] <= 0.5\ngini = 0.375\nsamples = 20\nvalue = [21, 7]"] ;
318 -> 319 ;
320 [label="X[13] <= 0.5\ngini = 0.165\nsamples = 16\nvalue = [20, 2]"] ;
319 -> 320 ;
321 [label="gini = 0.0\nsamples = 3\nvalue = [4, 0]"] ;
320 -> 321 ;
322 [label="gini = 0.198\nsamples = 13\nvalue = [16, 2]"] ;
320 -> 322 ;
323 [label="X[13] <= 0.5\ngini = 0.278\nsamples = 4\nvalue = [1, 5]"] ;
319 -> 323 ;
324 [label="gini = 0.0\nsamples = 2\nvalue = [0, 4]"] ;
323 -> 324 ;
325 [label="gini = 0.5\nsamples = 2\nvalue = [1, 1]"] ;
323 -> 325 ;
326 [label="gini = 0.5\nsamples = 2\nvalue = [1, 1]"] ;
318 -> 326 ;
327 [label="gini = 0.0\nsamples = 1\nvalue = [1, 0]"] ;
317 -> 327 ;
328 [label="X[4] <= 0.5\ngini = 0.017\nsamples = 74\nvalue = [1, 118]"] ;
316 -> 328 ;
329 [label="gini = 0.0\nsamples = 13\nvalue = [0, 23]"] ;
328 -> 329 ;
330 [label="X[10] <= 0.5\ngini = 0.021\nsamples = 61\nvalue = [1, 95]"] ;
328 -> 330 ;
331 [label="gini = 0.0\nsamples = 1\nvalue = [1, 0]"] ;
330 -> 331 ;
332 [label="gini = 0.0\nsamples = 60\nvalue = [0, 95]"] ;
330 -> 332 ;
333 [label="X[4] <= 0.5\ngini = 0.124\nsamples = 1202\nvalue = [1787, 127]"] ;
315 -> 333 ;
334 [label="X[3] <= 0.5\ngini = 0.123\nsamples = 279\nvalue = [427, 30]"] ;
333 -> 334 ;
335 [label="X[1] <= 0.5\ngini = 0.114\nsamples = 262\nvalue = [402, 26]"] ;
334 -> 335 ;
336 [label="X[16] <= 0.5\ngini = 0.121\nsamples = 243\nvalue = [376, 26]"] ;
335 -> 336 ;
337 [label="X[13] <= 0.5\ngini = 0.122\nsamples = 241\nvalue = [374, 26]"] ;
336 -> 337 ;
338 [label="X[14] <= 0.5\ngini = 0.129\nsamples = 171\nvalue = [269, 20]"] ;
337 -> 338 ;
339 [label="X[2] <= 0.5\ngini = 0.138\nsamples = 96\nvalue = [149, 12]"] ;
338 -> 339 ;
340 [label="X[15] <= 0.5\ngini = 0.241\nsamples = 32\nvalue = [43, 7]"] ;
339 -> 340 ;
341 [label="X[6] <= 0.5\ngini = 0.475\nsamples = 11\nvalue = [11, 7]"] ;
340 -> 341 ;
342 [label="X[7] <= 0.5\ngini = 0.32\nsamples = 3\nvalue = [4, 1]"] ;
341 -> 342 ;
343 [label="gini = 0.0\nsamples = 1\nvalue = [3, 0]"] ;
342 -> 343 ;
344 [label="gini = 0.5\nsamples = 2\nvalue = [1, 1]"] ;
342 -> 344 ;
345 [label="gini = 0.497\nsamples = 8\nvalue = [7, 6]"] ;
341 -> 345 ;
346 [label="gini = 0.0\nsamples = 21\nvalue = [32, 0]"] ;
340 -> 346 ;
347 [label="X[12] <= 0.5\ngini = 0.086\nsamples = 64\nvalue = [106, 5]"] ;
339 -> 347 ;
348 [label="X[6] <= 0.5\ngini = 0.024\nsamples = 47\nvalue = [81, 1]"] ;
347 -> 348 ;
349 [label="gini = 0.0\nsamples = 1\nvalue = [1, 0]"] ;
348 -> 349 ;
350 [label="gini = 0.024\nsamples = 46\nvalue = [80, 1]"] ;
348 -> 350 ;
351 [label="gini = 0.238\nsamples = 17\nvalue = [25, 4]"] ;
347 -> 351 ;
352 [label="X[2] <= 0.5\ngini = 0.117\nsamples = 75\nvalue = [120, 8]"] ;
338 -> 352 ;
353 [label="gini = 0.0\nsamples = 18\nvalue = [37, 0]"] ;
352 -> 353 ;
354 [label="gini = 0.16\nsamples = 57\nvalue = [83, 8]"] ;
352 -> 354 ;
355 [label="X[6] <= 0.5\ngini = 0.102\nsamples = 70\nvalue = [105, 6]"] ;
337 -> 355 ;
356 [label="gini = 0.0\nsamples = 3\nvalue = [6, 0]"] ;
355 -> 356 ;
357 [label="X[0] <= 0.5\ngini = 0.108\nsamples = 67\nvalue = [99, 6]"] ;
355 -> 357 ;
358 [label="gini = 0.142\nsamples = 48\nvalue = [72, 6]"] ;
357 -> 358 ;
359 [label="gini = 0.0\nsamples = 19\nvalue = [27, 0]"] ;
357 -> 359 ;
360 [label="gini = 0.0\nsamples = 2\nvalue = [2, 0]"] ;
336 -> 360 ;
361 [label="gini = 0.0\nsamples = 19\nvalue = [26, 0]"] ;
335 -> 361 ;
362 [label="X[13] <= 0.5\ngini = 0.238\nsamples = 17\nvalue = [25, 4]"] ;
334 -> 362 ;
363 [label="X[12] <= 0.5\ngini = 0.26\nsamples = 14\nvalue = [22, 4]"] ;
362 -> 363 ;
364 [label="X[6] <= 0.5\ngini = 0.332\nsamples = 11\nvalue = [15, 4]"] ;
363 -> 364 ;
365 [label="gini = 0.355\nsamples = 7\nvalue = [10, 3]"] ;
364 -> 365 ;
366 [label="X[14] <= 0.5\ngini = 0.278\nsamples = 4\nvalue = [5, 1]"] ;
364 -> 366 ;
367 [label="gini = 0.0\nsamples = 2\nvalue = [2, 0]"] ;
366 -> 367 ;
368 [label="gini = 0.375\nsamples = 2\nvalue = [3, 1]"] ;
366 -> 368 ;
369 [label="gini = 0.0\nsamples = 3\nvalue = [7, 0]"] ;
363 -> 369 ;
370 [label="gini = 0.0\nsamples = 3\nvalue = [3, 0]"] ;
362 -> 370 ;
371 [label="X[15] <= 0.5\ngini = 0.124\nsamples = 923\nvalue = [1360, 97]"] ;
333 -> 371 ;
372 [label="X[12] <= 0.5\ngini = 0.152\nsamples = 618\nvalue = [886, 80]"] ;
371 -> 372 ;
373 [label="X[16] <= 0.5\ngini = 0.137\nsamples = 509\nvalue = [752, 60]"] ;
372 -> 373 ;
374 [label="X[0] <= 0.5\ngini = 0.131\nsamples = 500\nvalue = [742, 56]"] ;
373 -> 374 ;
375 [label="X[13] <= 0.5\ngini = 0.375\nsamples = 3\nvalue = [3, 1]"] ;
374 -> 375 ;
376 [label="gini = 0.0\nsamples = 1\nvalue = [1, 0]"] ;
375 -> 376 ;
377 [label="X[1] <= 0.5\ngini = 0.444\nsamples = 2\nvalue = [2, 1]"] ;
375 -> 377 ;
378 [label="gini = 0.0\nsamples = 1\nvalue = [0, 1]"] ;
377 -> 378 ;
379 [label="gini = 0.0\nsamples = 1\nvalue = [2, 0]"] ;
377 -> 379 ;
380 [label="X[14] <= 0.5\ngini = 0.129\nsamples = 497\nvalue = [739, 55]"] ;
374 -> 380 ;
381 [label="gini = 0.144\nsamples = 258\nvalue = [389, 33]"] ;
380 -> 381 ;
382 [label="gini = 0.111\nsamples = 239\nvalue = [350, 22]"] ;
380 -> 382 ;
383 [label="gini = 0.408\nsamples = 9\nvalue = [10, 4]"] ;
373 -> 383 ;
384 [label="gini = 0.226\nsamples = 109\nvalue = [134, 20]"] ;
372 -> 384 ;
385 [label="gini = 0.067\nsamples = 305\nvalue = [474, 17]"] ;
371 -> 385 ;
386 [label="X[21] <= 0.5\ngini = 0.409\nsamples = 1236\nvalue = [557, 1384]"] ;
314 -> 386 ;
387 [label="X[13] <= 0.5\ngini = 0.409\nsamples = 1235\nvalue = [556, 1384]"] ;
386 -> 387 ;
388 [label="X[24] <= 0.5\ngini = 0.4\nsamples = 825\nvalue = [357, 935]"] ;
387 -> 388 ;
389 [label="X[12] <= 0.5\ngini = 0.343\nsamples = 25\nvalue = [9, 32]"] ;
388 -> 389 ;
390 [label="X[7] <= 0.5\ngini = 0.301\nsamples = 23\nvalue = [7, 31]"] ;
389 -> 390 ;
391 [label="X[2] <= 0.5\ngini = 0.307\nsamples = 22\nvalue = [7, 30]"] ;
390 -> 391 ;
392 [label="X[6] <= 0.5\ngini = 0.327\nsamples = 20\nvalue = [7, 27]"] ;
391 -> 392 ;
393 [label="X[14] <= 0.5\ngini = 0.35\nsamples = 19\nvalue = [7, 24]"] ;
392 -> 393 ;
394 [label="X[23] <= 0.5\ngini = 0.346\nsamples = 5\nvalue = [2, 7]"] ;
393 -> 394 ;
395 [label="gini = 0.0\nsamples = 1\nvalue = [0, 3]"] ;
394 -> 395 ;
396 [label="gini = 0.444\nsamples = 4\nvalue = [2, 4]"] ;
394 -> 396 ;
397 [label="X[23] <= 0.5\ngini = 0.351\nsamples = 14\nvalue = [5, 17]"] ;
393 -> 397 ;
398 [label="gini = 0.408\nsamples = 4\nvalue = [2, 5]"] ;
397 -> 398 ;
399 [label="gini = 0.32\nsamples = 10\nvalue = [3, 12]"] ;
397 -> 399 ;
400 [label="gini = 0.0\nsamples = 1\nvalue = [0, 3]"] ;
392 -> 400 ;
401 [label="gini = 0.0\nsamples = 2\nvalue = [0, 3]"] ;
391 -> 401 ;
402 [label="gini = 0.0\nsamples = 1\nvalue = [0, 1]"] ;
390 -> 402 ;
403 [label="gini = 0.444\nsamples = 2\nvalue = [2, 1]"] ;
389 -> 403 ;
404 [label="X[2] <= 0.5\ngini = 0.402\nsamples = 800\nvalue = [348, 903]"] ;
388 -> 404 ;
405 [label="X[15] <= 0.5\ngini = 0.402\nsamples = 710\nvalue = [310, 802]"] ;
404 -> 405 ;
406 [label="X[14] <= 0.5\ngini = 0.362\nsamples = 575\nvalue = [213, 685]"] ;
405 -> 406 ;
407 [label="X[5] <= 0.5\ngini = 0.302\nsamples = 407\nvalue = [116, 511]"] ;
406 -> 407 ;
408 [label="X[16] <= 0.5\ngini = 0.298\nsamples = 404\nvalue = [113, 507]"] ;
407 -> 408 ;
409 [label="X[1] <= 0.5\ngini = 0.369\nsamples = 267\nvalue = [101, 312]"] ;
408 -> 409 ;
410 [label="X[0] <= 0.5\ngini = 0.371\nsamples = 265\nvalue = [101, 310]"] ;
409 -> 410 ;
411 [label="gini = 0.298\nsamples = 6\nvalue = [2, 9]"] ;
410 -> 411 ;
412 [label="X[4] <= 0.5\ngini = 0.372\nsamples = 259\nvalue = [99, 301]"] ;
410 -> 412 ;
413 [label="X[6] <= 0.5\ngini = 0.453\nsamples = 17\nvalue = [9, 17]"] ;
412 -> 413 ;
414 [label="gini = 0.0\nsamples = 3\nvalue = [7, 0]"] ;
413 -> 414 ;
415 [label="gini = 0.188\nsamples = 14\nvalue = [2, 17]"] ;
413 -> 415 ;
416 [label="gini = 0.365\nsamples = 242\nvalue = [90, 284]"] ;
412 -> 416 ;
417 [label="gini = 0.0\nsamples = 2\nvalue = [0, 2]"] ;
409 -> 417 ;
418 [label="X[3] <= 0.5\ngini = 0.109\nsamples = 137\nvalue = [12, 195]"] ;
408 -> 418 ;
419 [label="X[1] <= 0.5\ngini = 0.103\nsamples = 132\nvalue = [11, 190]"] ;
418 -> 419 ;
420 [label="X[7] <= 0.5\ngini = 0.104\nsamples = 130\nvalue = [11, 188]"] ;
419 -> 420 ;
421 [label="X[6] <= 0.5\ngini = 0.11\nsamples = 124\nvalue = [11, 178]"] ;
420 -> 421 ;
422 [label="gini = 0.115\nsamples = 117\nvalue = [11, 169]"] ;
421 -> 422 ;
423 [label="gini = 0.0\nsamples = 7\nvalue = [0, 9]"] ;
421 -> 423 ;
424 [label="gini = 0.0\nsamples = 6\nvalue = [0, 10]"] ;
420 -> 424 ;
425 [label="gini = 0.0\nsamples = 2\nvalue = [0, 2]"] ;
419 -> 425 ;
426 [label="gini = 0.278\nsamples = 5\nvalue = [1, 5]"] ;
418 -> 426 ;
427 [label="X[0] <= 0.5\ngini = 0.49\nsamples = 3\nvalue = [3, 4]"] ;
407 -> 427 ;
428 [label="gini = 0.0\nsamples = 1\nvalue = [3, 0]"] ;
427 -> 428 ;
429 [label="gini = 0.0\nsamples = 2\nvalue = [0, 4]"] ;
427 -> 429 ;
430 [label="X[7] <= 0.5\ngini = 0.46\nsamples = 168\nvalue = [97, 174]"] ;
406 -> 430 ;
431 [label="X[5] <= 0.5\ngini = 0.455\nsamples = 159\nvalue = [87, 162]"] ;
430 -> 431 ;
432 [label="X[4] <= 0.5\ngini = 0.452\nsamples = 157\nvalue = [85, 161]"] ;
431 -> 432 ;
433 [label="gini = 0.426\nsamples = 8\nvalue = [4, 9]"] ;
432 -> 433 ;
434 [label="gini = 0.454\nsamples = 149\nvalue = [81, 152]"] ;
432 -> 434 ;
435 [label="X[1] <= 0.5\ngini = 0.444\nsamples = 2\nvalue = [2, 1]"] ;
431 -> 435 ;
436 [label="gini = 0.0\nsamples = 1\nvalue = [2, 0]"] ;
435 -> 436 ;
437 [label="gini = 0.0\nsamples = 1\nvalue = [0, 1]"] ;
435 -> 437 ;
438 [label="X[3] <= 0.5\ngini = 0.496\nsamples = 9\nvalue = [10, 12]"] ;
430 -> 438 ;
439 [label="gini = 0.444\nsamples = 4\nvalue = [3, 6]"] ;
438 -> 439 ;
440 [label="gini = 0.497\nsamples = 5\nvalue = [7, 6]"] ;
438 -> 440 ;
441 [label="X[3] <= 0.5\ngini = 0.496\nsamples = 135\nvalue = [97, 117]"] ;
405 -> 441 ;
442 [label="X[6] <= 0.5\ngini = 0.496\nsamples = 131\nvalue = [95, 113]"] ;
441 -> 442 ;
443 [label="X[1] <= 0.5\ngini = 0.495\nsamples = 122\nvalue = [87, 107]"] ;
442 -> 443 ;
444 [label="X[4] <= 0.5\ngini = 0.494\nsamples = 121\nvalue = [86, 107]"] ;
443 -> 444 ;
445 [label="gini = 0.0\nsamples = 1\nvalue = [0, 1]"] ;
444 -> 445 ;
446 [label="gini = 0.495\nsamples = 120\nvalue = [86, 106]"] ;
444 -> 446 ;
447 [label="gini = 0.0\nsamples = 1\nvalue = [1, 0]"] ;
443 -> 447 ;
448 [label="gini = 0.49\nsamples = 9\nvalue = [8, 6]"] ;
442 -> 448 ;
449 [label="X[7] <= 0.5\ngini = 0.444\nsamples = 4\nvalue = [2, 4]"] ;
441 -> 449 ;
450 [label="gini = 0.0\nsamples = 1\nvalue = [0, 2]"] ;
449 -> 450 ;
451 [label="gini = 0.5\nsamples = 3\nvalue = [2, 2]"] ;
449 -> 451 ;
452 [label="X[12] <= 0.5\ngini = 0.397\nsamples = 90\nvalue = [38, 101]"] ;
404 -> 452 ;
453 [label="X[14] <= 0.5\ngini = 0.425\nsamples = 56\nvalue = [26, 59]"] ;
452 -> 453 ;
454 [label="X[16] <= 0.5\ngini = 0.325\nsamples = 31\nvalue = [9, 35]"] ;
453 -> 454 ;
455 [label="gini = 0.463\nsamples = 9\nvalue = [7, 4]"] ;
454 -> 455 ;
456 [label="gini = 0.114\nsamples = 22\nvalue = [2, 31]"] ;
454 -> 456 ;
457 [label="gini = 0.485\nsamples = 25\nvalue = [17, 24]"] ;
453 -> 457 ;
458 [label="gini = 0.346\nsamples = 34\nvalue = [12, 42]"] ;
452 -> 458 ;
459 [label="X[1] <= 0.5\ngini = 0.426\nsamples = 410\nvalue = [199, 449]"] ;
387 -> 459 ;
460 [label="X[24] <= 0.5\ngini = 0.424\nsamples = 409\nvalue = [197, 449]"] ;
459 -> 460 ;
461 [label="X[22] <= 0.5\ngini = 0.375\nsamples = 8\nvalue = [3, 9]"] ;
460 -> 461 ;
462 [label="X[0] <= 0.5\ngini = 0.42\nsamples = 6\nvalue = [3, 7]"] ;
461 -> 462 ;
463 [label="gini = 0.0\nsamples = 1\nvalue = [0, 3]"] ;
462 -> 463 ;
464 [label="gini = 0.49\nsamples = 5\nvalue = [3, 4]"] ;
462 -> 464 ;
465 [label="gini = 0.0\nsamples = 2\nvalue = [0, 2]"] ;
461 -> 465 ;
466 [label="X[0] <= 0.5\ngini = 0.425\nsamples = 401\nvalue = [194, 440]"] ;
460 -> 466 ;
467 [label="X[2] <= 0.5\ngini = 0.45\nsamples = 48\nvalue = [26, 50]"] ;
466 -> 467 ;
468 [label="X[6] <= 0.5\ngini = 0.499\nsamples = 13\nvalue = [10, 11]"] ;
467 -> 468 ;
469 [label="gini = 0.5\nsamples = 7\nvalue = [6, 6]"] ;
468 -> 469 ;
470 [label="gini = 0.494\nsamples = 6\nvalue = [4, 5]"] ;
468 -> 470 ;
471 [label="X[6] <= 0.5\ngini = 0.413\nsamples = 35\nvalue = [16, 39]"] ;
467 -> 471 ;
472 [label="gini = 0.0\nsamples = 1\nvalue = [3, 0]"] ;
471 -> 472 ;
473 [label="gini = 0.375\nsamples = 34\nvalue = [13, 39]"] ;
471 -> 473 ;
474 [label="X[4] <= 0.5\ngini = 0.421\nsamples = 353\nvalue = [168, 390]"] ;
466 -> 474 ;
475 [label="X[7] <= 0.5\ngini = 0.488\nsamples = 24\nvalue = [16, 22]"] ;
474 -> 475 ;
476 [label="X[6] <= 0.5\ngini = 0.49\nsamples = 22\nvalue = [15, 20]"] ;
475 -> 476 ;
477 [label="gini = 0.0\nsamples = 2\nvalue = [0, 2]"] ;
476 -> 477 ;
478 [label="gini = 0.496\nsamples = 20\nvalue = [15, 18]"] ;
476 -> 478 ;
479 [label="gini = 0.444\nsamples = 2\nvalue = [1, 2]"] ;
475 -> 479 ;
480 [label="gini = 0.414\nsamples = 329\nvalue = [152, 368]"] ;
474 -> 480 ;
481 [label="gini = 0.0\nsamples = 1\nvalue = [2, 0]"] ;
459 -> 481 ;
482 [label="gini = 0.0\nsamples = 1\nvalue = [1, 0]"] ;
386 -> 482 ;
}