digraph Tree {
node [shape=box] ;
0 [label="X[11] <= 0.5\ngini = 0.491\nsamples = 6412\nvalue = [4376, 5719]"] ;
1 [label="X[10] <= 0.5\ngini = 0.429\nsamples = 5155\nvalue = [2531, 5595]"] ;
0 -> 1 [labeldistance=2.5, labelangle=45, headlabel="True"] ;
2 [label="X[16] <= 0.5\ngini = 0.433\nsamples = 5057\nvalue = [2529, 5455]"] ;
1 -> 2 ;
3 [label="X[18] <= 0.5\ngini = 0.445\nsamples = 4745\nvalue = [2504, 4996]"] ;
2 -> 3 ;
4 [label="X[8] <= 0.5\ngini = 0.454\nsamples = 4485\nvalue = [2471, 4618]"] ;
3 -> 4 ;
5 [label="X[15] <= 0.5\ngini = 0.383\nsamples = 3915\nvalue = [1592, 4564]"] ;
4 -> 5 ;
6 [label="X[22] <= 0.5\ngini = 0.366\nsamples = 3210\nvalue = [1214, 3826]"] ;
5 -> 6 ;
7 [label="X[23] <= 0.5\ngini = 0.381\nsamples = 2820\nvalue = [1133, 3293]"] ;
6 -> 7 ;
8 [label="X[21] <= 0.5\ngini = 0.449\nsamples = 1291\nvalue = [693, 1339]"] ;
7 -> 8 ;
9 [label="X[19] <= 0.5\ngini = 0.434\nsamples = 1113\nvalue = [553, 1181]"] ;
8 -> 9 ;
10 [label="X[13] <= 0.5\ngini = 0.481\nsamples = 218\nvalue = [130, 193]"] ;
9 -> 10 ;
11 [label="X[7] <= 0.5\ngini = 0.405\nsamples = 95\nvalue = [39, 99]"] ;
10 -> 11 ;
12 [label="X[12] <= 0.5\ngini = 0.396\nsamples = 94\nvalue = [37, 99]"] ;
11 -> 12 ;
13 [label="X[0] <= 0.5\ngini = 0.386\nsamples = 78\nvalue = [30, 85]"] ;
12 -> 13 ;
14 [label="X[1] <= 0.5\ngini = 0.412\nsamples = 19\nvalue = [9, 22]"] ;
13 -> 14 ;
15 [label="X[6] <= 0.5\ngini = 0.391\nsamples = 18\nvalue = [8, 22]"] ;
14 -> 15 ;
16 [label="X[2] <= 0.5\ngini = 0.49\nsamples = 3\nvalue = [4, 3]"] ;
15 -> 16 ;
17 [label="gini = 0.0\nsamples = 1\nvalue = [0, 2]"] ;
16 -> 17 ;
18 [label="gini = 0.32\nsamples = 2\nvalue = [4, 1]"] ;
16 -> 18 ;
19 [label="gini = 0.287\nsamples = 15\nvalue = [4, 19]"] ;
15 -> 19 ;
20 [label="gini = 0.0\nsamples = 1\nvalue = [1, 0]"] ;
14 -> 20 ;
21 [label="X[4] <= 0.5\ngini = 0.375\nsamples = 59\nvalue = [21, 63]"] ;
13 -> 21 ;
22 [label="X[5] <= 0.5\ngini = 0.5\nsamples = 7\nvalue = [4, 4]"] ;
21 -> 22 ;
23 [label="gini = 0.444\nsamples = 6\nvalue = [2, 4]"] ;
22 -> 23 ;
24 [label="gini = 0.0\nsamples = 1\nvalue = [2, 0]"] ;
22 -> 24 ;
25 [label="gini = 0.347\nsamples = 52\nvalue = [17, 59]"] ;
21 -> 25 ;
26 [label="X[4] <= 0.5\ngini = 0.444\nsamples = 16\nvalue = [7, 14]"] ;
12 -> 26 ;
27 [label="X[0] <= 0.5\ngini = 0.5\nsamples = 3\nvalue = [2, 2]"] ;
26 -> 27 ;
28 [label="gini = 0.0\nsamples = 1\nvalue = [0, 1]"] ;
27 -> 28 ;
29 [label="gini = 0.444\nsamples = 2\nvalue = [2, 1]"] ;
27 -> 29 ;
30 [label="gini = 0.415\nsamples = 13\nvalue = [5, 12]"] ;
26 -> 30 ;
31 [label="gini = 0.0\nsamples = 1\nvalue = [2, 0]"] ;
11 -> 31 ;
32 [label="X[1] <= 0.5\ngini = 0.5\nsamples = 123\nvalue = [91, 94]"] ;
10 -> 32 ;
33 [label="X[7] <= 0.5\ngini = 0.5\nsamples = 119\nvalue = [90, 90]"] ;
32 -> 33 ;
34 [label="X[6] <= 0.5\ngini = 0.5\nsamples = 114\nvalue = [88, 83]"] ;
33 -> 34 ;
35 [label="X[3] <= 0.5\ngini = 0.497\nsamples = 92\nvalue = [74, 64]"] ;
34 -> 35 ;
36 [label="X[4] <= 0.5\ngini = 0.497\nsamples = 91\nvalue = [74, 63]"] ;
35 -> 36 ;
37 [label="gini = 0.444\nsamples = 2\nvalue = [2, 1]"] ;
36 -> 37 ;
38 [label="gini = 0.497\nsamples = 89\nvalue = [72, 62]"] ;
36 -> 38 ;
39 [label="gini = 0.0\nsamples = 1\nvalue = [0, 1]"] ;
35 -> 39 ;
40 [label="X[2] <= 0.5\ngini = 0.489\nsamples = 22\nvalue = [14, 19]"] ;
34 -> 40 ;
41 [label="X[0] <= 0.5\ngini = 0.463\nsamples = 9\nvalue = [4, 7]"] ;
40 -> 41 ;
42 [label="gini = 0.0\nsamples = 2\nvalue = [0, 2]"] ;
41 -> 42 ;
43 [label="gini = 0.494\nsamples = 7\nvalue = [4, 5]"] ;
41 -> 43 ;
44 [label="gini = 0.496\nsamples = 13\nvalue = [10, 12]"] ;
40 -> 44 ;
45 [label="X[2] <= 0.5\ngini = 0.346\nsamples = 5\nvalue = [2, 7]"] ;
33 -> 45 ;
46 [label="X[3] <= 0.5\ngini = 0.375\nsamples = 4\nvalue = [2, 6]"] ;
45 -> 46 ;
47 [label="gini = 0.444\nsamples = 2\nvalue = [2, 1]"] ;
46 -> 47 ;
48 [label="gini = 0.0\nsamples = 2\nvalue = [0, 5]"] ;
46 -> 48 ;
49 [label="gini = 0.0\nsamples = 1\nvalue = [0, 1]"] ;
45 -> 49 ;
50 [label="X[5] <= 0.5\ngini = 0.32\nsamples = 4\nvalue = [1, 4]"] ;
32 -> 50 ;
51 [label="gini = 0.0\nsamples = 2\nvalue = [0, 3]"] ;
50 -> 51 ;
52 [label="gini = 0.5\nsamples = 2\nvalue = [1, 1]"] ;
50 -> 52 ;
53 [label="X[3] <= 0.5\ngini = 0.42\nsamples = 895\nvalue = [423, 988]"] ;
9 -> 53 ;
54 [label="X[14] <= 0.5\ngini = 0.417\nsamples = 870\nvalue = [408, 969]"] ;
53 -> 54 ;
55 [label="X[6] <= 0.5\ngini = 0.409\nsamples = 693\nvalue = [316, 787]"] ;
54 -> 55 ;
56 [label="X[13] <= 0.5\ngini = 0.416\nsamples = 586\nvalue = [272, 650]"] ;
55 -> 56 ;
57 [label="X[7] <= 0.5\ngini = 0.383\nsamples = 242\nvalue = [99, 284]"] ;
56 -> 57 ;
58 [label="gini = 0.374\nsamples = 238\nvalue = [94, 283]"] ;
57 -> 58 ;
59 [label="X[0] <= 0.5\ngini = 0.278\nsamples = 4\nvalue = [5, 1]"] ;
57 -> 59 ;
60 [label="gini = 0.0\nsamples = 1\nvalue = [0, 1]"] ;
59 -> 60 ;
61 [label="gini = 0.0\nsamples = 3\nvalue = [5, 0]"] ;
59 -> 61 ;
62 [label="X[1] <= 0.5\ngini = 0.436\nsamples = 344\nvalue = [173, 366]"] ;
56 -> 62 ;
63 [label="X[2] <= 0.5\ngini = 0.436\nsamples = 343\nvalue = [173, 365]"] ;
62 -> 63 ;
64 [label="X[4] <= 0.5\ngini = 0.435\nsamples = 342\nvalue = [172, 365]"] ;
63 -> 64 ;
65 [label="X[7] <= 0.5\ngini = 0.375\nsamples = 3\nvalue = [1, 3]"] ;
64 -> 65 ;
66 [label="gini = 0.0\nsamples = 1\nvalue = [0, 2]"] ;
65 -> 66 ;
67 [label="gini = 0.5\nsamples = 2\nvalue = [1, 1]"] ;
65 -> 67 ;
68 [label="gini = 0.436\nsamples = 339\nvalue = [171, 362]"] ;
64 -> 68 ;
69 [label="gini = 0.0\nsamples = 1\nvalue = [1, 0]"] ;
63 -> 69 ;
70 [label="gini = 0.0\nsamples = 1\nvalue = [0, 1]"] ;
62 -> 70 ;
71 [label="X[13] <= 0.5\ngini = 0.368\nsamples = 107\nvalue = [44, 137]"] ;
55 -> 71 ;
72 [label="X[1] <= 0.5\ngini = 0.323\nsamples = 44\nvalue = [14, 55]"] ;
71 -> 72 ;
73 [label="X[0] <= 0.5\ngini = 0.327\nsamples = 43\nvalue = [14, 54]"] ;
72 -> 73 ;
74 [label="gini = 0.292\nsamples = 26\nvalue = [8, 37]"] ;
73 -> 74 ;
75 [label="gini = 0.386\nsamples = 17\nvalue = [6, 17]"] ;
73 -> 75 ;
76 [label="gini = 0.0\nsamples = 1\nvalue = [0, 1]"] ;
72 -> 76 ;
77 [label="X[2] <= 0.5\ngini = 0.392\nsamples = 63\nvalue = [30, 82]"] ;
71 -> 77 ;
78 [label="X[0] <= 0.5\ngini = 0.383\nsamples = 30\nvalue = [15, 43]"] ;
77 -> 78 ;
79 [label="gini = 0.0\nsamples = 1\nvalue = [0, 1]"] ;
78 -> 79 ;
80 [label="gini = 0.388\nsamples = 29\nvalue = [15, 42]"] ;
78 -> 80 ;
81 [label="gini = 0.401\nsamples = 33\nvalue = [15, 39]"] ;
77 -> 81 ;
82 [label="X[0] <= 0.5\ngini = 0.446\nsamples = 177\nvalue = [92, 182]"] ;
54 -> 82 ;
83 [label="X[1] <= 0.5\ngini = 0.464\nsamples = 23\nvalue = [11, 19]"] ;
82 -> 83 ;
84 [label="gini = 0.472\nsamples = 15\nvalue = [8, 13]"] ;
83 -> 84 ;
85 [label="X[7] <= 0.5\ngini = 0.444\nsamples = 8\nvalue = [3, 6]"] ;
83 -> 85 ;
86 [label="X[6] <= 0.5\ngini = 0.408\nsamples = 6\nvalue = [2, 5]"] ;
85 -> 86 ;
87 [label="X[5] <= 0.5\ngini = 0.375\nsamples = 4\nvalue = [1, 3]"] ;
86 -> 87 ;
88 [label="gini = 0.0\nsamples = 1\nvalue = [0, 1]"] ;
87 -> 88 ;
89 [label="gini = 0.444\nsamples = 3\nvalue = [1, 2]"] ;
87 -> 89 ;
90 [label="gini = 0.444\nsamples = 2\nvalue = [1, 2]"] ;
86 -> 90 ;
91 [label="gini = 0.5\nsamples = 2\nvalue = [1, 1]"] ;
85 -> 91 ;
92 [label="X[6] <= 0.5\ngini = 0.444\nsamples = 154\nvalue = [81, 163]"] ;
82 -> 92 ;
93 [label="X[4] <= 0.5\ngini = 0.446\nsamples = 145\nvalue = [77, 152]"] ;
92 -> 93 ;
94 [label="X[5] <= 0.5\ngini = 0.375\nsamples = 3\nvalue = [3, 1]"] ;
93 -> 94 ;
95 [label="gini = 0.5\nsamples = 2\nvalue = [1, 1]"] ;
94 -> 95 ;
96 [label="gini = 0.0\nsamples = 1\nvalue = [2, 0]"] ;
94 -> 96 ;
97 [label="gini = 0.441\nsamples = 142\nvalue = [74, 151]"] ;
93 -> 97 ;
98 [label="gini = 0.391\nsamples = 9\nvalue = [4, 11]"] ;
92 -> 98 ;
99 [label="X[14] <= 0.5\ngini = 0.493\nsamples = 25\nvalue = [15, 19]"] ;
53 -> 99 ;
100 [label="X[12] <= 0.5\ngini = 0.477\nsamples = 20\nvalue = [11, 17]"] ;
99 -> 100 ;
101 [label="X[6] <= 0.5\ngini = 0.492\nsamples = 12\nvalue = [7, 9]"] ;
100 -> 101 ;
102 [label="gini = 0.494\nsamples = 7\nvalue = [5, 4]"] ;
101 -> 102 ;
103 [label="gini = 0.408\nsamples = 5\nvalue = [2, 5]"] ;
101 -> 103 ;
104 [label="X[6] <= 0.5\ngini = 0.444\nsamples = 8\nvalue = [4, 8]"] ;
100 -> 104 ;
105 [label="gini = 0.198\nsamples = 7\nvalue = [1, 8]"] ;
104 -> 105 ;
106 [label="gini = 0.0\nsamples = 1\nvalue = [3, 0]"] ;
104 -> 106 ;
107 [label="X[7] <= 0.5\ngini = 0.444\nsamples = 5\nvalue = [4, 2]"] ;
99 -> 107 ;
108 [label="gini = 0.0\nsamples = 1\nvalue = [1, 0]"] ;
107 -> 108 ;
109 [label="gini = 0.48\nsamples = 4\nvalue = [3, 2]"] ;
107 -> 109 ;
110 [label="X[0] <= 0.5\ngini = 0.498\nsamples = 178\nvalue = [140, 158]"] ;
8 -> 110 ;
111 [label="X[1] <= 0.5\ngini = 0.36\nsamples = 18\nvalue = [8, 26]"] ;
110 -> 111 ;
112 [label="X[2] <= 0.5\ngini = 0.204\nsamples = 13\nvalue = [3, 23]"] ;
111 -> 112 ;
113 [label="X[6] <= 0.5\ngini = 0.42\nsamples = 6\nvalue = [3, 7]"] ;
112 -> 113 ;
114 [label="gini = 0.0\nsamples = 2\nvalue = [0, 2]"] ;
113 -> 114 ;
115 [label="gini = 0.469\nsamples = 4\nvalue = [3, 5]"] ;
113 -> 115 ;
116 [label="gini = 0.0\nsamples = 7\nvalue = [0, 16]"] ;
112 -> 116 ;
117 [label="X[13] <= 0.5\ngini = 0.469\nsamples = 5\nvalue = [5, 3]"] ;
111 -> 117 ;
118 [label="gini = 0.0\nsamples = 1\nvalue = [1, 0]"] ;
117 -> 118 ;
119 [label="X[6] <= 0.5\ngini = 0.49\nsamples = 4\nvalue = [4, 3]"] ;
117 -> 119 ;
120 [label="gini = 0.0\nsamples = 1\nvalue = [0, 1]"] ;
119 -> 120 ;
121 [label="gini = 0.444\nsamples = 3\nvalue = [4, 2]"] ;
119 -> 121 ;
122 [label="X[14] <= 0.5\ngini = 0.5\nsamples = 160\nvalue = [132, 132]"] ;
110 -> 122 ;
123 [label="X[6] <= 0.5\ngini = 0.494\nsamples = 110\nvalue = [79, 98]"] ;
122 -> 123 ;
124 [label="X[13] <= 0.5\ngini = 0.49\nsamples = 106\nvalue = [72, 96]"] ;
123 -> 124 ;
125 [label="gini = 0.388\nsamples = 9\nvalue = [5, 14]"] ;
124 -> 125 ;
126 [label="gini = 0.495\nsamples = 97\nvalue = [67, 82]"] ;
124 -> 126 ;
127 [label="X[12] <= 0.5\ngini = 0.346\nsamples = 4\nvalue = [7, 2]"] ;
123 -> 127 ;
128 [label="gini = 0.375\nsamples = 3\nvalue = [6, 2]"] ;
127 -> 128 ;
129 [label="gini = 0.0\nsamples = 1\nvalue = [1, 0]"] ;
127 -> 129 ;
130 [label="X[7] <= 0.5\ngini = 0.476\nsamples = 50\nvalue = [53, 34]"] ;
122 -> 130 ;
131 [label="X[4] <= 0.5\ngini = 0.478\nsamples = 49\nvalue = [52, 34]"] ;
130 -> 131 ;
132 [label="gini = 0.346\nsamples = 5\nvalue = [7, 2]"] ;
131 -> 132 ;
133 [label="gini = 0.486\nsamples = 44\nvalue = [45, 32]"] ;
131 -> 133 ;
134 [label="gini = 0.0\nsamples = 1\nvalue = [1, 0]"] ;
130 -> 134 ;
135 [label="X[0] <= 0.5\ngini = 0.3\nsamples = 1529\nvalue = [440, 1954]"] ;
7 -> 135 ;
136 [label="X[1] <= 0.5\ngini = 0.355\nsamples = 217\nvalue = [83, 276]"] ;
135 -> 136 ;
137 [label="X[3] <= 0.5\ngini = 0.348\nsamples = 206\nvalue = [75, 260]"] ;
136 -> 137 ;
138 [label="X[7] <= 0.5\ngini = 0.358\nsamples = 176\nvalue = [66, 217]"] ;
137 -> 138 ;
139 [label="X[13] <= 0.5\ngini = 0.359\nsamples = 174\nvalue = [66, 215]"] ;
138 -> 139 ;
140 [label="X[14] <= 0.5\ngini = 0.371\nsamples = 89\nvalue = [34, 104]"] ;
139 -> 140 ;
141 [label="gini = 0.245\nsamples = 5\nvalue = [1, 6]"] ;
140 -> 141 ;
142 [label="gini = 0.377\nsamples = 84\nvalue = [33, 98]"] ;
140 -> 142 ;
143 [label="gini = 0.347\nsamples = 85\nvalue = [32, 111]"] ;
139 -> 143 ;
144 [label="gini = 0.0\nsamples = 2\nvalue = [0, 2]"] ;
138 -> 144 ;
145 [label="X[20] <= 0.5\ngini = 0.286\nsamples = 30\nvalue = [9, 43]"] ;
137 -> 145 ;
146 [label="gini = 0.0\nsamples = 1\nvalue = [0, 2]"] ;
145 -> 146 ;
147 [label="X[14] <= 0.5\ngini = 0.295\nsamples = 29\nvalue = [9, 41]"] ;
145 -> 147 ;
148 [label="X[7] <= 0.5\ngini = 0.32\nsamples = 15\nvalue = [5, 20]"] ;
147 -> 148 ;
149 [label="gini = 0.0\nsamples = 4\nvalue = [0, 4]"] ;
148 -> 149 ;
150 [label="gini = 0.363\nsamples = 11\nvalue = [5, 16]"] ;
148 -> 150 ;
151 [label="X[6] <= 0.5\ngini = 0.269\nsamples = 14\nvalue = [4, 21]"] ;
147 -> 151 ;
152 [label="gini = 0.305\nsamples = 10\nvalue = [3, 13]"] ;
151 -> 152 ;
153 [label="gini = 0.198\nsamples = 4\nvalue = [1, 8]"] ;
151 -> 153 ;
154 [label="X[5] <= 0.5\ngini = 0.444\nsamples = 11\nvalue = [8, 16]"] ;
136 -> 154 ;
155 [label="X[4] <= 0.5\ngini = 0.472\nsamples = 9\nvalue = [8, 13]"] ;
154 -> 155 ;
156 [label="X[7] <= 0.5\ngini = 0.36\nsamples = 7\nvalue = [4, 13]"] ;
155 -> 156 ;
157 [label="X[14] <= 0.5\ngini = 0.42\nsamples = 4\nvalue = [3, 7]"] ;
156 -> 157 ;
158 [label="gini = 0.469\nsamples = 3\nvalue = [3, 5]"] ;
157 -> 158 ;
159 [label="gini = 0.0\nsamples = 1\nvalue = [0, 2]"] ;
157 -> 159 ;
160 [label="X[13] <= 0.5\ngini = 0.245\nsamples = 3\nvalue = [1, 6]"] ;
156 -> 160 ;
161 [label="gini = 0.375\nsamples = 2\nvalue = [1, 3]"] ;
160 -> 161 ;
162 [label="gini = 0.0\nsamples = 1\nvalue = [0, 3]"] ;
160 -> 162 ;
163 [label="gini = 0.0\nsamples = 2\nvalue = [4, 0]"] ;
155 -> 163 ;
164 [label="gini = 0.0\nsamples = 2\nvalue = [0, 3]"] ;
154 -> 164 ;
165 [label="X[4] <= 0.5\ngini = 0.289\nsamples = 1312\nvalue = [357, 1678]"] ;
135 -> 165 ;
166 [label="X[7] <= 0.5\ngini = 0.334\nsamples = 109\nvalue = [35, 130]"] ;
165 -> 166 ;
167 [label="X[19] <= 0.5\ngini = 0.322\nsamples = 105\nvalue = [32, 127]"] ;
166 -> 167 ;
168 [label="X[12] <= 0.5\ngini = 0.323\nsamples = 104\nvalue = [32, 126]"] ;
167 -> 168 ;
169 [label="X[5] <= 0.5\ngini = 0.334\nsamples = 101\nvalue = [32, 119]"] ;
168 -> 169 ;
170 [label="X[13] <= 0.5\ngini = 0.34\nsamples = 94\nvalue = [30, 108]"] ;
169 -> 170 ;
171 [label="gini = 0.274\nsamples = 46\nvalue = [11, 56]"] ;
170 -> 171 ;
172 [label="gini = 0.392\nsamples = 48\nvalue = [19, 52]"] ;
170 -> 172 ;
173 [label="X[14] <= 0.5\ngini = 0.26\nsamples = 7\nvalue = [2, 11]"] ;
169 -> 173 ;
174 [label="gini = 0.245\nsamples = 4\nvalue = [1, 6]"] ;
173 -> 174 ;
175 [label="gini = 0.278\nsamples = 3\nvalue = [1, 5]"] ;
173 -> 175 ;
176 [label="gini = 0.0\nsamples = 3\nvalue = [0, 7]"] ;
168 -> 176 ;
177 [label="gini = 0.0\nsamples = 1\nvalue = [0, 1]"] ;
167 -> 177 ;
178 [label="X[13] <= 0.5\ngini = 0.5\nsamples = 4\nvalue = [3, 3]"] ;
166 -> 178 ;
179 [label="gini = 0.375\nsamples = 3\nvalue = [3, 1]"] ;
178 -> 179 ;
180 [label="gini = 0.0\nsamples = 1\nvalue = [0, 2]"] ;
178 -> 180 ;
181 [label="X[20] <= 0.5\ngini = 0.285\nsamples = 1203\nvalue = [322, 1548]"] ;
165 -> 181 ;
182 [label="X[14] <= 0.5\ngini = 0.4\nsamples = 19\nvalue = [8, 21]"] ;
181 -> 182 ;
183 [label="X[12] <= 0.5\ngini = 0.291\nsamples = 11\nvalue = [3, 14]"] ;
182 -> 183 ;
184 [label="gini = 0.231\nsamples = 9\nvalue = [2, 13]"] ;
183 -> 184 ;
185 [label="gini = 0.5\nsamples = 2\nvalue = [1, 1]"] ;
183 -> 185 ;
186 [label="gini = 0.486\nsamples = 8\nvalue = [5, 7]"] ;
182 -> 186 ;
187 [label="X[13] <= 0.5\ngini = 0.283\nsamples = 1184\nvalue = [314, 1527]"] ;
181 -> 187 ;
188 [label="X[14] <= 0.5\ngini = 0.3\nsamples = 587\nvalue = [170, 756]"] ;
187 -> 188 ;
189 [label="gini = 0.362\nsamples = 34\nvalue = [14, 45]"] ;
188 -> 189 ;
190 [label="gini = 0.295\nsamples = 553\nvalue = [156, 711]"] ;
188 -> 190 ;
191 [label="gini = 0.265\nsamples = 597\nvalue = [144, 771]"] ;
187 -> 191 ;
192 [label="X[4] <= 0.5\ngini = 0.229\nsamples = 390\nvalue = [81, 533]"] ;
6 -> 192 ;
193 [label="X[1] <= 0.5\ngini = 0.118\nsamples = 66\nvalue = [7, 104]"] ;
192 -> 193 ;
194 [label="X[2] <= 0.5\ngini = 0.12\nsamples = 64\nvalue = [7, 102]"] ;
193 -> 194 ;
195 [label="X[0] <= 0.5\ngini = 0.074\nsamples = 31\nvalue = [2, 50]"] ;
194 -> 195 ;
196 [label="gini = 0.0\nsamples = 7\nvalue = [0, 12]"] ;
195 -> 196 ;
197 [label="X[6] <= 0.5\ngini = 0.095\nsamples = 24\nvalue = [2, 38]"] ;
195 -> 197 ;
198 [label="gini = 0.0\nsamples = 5\nvalue = [0, 11]"] ;
197 -> 198 ;
199 [label="X[14] <= 0.5\ngini = 0.128\nsamples = 19\nvalue = [2, 27]"] ;
197 -> 199 ;
200 [label="X[12] <= 0.5\ngini = 0.153\nsamples = 9\nvalue = [1, 11]"] ;
199 -> 200 ;
201 [label="gini = 0.165\nsamples = 8\nvalue = [1, 10]"] ;
200 -> 201 ;
202 [label="gini = 0.0\nsamples = 1\nvalue = [0, 1]"] ;
200 -> 202 ;
203 [label="gini = 0.111\nsamples = 10\nvalue = [1, 16]"] ;
199 -> 203 ;
204 [label="X[13] <= 0.5\ngini = 0.16\nsamples = 33\nvalue = [5, 52]"] ;
194 -> 204 ;
205 [label="X[12] <= 0.5\ngini = 0.231\nsamples = 18\nvalue = [4, 26]"] ;
204 -> 205 ;
206 [label="gini = 0.08\nsamples = 15\nvalue = [1, 23]"] ;
205 -> 206 ;
207 [label="gini = 0.5\nsamples = 3\nvalue = [3, 3]"] ;
205 -> 207 ;
208 [label="gini = 0.071\nsamples = 15\nvalue = [1, 26]"] ;
204 -> 208 ;
209 [label="gini = 0.0\nsamples = 2\nvalue = [0, 2]"] ;
193 -> 209 ;
210 [label="X[13] <= 0.5\ngini = 0.251\nsamples = 324\nvalue = [74, 429]"] ;
192 -> 210 ;
211 [label="X[19] <= 0.5\ngini = 0.207\nsamples = 169\nvalue = [32, 241]"] ;
210 -> 211 ;
212 [label="X[14] <= 0.5\ngini = 0.199\nsamples = 162\nvalue = [29, 230]"] ;
211 -> 212 ;
213 [label="gini = 0.0\nsamples = 9\nvalue = [0, 14]"] ;
212 -> 213 ;
214 [label="gini = 0.209\nsamples = 153\nvalue = [29, 216]"] ;
212 -> 214 ;
215 [label="X[14] <= 0.5\ngini = 0.337\nsamples = 7\nvalue = [3, 11]"] ;
211 -> 215 ;
216 [label="gini = 0.0\nsamples = 1\nvalue = [0, 1]"] ;
215 -> 216 ;
217 [label="gini = 0.355\nsamples = 6\nvalue = [3, 10]"] ;
215 -> 217 ;
218 [label="X[19] <= 0.5\ngini = 0.299\nsamples = 155\nvalue = [42, 188]"] ;
210 -> 218 ;
219 [label="gini = 0.302\nsamples = 154\nvalue = [42, 185]"] ;
218 -> 219 ;
220 [label="gini = 0.0\nsamples = 1\nvalue = [0, 3]"] ;
218 -> 220 ;
221 [label="X[21] <= 0.5\ngini = 0.448\nsamples = 705\nvalue = [378, 738]"] ;
5 -> 221 ;
222 [label="X[23] <= 0.5\ngini = 0.424\nsamples = 653\nvalue = [317, 723]"] ;
221 -> 222 ;
223 [label="X[1] <= 0.5\ngini = 0.472\nsamples = 328\nvalue = [206, 335]"] ;
222 -> 223 ;
224 [label="X[24] <= 0.5\ngini = 0.473\nsamples = 323\nvalue = [204, 327]"] ;
223 -> 224 ;
225 [label="X[2] <= 0.5\ngini = 0.258\nsamples = 121\nvalue = [32, 178]"] ;
224 -> 225 ;
226 [label="X[6] <= 0.5\ngini = 0.272\nsamples = 108\nvalue = [30, 155]"] ;
225 -> 226 ;
227 [label="X[19] <= 0.5\ngini = 0.277\nsamples = 105\nvalue = [30, 151]"] ;
226 -> 227 ;
228 [label="gini = 0.278\nsamples = 104\nvalue = [30, 150]"] ;
227 -> 228 ;
229 [label="gini = 0.0\nsamples = 1\nvalue = [0, 1]"] ;
227 -> 229 ;
230 [label="gini = 0.0\nsamples = 3\nvalue = [0, 4]"] ;
226 -> 230 ;
231 [label="gini = 0.147\nsamples = 13\nvalue = [2, 23]"] ;
225 -> 231 ;
232 [label="X[19] <= 0.5\ngini = 0.497\nsamples = 202\nvalue = [172, 149]"] ;
224 -> 232 ;
233 [label="X[2] <= 0.5\ngini = 0.472\nsamples = 55\nvalue = [55, 34]"] ;
232 -> 233 ;
234 [label="X[7] <= 0.5\ngini = 0.457\nsamples = 50\nvalue = [53, 29]"] ;
233 -> 234 ;
235 [label="X[5] <= 0.5\ngini = 0.479\nsamples = 46\nvalue = [44, 29]"] ;
234 -> 235 ;
236 [label="X[4] <= 0.5\ngini = 0.462\nsamples = 45\nvalue = [44, 25]"] ;
235 -> 236 ;
237 [label="gini = 0.0\nsamples = 1\nvalue = [1, 0]"] ;
236 -> 237 ;
238 [label="gini = 0.465\nsamples = 44\nvalue = [43, 25]"] ;
236 -> 238 ;
239 [label="gini = 0.0\nsamples = 1\nvalue = [0, 4]"] ;
235 -> 239 ;
240 [label="gini = 0.0\nsamples = 4\nvalue = [9, 0]"] ;
234 -> 240 ;
241 [label="gini = 0.408\nsamples = 5\nvalue = [2, 5]"] ;
233 -> 241 ;
242 [label="X[7] <= 0.5\ngini = 0.5\nsamples = 147\nvalue = [117, 115]"] ;
232 -> 242 ;
243 [label="X[6] <= 0.5\ngini = 0.5\nsamples = 142\nvalue = [115, 111]"] ;
242 -> 243 ;
244 [label="gini = 0.499\nsamples = 118\nvalue = [89, 96]"] ;
243 -> 244 ;
245 [label="X[2] <= 0.5\ngini = 0.464\nsamples = 24\nvalue = [26, 15]"] ;
243 -> 245 ;
246 [label="X[0] <= 0.5\ngini = 0.5\nsamples = 11\nvalue = [9, 9]"] ;
245 -> 246 ;
247 [label="gini = 0.0\nsamples = 1\nvalue = [0, 3]"] ;
246 -> 247 ;
248 [label="gini = 0.48\nsamples = 10\nvalue = [9, 6]"] ;
246 -> 248 ;
249 [label="gini = 0.386\nsamples = 13\nvalue = [17, 6]"] ;
245 -> 249 ;
250 [label="X[3] <= 0.5\ngini = 0.444\nsamples = 5\nvalue = [2, 4]"] ;
242 -> 250 ;
251 [label="gini = 0.0\nsamples = 1\nvalue = [0, 2]"] ;
250 -> 251 ;
252 [label="gini = 0.5\nsamples = 4\nvalue = [2, 2]"] ;
250 -> 252 ;
253 [label="X[6] <= 0.5\ngini = 0.32\nsamples = 5\nvalue = [2, 8]"] ;
223 -> 253 ;
254 [label="X[22] <= 0.5\ngini = 0.346\nsamples = 4\nvalue = [2, 7]"] ;
253 -> 254 ;
255 [label="X[4] <= 0.5\ngini = 0.219\nsamples = 3\nvalue = [1, 7]"] ;
254 -> 255 ;
256 [label="gini = 0.32\nsamples = 2\nvalue = [1, 4]"] ;
255 -> 256 ;
257 [label="gini = 0.0\nsamples = 1\nvalue = [0, 3]"] ;
255 -> 257 ;
258 [label="gini = 0.0\nsamples = 1\nvalue = [1, 0]"] ;
254 -> 258 ;
259 [label="gini = 0.0\nsamples = 1\nvalue = [0, 1]"] ;
253 -> 259 ;
260 [label="X[3] <= 0.5\ngini = 0.346\nsamples = 325\nvalue = [111, 388]"] ;
222 -> 260 ;
261 [label="X[5] <= 0.5\ngini = 0.343\nsamples = 320\nvalue = [108, 383]"] ;
260 -> 261 ;
262 [label="X[7] <= 0.5\ngini = 0.342\nsamples = 318\nvalue = [107, 382]"] ;
261 -> 262 ;
263 [label="X[2] <= 0.5\ngini = 0.341\nsamples = 314\nvalue = [105, 377]"] ;
262 -> 263 ;
264 [label="X[19] <= 0.5\ngini = 0.347\nsamples = 287\nvalue = [99, 344]"] ;
263 -> 264 ;
265 [label="X[6] <= 0.5\ngini = 0.346\nsamples = 285\nvalue = [98, 343]"] ;
264 -> 265 ;
266 [label="gini = 0.337\nsamples = 260\nvalue = [86, 315]"] ;
265 -> 266 ;
267 [label="X[0] <= 0.5\ngini = 0.42\nsamples = 25\nvalue = [12, 28]"] ;
265 -> 267 ;
268 [label="gini = 0.0\nsamples = 1\nvalue = [0, 1]"] ;
267 -> 268 ;
269 [label="gini = 0.426\nsamples = 24\nvalue = [12, 27]"] ;
267 -> 269 ;
270 [label="gini = 0.5\nsamples = 2\nvalue = [1, 1]"] ;
264 -> 270 ;
271 [label="X[19] <= 0.5\ngini = 0.26\nsamples = 27\nvalue = [6, 33]"] ;
263 -> 271 ;
272 [label="gini = 0.272\nsamples = 26\nvalue = [6, 31]"] ;
271 -> 272 ;
273 [label="gini = 0.0\nsamples = 1\nvalue = [0, 2]"] ;
271 -> 273 ;
274 [label="X[2] <= 0.5\ngini = 0.408\nsamples = 4\nvalue = [2, 5]"] ;
262 -> 274 ;
275 [label="X[1] <= 0.5\ngini = 0.278\nsamples = 3\nvalue = [1, 5]"] ;
274 -> 275 ;
276 [label="gini = 0.0\nsamples = 2\nvalue = [0, 5]"] ;
275 -> 276 ;
277 [label="gini = 0.0\nsamples = 1\nvalue = [1, 0]"] ;
275 -> 277 ;
278 [label="gini = 0.0\nsamples = 1\nvalue = [1, 0]"] ;
274 -> 278 ;
279 [label="gini = 0.5\nsamples = 2\nvalue = [1, 1]"] ;
261 -> 279 ;
280 [label="X[6] <= 0.5\ngini = 0.469\nsamples = 5\nvalue = [3, 5]"] ;
260 -> 280 ;
281 [label="gini = 0.49\nsamples = 4\nvalue = [3, 4]"] ;
280 -> 281 ;
282 [label="gini = 0.0\nsamples = 1\nvalue = [0, 1]"] ;
280 -> 282 ;
283 [label="X[19] <= 0.5\ngini = 0.317\nsamples = 52\nvalue = [61, 15]"] ;
221 -> 283 ;
284 [label="X[0] <= 0.5\ngini = 0.32\nsamples = 51\nvalue = [60, 15]"] ;
283 -> 284 ;
285 [label="gini = 0.375\nsamples = 3\nvalue = [1, 3]"] ;
284 -> 285 ;
286 [label="X[4] <= 0.5\ngini = 0.281\nsamples = 48\nvalue = [59, 12]"] ;
284 -> 286 ;
287 [label="gini = 0.0\nsamples = 3\nvalue = [5, 0]"] ;
286 -> 287 ;
288 [label="gini = 0.298\nsamples = 45\nvalue = [54, 12]"] ;
286 -> 288 ;
289 [label="gini = 0.0\nsamples = 1\nvalue = [1, 0]"] ;
283 -> 289 ;
290 [label="X[13] <= 0.5\ngini = 0.109\nsamples = 570\nvalue = [879, 54]"] ;
4 -> 290 ;
291 [label="X[23] <= 0.5\ngini = 0.059\nsamples = 278\nvalue = [446, 14]"] ;
290 -> 291 ;
292 [label="X[0] <= 0.5\ngini = 0.03\nsamples = 197\nvalue = [321, 5]"] ;
291 -> 292 ;
293 [label="gini = 0.0\nsamples = 15\nvalue = [28, 0]"] ;
292 -> 293 ;
294 [label="X[21] <= 0.5\ngini = 0.033\nsamples = 182\nvalue = [293, 5]"] ;
292 -> 294 ;
295 [label="X[4] <= 0.5\ngini = 0.033\nsamples = 180\nvalue = [289, 5]"] ;
294 -> 295 ;
296 [label="gini = 0.0\nsamples = 3\nvalue = [3, 0]"] ;
295 -> 296 ;
297 [label="X[17] <= 0.5\ngini = 0.034\nsamples = 177\nvalue = [286, 5]"] ;
295 -> 297 ;
298 [label="gini = 0.0\nsamples = 6\nvalue = [9, 0]"] ;
297 -> 298 ;
299 [label="X[14] <= 0.5\ngini = 0.035\nsamples = 171\nvalue = [277, 5]"] ;
297 -> 299 ;
300 [label="X[15] <= 0.5\ngini = 0.021\nsamples = 65\nvalue = [94, 1]"] ;
299 -> 300 ;
301 [label="X[22] <= 0.5\ngini = 0.048\nsamples = 27\nvalue = [40, 1]"] ;
300 -> 301 ;
302 [label="gini = 0.049\nsamples = 26\nvalue = [39, 1]"] ;
301 -> 302 ;
303 [label="gini = 0.0\nsamples = 1\nvalue = [1, 0]"] ;
301 -> 303 ;
304 [label="gini = 0.0\nsamples = 38\nvalue = [54, 0]"] ;
300 -> 304 ;
305 [label="X[24] <= 0.5\ngini = 0.042\nsamples = 106\nvalue = [183, 4]"] ;
299 -> 305 ;
306 [label="gini = 0.0\nsamples = 2\nvalue = [3, 0]"] ;
305 -> 306 ;
307 [label="gini = 0.043\nsamples = 104\nvalue = [180, 4]"] ;
305 -> 307 ;
308 [label="gini = 0.0\nsamples = 2\nvalue = [4, 0]"] ;
294 -> 308 ;
309 [label="X[12] <= 0.5\ngini = 0.125\nsamples = 81\nvalue = [125, 9]"] ;
291 -> 309 ;
310 [label="X[19] <= 0.5\ngini = 0.129\nsamples = 78\nvalue = [121, 9]"] ;
309 -> 310 ;
311 [label="X[14] <= 0.5\ngini = 0.134\nsamples = 77\nvalue = [116, 9]"] ;
310 -> 311 ;
312 [label="gini = 0.0\nsamples = 11\nvalue = [16, 0]"] ;
311 -> 312 ;
313 [label="X[17] <= 0.5\ngini = 0.152\nsamples = 66\nvalue = [100, 9]"] ;
311 -> 313 ;
314 [label="gini = 0.0\nsamples = 1\nvalue = [1, 0]"] ;
313 -> 314 ;
315 [label="X[4] <= 0.5\ngini = 0.153\nsamples = 65\nvalue = [99, 9]"] ;
313 -> 315 ;
316 [label="gini = 0.0\nsamples = 5\nvalue = [6, 0]"] ;
315 -> 316 ;
317 [label="gini = 0.161\nsamples = 60\nvalue = [93, 9]"] ;
315 -> 317 ;
318 [label="gini = 0.0\nsamples = 1\nvalue = [5, 0]"] ;
310 -> 318 ;
319 [label="gini = 0.0\nsamples = 3\nvalue = [4, 0]"] ;
309 -> 319 ;
320 [label="X[0] <= 0.5\ngini = 0.155\nsamples = 292\nvalue = [433, 40]"] ;
290 -> 320 ;
321 [label="X[23] <= 0.5\ngini = 0.219\nsamples = 16\nvalue = [21, 3]"] ;
320 -> 321 ;
322 [label="X[24] <= 0.5\ngini = 0.266\nsamples = 12\nvalue = [16, 3]"] ;
321 -> 322 ;
323 [label="gini = 0.0\nsamples = 2\nvalue = [3, 0]"] ;
322 -> 323 ;
324 [label="X[3] <= 0.5\ngini = 0.305\nsamples = 10\nvalue = [13, 3]"] ;
322 -> 324 ;
325 [label="gini = 0.355\nsamples = 9\nvalue = [10, 3]"] ;
324 -> 325 ;
326 [label="gini = 0.0\nsamples = 1\nvalue = [3, 0]"] ;
324 -> 326 ;
327 [label="gini = 0.0\nsamples = 4\nvalue = [5, 0]"] ;
321 -> 327 ;
328 [label="X[22] <= 0.5\ngini = 0.151\nsamples = 276\nvalue = [412, 37]"] ;
320 -> 328 ;
329 [label="X[19] <= 0.5\ngini = 0.161\nsamples = 261\nvalue = [383, 37]"] ;
328 -> 329 ;
330 [label="X[23] <= 0.5\ngini = 0.121\nsamples = 250\nvalue = [376, 26]"] ;
329 -> 330 ;
331 [label="X[24] <= 0.5\ngini = 0.112\nsamples = 149\nvalue = [221, 14]"] ;
330 -> 331 ;
332 [label="gini = 0.0\nsamples = 6\nvalue = [7, 0]"] ;
331 -> 332 ;
333 [label="X[4] <= 0.5\ngini = 0.115\nsamples = 143\nvalue = [214, 14]"] ;
331 -> 333 ;
334 [label="gini = 0.0\nsamples = 7\nvalue = [9, 0]"] ;
333 -> 334 ;
335 [label="gini = 0.12\nsamples = 136\nvalue = [205, 14]"] ;
333 -> 335 ;
336 [label="X[4] <= 0.5\ngini = 0.133\nsamples = 101\nvalue = [155, 12]"] ;
330 -> 336 ;
337 [label="gini = 0.0\nsamples = 3\nvalue = [5, 0]"] ;
336 -> 337 ;
338 [label="X[20] <= 0.5\ngini = 0.137\nsamples = 98\nvalue = [150, 12]"] ;
336 -> 338 ;
339 [label="gini = 0.139\nsamples = 97\nvalue = [148, 12]"] ;
338 -> 339 ;
340 [label="gini = 0.0\nsamples = 1\nvalue = [2, 0]"] ;
338 -> 340 ;
341 [label="gini = 0.475\nsamples = 11\nvalue = [7, 11]"] ;
329 -> 341 ;
342 [label="gini = 0.0\nsamples = 15\nvalue = [29, 0]"] ;
328 -> 342 ;
343 [label="X[14] <= 0.5\ngini = 0.148\nsamples = 260\nvalue = [33, 378]"] ;
3 -> 343 ;
344 [label="X[4] <= 0.5\ngini = 0.165\nsamples = 126\nvalue = [18, 181]"] ;
343 -> 344 ;
345 [label="X[3] <= 0.5\ngini = 0.083\nsamples = 31\nvalue = [2, 44]"] ;
344 -> 345 ;
346 [label="X[13] <= 0.5\ngini = 0.045\nsamples = 29\nvalue = [1, 42]"] ;
345 -> 346 ;
347 [label="gini = 0.0\nsamples = 7\nvalue = [0, 8]"] ;
346 -> 347 ;
348 [label="X[21] <= 0.5\ngini = 0.056\nsamples = 22\nvalue = [1, 34]"] ;
346 -> 348 ;
349 [label="gini = 0.0\nsamples = 21\nvalue = [0, 34]"] ;
348 -> 349 ;
350 [label="gini = 0.0\nsamples = 1\nvalue = [1, 0]"] ;
348 -> 350 ;
351 [label="X[21] <= 0.5\ngini = 0.444\nsamples = 2\nvalue = [1, 2]"] ;
345 -> 351 ;
352 [label="gini = 0.0\nsamples = 1\nvalue = [0, 2]"] ;
351 -> 352 ;
353 [label="gini = 0.0\nsamples = 1\nvalue = [1, 0]"] ;
351 -> 353 ;
354 [label="X[13] <= 0.5\ngini = 0.187\nsamples = 95\nvalue = [16, 137]"] ;
344 -> 354 ;
355 [label="X[23] <= 0.5\ngini = 0.184\nsamples = 23\nvalue = [4, 35]"] ;
354 -> 355 ;
356 [label="X[21] <= 0.5\ngini = 0.42\nsamples = 6\nvalue = [3, 7]"] ;
355 -> 356 ;
357 [label="X[22] <= 0.5\ngini = 0.219\nsamples = 5\nvalue = [1, 7]"] ;
356 -> 357 ;
358 [label="gini = 0.0\nsamples = 1\nvalue = [1, 0]"] ;
357 -> 358 ;
359 [label="gini = 0.0\nsamples = 4\nvalue = [0, 7]"] ;
357 -> 359 ;
360 [label="gini = 0.0\nsamples = 1\nvalue = [2, 0]"] ;
356 -> 360 ;
361 [label="gini = 0.067\nsamples = 17\nvalue = [1, 28]"] ;
355 -> 361 ;
362 [label="X[24] <= 0.5\ngini = 0.188\nsamples = 72\nvalue = [12, 102]"] ;
354 -> 362 ;
363 [label="X[23] <= 0.5\ngini = 0.209\nsamples = 64\nvalue = [12, 89]"] ;
362 -> 363 ;
364 [label="gini = 0.165\nsamples = 16\nvalue = [2, 20]"] ;
363 -> 364 ;
365 [label="gini = 0.221\nsamples = 48\nvalue = [10, 69]"] ;
363 -> 365 ;
366 [label="gini = 0.0\nsamples = 8\nvalue = [0, 13]"] ;
362 -> 366 ;
367 [label="X[4] <= 0.5\ngini = 0.131\nsamples = 134\nvalue = [15, 197]"] ;
343 -> 367 ;
368 [label="gini = 0.0\nsamples = 31\nvalue = [0, 53]"] ;
367 -> 368 ;
369 [label="X[22] <= 0.5\ngini = 0.171\nsamples = 103\nvalue = [15, 144]"] ;
367 -> 369 ;
370 [label="X[23] <= 0.5\ngini = 0.185\nsamples = 90\nvalue = [14, 122]"] ;
369 -> 370 ;
371 [label="X[24] <= 0.5\ngini = 0.5\nsamples = 15\nvalue = [11, 11]"] ;
370 -> 371 ;
372 [label="gini = 0.375\nsamples = 3\nvalue = [3, 1]"] ;
371 -> 372 ;
373 [label="gini = 0.494\nsamples = 12\nvalue = [8, 10]"] ;
371 -> 373 ;
374 [label="X[1] <= 0.5\ngini = 0.051\nsamples = 75\nvalue = [3, 111]"] ;
370 -> 374 ;
375 [label="gini = 0.052\nsamples = 74\nvalue = [3, 110]"] ;
374 -> 375 ;
376 [label="gini = 0.0\nsamples = 1\nvalue = [0, 1]"] ;
374 -> 376 ;
377 [label="gini = 0.083\nsamples = 13\nvalue = [1, 22]"] ;
369 -> 377 ;
378 [label="X[7] <= 0.5\ngini = 0.098\nsamples = 312\nvalue = [25, 459]"] ;
2 -> 378 ;
379 [label="X[0] <= 0.5\ngini = 0.102\nsamples = 301\nvalue = [25, 441]"] ;
378 -> 379 ;
380 [label="gini = 0.0\nsamples = 43\nvalue = [0, 63]"] ;
379 -> 380 ;
381 [label="X[8] <= 0.5\ngini = 0.116\nsamples = 258\nvalue = [25, 378]"] ;
379 -> 381 ;
382 [label="X[6] <= 0.5\ngini = 0.105\nsamples = 252\nvalue = [22, 373]"] ;
381 -> 382 ;
383 [label="X[4] <= 0.5\ngini = 0.113\nsamples = 236\nvalue = [22, 344]"] ;
382 -> 383 ;
384 [label="gini = 0.0\nsamples = 1\nvalue = [0, 2]"] ;
383 -> 384 ;
385 [label="X[19] <= 0.5\ngini = 0.114\nsamples = 235\nvalue = [22, 342]"] ;
383 -> 385 ;
386 [label="X[23] <= 0.5\ngini = 0.123\nsamples = 108\nvalue = [11, 156]"] ;
385 -> 386 ;
387 [label="X[18] <= 0.5\ngini = 0.133\nsamples = 99\nvalue = [11, 143]"] ;
386 -> 387 ;
388 [label="X[21] <= 0.5\ngini = 0.14\nsamples = 95\nvalue = [11, 134]"] ;
387 -> 388 ;
389 [label="X[24] <= 0.5\ngini = 0.141\nsamples = 94\nvalue = [11, 133]"] ;
388 -> 389 ;
390 [label="gini = 0.0\nsamples = 5\nvalue = [0, 9]"] ;
389 -> 390 ;
391 [label="gini = 0.15\nsamples = 89\nvalue = [11, 124]"] ;
389 -> 391 ;
392 [label="gini = 0.0\nsamples = 1\nvalue = [0, 1]"] ;
388 -> 392 ;
393 [label="gini = 0.0\nsamples = 4\nvalue = [0, 9]"] ;
387 -> 393 ;
394 [label="gini = 0.0\nsamples = 9\nvalue = [0, 13]"] ;
386 -> 394 ;
395 [label="X[23] <= 0.5\ngini = 0.105\nsamples = 127\nvalue = [11, 186]"] ;
385 -> 395 ;
396 [label="gini = 0.107\nsamples = 126\nvalue = [11, 182]"] ;
395 -> 396 ;
397 [label="gini = 0.0\nsamples = 1\nvalue = [0, 4]"] ;
395 -> 397 ;
398 [label="gini = 0.0\nsamples = 16\nvalue = [0, 29]"] ;
382 -> 398 ;
399 [label="X[23] <= 0.5\ngini = 0.469\nsamples = 6\nvalue = [3, 5]"] ;
381 -> 399 ;
400 [label="X[19] <= 0.5\ngini = 0.5\nsamples = 5\nvalue = [3, 3]"] ;
399 -> 400 ;
401 [label="gini = 0.48\nsamples = 4\nvalue = [2, 3]"] ;
400 -> 401 ;
402 [label="gini = 0.0\nsamples = 1\nvalue = [1, 0]"] ;
400 -> 402 ;
403 [label="gini = 0.0\nsamples = 1\nvalue = [0, 2]"] ;
399 -> 403 ;
404 [label="gini = 0.0\nsamples = 11\nvalue = [0, 18]"] ;
378 -> 404 ;
405 [label="X[19] <= 0.5\ngini = 0.028\nsamples = 98\nvalue = [2, 140]"] ;
1 -> 405 ;
406 [label="gini = 0.0\nsamples = 10\nvalue = [0, 13]"] ;
405 -> 406 ;
407 [label="X[16] <= 0.5\ngini = 0.031\nsamples = 88\nvalue = [2, 127]"] ;
405 -> 407 ;
408 [label="X[6] <= 0.5\ngini = 0.5\nsamples = 3\nvalue = [2, 2]"] ;
407 -> 408 ;
409 [label="gini = 0.0\nsamples = 2\nvalue = [0, 2]"] ;
408 -> 409 ;
410 [label="gini = 0.0\nsamples = 1\nvalue = [2, 0]"] ;
408 -> 410 ;
411 [label="gini = 0.0\nsamples = 85\nvalue = [0, 125]"] ;
407 -> 411 ;
412 [label="X[16] <= 0.5\ngini = 0.118\nsamples = 1257\nvalue = [1845, 124]"] ;
0 -> 412 [labeldistance=2.5, labelangle=-45, headlabel="False"] ;
413 [label="X[15] <= 0.5\ngini = 0.115\nsamples = 1238\nvalue = [1819, 119]"] ;
412 -> 413 ;
414 [label="X[4] <= 0.5\ngini = 0.146\nsamples = 822\nvalue = [1186, 102]"] ;
413 -> 414 ;
415 [label="X[12] <= 0.5\ngini = 0.11\nsamples = 208\nvalue = [307, 19]"] ;
414 -> 415 ;
416 [label="X[3] <= 0.5\ngini = 0.064\nsamples = 175\nvalue = [263, 9]"] ;
415 -> 416 ;
417 [label="X[6] <= 0.5\ngini = 0.053\nsamples = 162\nvalue = [248, 7]"] ;
416 -> 417 ;
418 [label="gini = 0.0\nsamples = 11\nvalue = [16, 0]"] ;
417 -> 418 ;
419 [label="X[1] <= 0.5\ngini = 0.057\nsamples = 151\nvalue = [232, 7]"] ;
417 -> 419 ;
420 [label="X[14] <= 0.5\ngini = 0.058\nsamples = 147\nvalue = [227, 7]"] ;
419 -> 420 ;
421 [label="X[0] <= 0.5\ngini = 0.09\nsamples = 79\nvalue = [121, 6]"] ;
420 -> 421 ;
422 [label="gini = 0.124\nsamples = 57\nvalue = [84, 6]"] ;
421 -> 422 ;
423 [label="gini = 0.0\nsamples = 22\nvalue = [37, 0]"] ;
421 -> 423 ;
424 [label="X[0] <= 0.5\ngini = 0.019\nsamples = 68\nvalue = [106, 1]"] ;
420 -> 424 ;
425 [label="gini = 0.024\nsamples = 53\nvalue = [81, 1]"] ;
424 -> 425 ;
426 [label="gini = 0.0\nsamples = 15\nvalue = [25, 0]"] ;
424 -> 426 ;
427 [label="gini = 0.0\nsamples = 4\nvalue = [5, 0]"] ;
419 -> 427 ;
428 [label="X[6] <= 0.5\ngini = 0.208\nsamples = 13\nvalue = [15, 2]"] ;
416 -> 428 ;
429 [label="X[13] <= 0.5\ngini = 0.153\nsamples = 8\nvalue = [11, 1]"] ;
428 -> 429 ;
430 [label="gini = 0.18\nsamples = 7\nvalue = [9, 1]"] ;
429 -> 430 ;
431 [label="gini = 0.0\nsamples = 1\nvalue = [2, 0]"] ;
429 -> 431 ;
432 [label="X[14] <= 0.5\ngini = 0.32\nsamples = 5\nvalue = [4, 1]"] ;
428 -> 432 ;
433 [label="gini = 0.0\nsamples = 4\nvalue = [4, 0]"] ;
432 -> 433 ;
434 [label="gini = 0.0\nsamples = 1\nvalue = [0, 1]"] ;
432 -> 434 ;
435 [label="X[3] <= 0.5\ngini = 0.302\nsamples = 33\nvalue = [44, 10]"] ;
415 -> 435 ;
436 [label="X[7] <= 0.5\ngini = 0.32\nsamples = 31\nvalue = [40, 10]"] ;
435 -> 436 ;
437 [label="X[2] <= 0.5\ngini = 0.305\nsamples = 29\nvalue = [39, 9]"] ;
436 -> 437 ;
438 [label="X[1] <= 0.5\ngini = 0.401\nsamples = 8\nvalue = [13, 5]"] ;
437 -> 438 ;
439 [label="gini = 0.444\nsamples = 7\nvalue = [10, 5]"] ;
438 -> 439 ;
440 [label="gini = 0.0\nsamples = 1\nvalue = [3, 0]"] ;
438 -> 440 ;
441 [label="gini = 0.231\nsamples = 21\nvalue = [26, 4]"] ;
437 -> 441 ;
442 [label="gini = 0.5\nsamples = 2\nvalue = [1, 1]"] ;
436 -> 442 ;
443 [label="gini = 0.0\nsamples = 2\nvalue = [4, 0]"] ;
435 -> 443 ;
444 [label="X[12] <= 0.5\ngini = 0.158\nsamples = 614\nvalue = [879, 83]"] ;
414 -> 444 ;
445 [label="X[2] <= 0.5\ngini = 0.134\nsamples = 509\nvalue = [745, 58]"] ;
444 -> 445 ;
446 [label="X[19] <= 0.5\ngini = 0.132\nsamples = 508\nvalue = [745, 57]"] ;
445 -> 446 ;
447 [label="X[13] <= 0.5\ngini = 0.165\nsamples = 6\nvalue = [10, 1]"] ;
446 -> 447 ;
448 [label="gini = 0.5\nsamples = 2\nvalue = [1, 1]"] ;
447 -> 448 ;
449 [label="gini = 0.0\nsamples = 4\nvalue = [9, 0]"] ;
447 -> 449 ;
450 [label="X[13] <= 0.5\ngini = 0.132\nsamples = 502\nvalue = [735, 56]"] ;
446 -> 450 ;
451 [label="gini = 0.128\nsamples = 254\nvalue = [366, 27]"] ;
450 -> 451 ;
452 [label="gini = 0.135\nsamples = 248\nvalue = [369, 29]"] ;
450 -> 452 ;
453 [label="gini = 0.0\nsamples = 1\nvalue = [0, 1]"] ;
445 -> 453 ;
454 [label="gini = 0.265\nsamples = 105\nvalue = [134, 25]"] ;
444 -> 454 ;
455 [label="X[1] <= 0.5\ngini = 0.051\nsamples = 416\nvalue = [633, 17]"] ;
413 -> 455 ;
456 [label="X[19] <= 0.5\ngini = 0.052\nsamples = 409\nvalue = [621, 17]"] ;
455 -> 456 ;
457 [label="gini = 0.0\nsamples = 3\nvalue = [5, 0]"] ;
456 -> 457 ;
458 [label="X[6] <= 0.5\ngini = 0.052\nsamples = 406\nvalue = [616, 17]"] ;
456 -> 458 ;
459 [label="X[4] <= 0.5\ngini = 0.062\nsamples = 337\nvalue = [515, 17]"] ;
458 -> 459 ;
460 [label="gini = 0.0\nsamples = 6\nvalue = [9, 0]"] ;
459 -> 460 ;
461 [label="gini = 0.063\nsamples = 331\nvalue = [506, 17]"] ;
459 -> 461 ;
462 [label="gini = 0.0\nsamples = 69\nvalue = [101, 0]"] ;
458 -> 462 ;
463 [label="gini = 0.0\nsamples = 7\nvalue = [12, 0]"] ;
455 -> 463 ;
464 [label="X[20] <= 0.5\ngini = 0.271\nsamples = 19\nvalue = [26, 5]"] ;
412 -> 464 ;
465 [label="X[4] <= 0.5\ngini = 0.231\nsamples = 18\nvalue = [26, 4]"] ;
464 -> 465 ;
466 [label="gini = 0.0\nsamples = 6\nvalue = [11, 0]"] ;
465 -> 466 ;
467 [label="gini = 0.332\nsamples = 12\nvalue = [15, 4]"] ;
465 -> 467 ;
468 [label="gini = 0.0\nsamples = 1\nvalue = [0, 1]"] ;
464 -> 468 ;
}