digraph Tree {
node [shape=box] ;
0 [label="X[24] <= 0.5\ngini = 0.488\nsamples = 6338\nvalue = [4265, 5830]"] ;
1 [label="X[21] <= 0.5\ngini = 0.364\nsamples = 3084\nvalue = [1177, 3734]"] ;
0 -> 1 [labeldistance=2.5, labelangle=45, headlabel="True"] ;
2 [label="X[12] <= 0.5\ngini = 0.335\nsamples = 2837\nvalue = [962, 3554]"] ;
1 -> 2 ;
3 [label="X[20] <= 0.5\ngini = 0.331\nsamples = 2756\nvalue = [921, 3473]"] ;
2 -> 3 ;
4 [label="X[4] <= 0.5\ngini = 0.479\nsamples = 466\nvalue = [311, 469]"] ;
3 -> 4 ;
5 [label="X[18] <= 0.5\ngini = 0.27\nsamples = 81\nvalue = [22, 115]"] ;
4 -> 5 ;
6 [label="X[19] <= 0.5\ngini = 0.278\nsamples = 17\nvalue = [20, 4]"] ;
5 -> 6 ;
7 [label="gini = 0.0\nsamples = 14\nvalue = [20, 0]"] ;
6 -> 7 ;
8 [label="gini = 0.0\nsamples = 3\nvalue = [0, 4]"] ;
6 -> 8 ;
9 [label="X[14] <= 0.5\ngini = 0.035\nsamples = 64\nvalue = [2, 111]"] ;
5 -> 9 ;
10 [label="X[2] <= 0.5\ngini = 0.065\nsamples = 34\nvalue = [2, 57]"] ;
9 -> 10 ;
11 [label="gini = 0.0\nsamples = 18\nvalue = [0, 34]"] ;
10 -> 11 ;
12 [label="X[13] <= 0.5\ngini = 0.147\nsamples = 16\nvalue = [2, 23]"] ;
10 -> 12 ;
13 [label="gini = 0.0\nsamples = 2\nvalue = [0, 4]"] ;
12 -> 13 ;
14 [label="X[22] <= 0.5\ngini = 0.172\nsamples = 14\nvalue = [2, 19]"] ;
12 -> 14 ;
15 [label="gini = 0.245\nsamples = 11\nvalue = [2, 12]"] ;
14 -> 15 ;
16 [label="gini = 0.0\nsamples = 3\nvalue = [0, 7]"] ;
14 -> 16 ;
17 [label="gini = 0.0\nsamples = 30\nvalue = [0, 54]"] ;
9 -> 17 ;
18 [label="X[15] <= 0.5\ngini = 0.495\nsamples = 385\nvalue = [289, 354]"] ;
4 -> 18 ;
19 [label="X[16] <= 0.5\ngini = 0.497\nsamples = 344\nvalue = [270, 313]"] ;
18 -> 19 ;
20 [label="X[9] <= 0.5\ngini = 0.498\nsamples = 342\nvalue = [270, 309]"] ;
19 -> 20 ;
21 [label="X[22] <= 0.5\ngini = 0.141\nsamples = 164\nvalue = [243, 20]"] ;
20 -> 21 ;
22 [label="X[13] <= 0.5\ngini = 0.155\nsamples = 147\nvalue = [217, 20]"] ;
21 -> 22 ;
23 [label="gini = 0.205\nsamples = 58\nvalue = [84, 11]"] ;
22 -> 23 ;
24 [label="gini = 0.119\nsamples = 89\nvalue = [133, 9]"] ;
22 -> 24 ;
25 [label="gini = 0.0\nsamples = 17\nvalue = [26, 0]"] ;
21 -> 25 ;
26 [label="X[13] <= 0.5\ngini = 0.156\nsamples = 178\nvalue = [27, 289]"] ;
20 -> 26 ;
27 [label="X[18] <= 0.5\ngini = 0.127\nsamples = 108\nvalue = [13, 177]"] ;
26 -> 27 ;
28 [label="X[23] <= 0.5\ngini = 0.465\nsamples = 12\nvalue = [7, 12]"] ;
27 -> 28 ;
29 [label="gini = 0.375\nsamples = 6\nvalue = [2, 6]"] ;
28 -> 29 ;
30 [label="gini = 0.496\nsamples = 6\nvalue = [5, 6]"] ;
28 -> 30 ;
31 [label="X[0] <= 0.5\ngini = 0.068\nsamples = 96\nvalue = [6, 165]"] ;
27 -> 31 ;
32 [label="gini = 0.0\nsamples = 1\nvalue = [0, 1]"] ;
31 -> 32 ;
33 [label="X[23] <= 0.5\ngini = 0.068\nsamples = 95\nvalue = [6, 164]"] ;
31 -> 33 ;
34 [label="gini = 0.147\nsamples = 14\nvalue = [2, 23]"] ;
33 -> 34 ;
35 [label="gini = 0.054\nsamples = 81\nvalue = [4, 141]"] ;
33 -> 35 ;
36 [label="X[18] <= 0.5\ngini = 0.198\nsamples = 70\nvalue = [14, 112]"] ;
26 -> 36 ;
37 [label="X[22] <= 0.5\ngini = 0.298\nsamples = 6\nvalue = [2, 9]"] ;
36 -> 37 ;
38 [label="gini = 0.346\nsamples = 5\nvalue = [2, 7]"] ;
37 -> 38 ;
39 [label="gini = 0.0\nsamples = 1\nvalue = [0, 2]"] ;
37 -> 39 ;
40 [label="X[22] <= 0.5\ngini = 0.187\nsamples = 64\nvalue = [12, 103]"] ;
36 -> 40 ;
41 [label="gini = 0.189\nsamples = 50\nvalue = [9, 76]"] ;
40 -> 41 ;
42 [label="gini = 0.18\nsamples = 14\nvalue = [3, 27]"] ;
40 -> 42 ;
43 [label="gini = 0.0\nsamples = 2\nvalue = [0, 4]"] ;
19 -> 43 ;
44 [label="X[18] <= 0.5\ngini = 0.433\nsamples = 41\nvalue = [19, 41]"] ;
18 -> 44 ;
45 [label="X[22] <= 0.5\ngini = 0.245\nsamples = 16\nvalue = [18, 3]"] ;
44 -> 45 ;
46 [label="X[9] <= 0.5\ngini = 0.198\nsamples = 14\nvalue = [16, 2]"] ;
45 -> 46 ;
47 [label="gini = 0.0\nsamples = 11\nvalue = [13, 0]"] ;
46 -> 47 ;
48 [label="gini = 0.48\nsamples = 3\nvalue = [3, 2]"] ;
46 -> 48 ;
49 [label="X[9] <= 0.5\ngini = 0.444\nsamples = 2\nvalue = [2, 1]"] ;
45 -> 49 ;
50 [label="gini = 0.0\nsamples = 1\nvalue = [2, 0]"] ;
49 -> 50 ;
51 [label="gini = 0.0\nsamples = 1\nvalue = [0, 1]"] ;
49 -> 51 ;
52 [label="X[22] <= 0.5\ngini = 0.05\nsamples = 25\nvalue = [1, 38]"] ;
44 -> 52 ;
53 [label="gini = 0.054\nsamples = 23\nvalue = [1, 35]"] ;
52 -> 53 ;
54 [label="gini = 0.0\nsamples = 2\nvalue = [0, 3]"] ;
52 -> 54 ;
55 [label="X[1] <= 0.5\ngini = 0.281\nsamples = 2290\nvalue = [610, 3004]"] ;
3 -> 55 ;
56 [label="X[7] <= 0.5\ngini = 0.278\nsamples = 2272\nvalue = [598, 2987]"] ;
55 -> 56 ;
57 [label="X[16] <= 0.5\ngini = 0.275\nsamples = 2232\nvalue = [580, 2943]"] ;
56 -> 57 ;
58 [label="X[9] <= 0.5\ngini = 0.277\nsamples = 2211\nvalue = [580, 2909]"] ;
57 -> 58 ;
59 [label="gini = 0.0\nsamples = 1\nvalue = [2, 0]"] ;
58 -> 59 ;
60 [label="X[14] <= 0.5\ngini = 0.277\nsamples = 2210\nvalue = [578, 2909]"] ;
58 -> 60 ;
61 [label="X[0] <= 0.5\ngini = 0.271\nsamples = 1329\nvalue = [343, 1779]"] ;
60 -> 61 ;
62 [label="X[22] <= 0.5\ngini = 0.263\nsamples = 142\nvalue = [37, 200]"] ;
61 -> 62 ;
63 [label="X[2] <= 0.5\ngini = 0.281\nsamples = 117\nvalue = [33, 162]"] ;
62 -> 63 ;
64 [label="gini = 0.0\nsamples = 8\nvalue = [0, 18]"] ;
63 -> 64 ;
65 [label="X[15] <= 0.5\ngini = 0.303\nsamples = 109\nvalue = [33, 144]"] ;
63 -> 65 ;
66 [label="gini = 0.324\nsamples = 79\nvalue = [27, 106]"] ;
65 -> 66 ;
67 [label="gini = 0.236\nsamples = 30\nvalue = [6, 38]"] ;
65 -> 67 ;
68 [label="X[2] <= 0.5\ngini = 0.172\nsamples = 25\nvalue = [4, 38]"] ;
62 -> 68 ;
69 [label="gini = 0.0\nsamples = 1\nvalue = [0, 2]"] ;
68 -> 69 ;
70 [label="X[15] <= 0.5\ngini = 0.18\nsamples = 24\nvalue = [4, 36]"] ;
68 -> 70 ;
71 [label="gini = 0.0\nsamples = 12\nvalue = [0, 19]"] ;
70 -> 71 ;
72 [label="gini = 0.308\nsamples = 12\nvalue = [4, 17]"] ;
70 -> 72 ;
73 [label="X[4] <= 0.5\ngini = 0.272\nsamples = 1187\nvalue = [306, 1579]"] ;
61 -> 73 ;
74 [label="X[5] <= 0.5\ngini = 0.368\nsamples = 88\nvalue = [37, 115]"] ;
73 -> 74 ;
75 [label="X[15] <= 0.5\ngini = 0.378\nsamples = 85\nvalue = [37, 109]"] ;
74 -> 75 ;
76 [label="X[23] <= 0.5\ngini = 0.384\nsamples = 59\nvalue = [27, 77]"] ;
75 -> 76 ;
77 [label="gini = 0.488\nsamples = 10\nvalue = [8, 11]"] ;
76 -> 77 ;
78 [label="gini = 0.347\nsamples = 49\nvalue = [19, 66]"] ;
76 -> 78 ;
79 [label="X[22] <= 0.5\ngini = 0.363\nsamples = 26\nvalue = [10, 32]"] ;
75 -> 79 ;
80 [label="gini = 0.375\nsamples = 24\nvalue = [10, 30]"] ;
79 -> 80 ;
81 [label="gini = 0.0\nsamples = 2\nvalue = [0, 2]"] ;
79 -> 81 ;
82 [label="gini = 0.0\nsamples = 3\nvalue = [0, 6]"] ;
74 -> 82 ;
83 [label="X[22] <= 0.5\ngini = 0.262\nsamples = 1099\nvalue = [269, 1464]"] ;
73 -> 83 ;
84 [label="X[15] <= 0.5\ngini = 0.249\nsamples = 869\nvalue = [201, 1181]"] ;
83 -> 84 ;
85 [label="gini = 0.252\nsamples = 602\nvalue = [142, 817]"] ;
84 -> 85 ;
86 [label="gini = 0.24\nsamples = 267\nvalue = [59, 364]"] ;
84 -> 86 ;
87 [label="X[15] <= 0.5\ngini = 0.312\nsamples = 230\nvalue = [68, 283]"] ;
83 -> 87 ;
88 [label="gini = 0.317\nsamples = 139\nvalue = [43, 175]"] ;
87 -> 88 ;
89 [label="gini = 0.305\nsamples = 91\nvalue = [25, 108]"] ;
87 -> 89 ;
90 [label="X[23] <= 0.5\ngini = 0.285\nsamples = 881\nvalue = [235, 1130]"] ;
60 -> 90 ;
91 [label="X[2] <= 0.5\ngini = 0.252\nsamples = 191\nvalue = [46, 265]"] ;
90 -> 91 ;
92 [label="X[4] <= 0.5\ngini = 0.258\nsamples = 173\nvalue = [42, 234]"] ;
91 -> 92 ;
93 [label="X[3] <= 0.5\ngini = 0.308\nsamples = 12\nvalue = [4, 17]"] ;
92 -> 93 ;
94 [label="gini = 0.32\nsamples = 11\nvalue = [4, 16]"] ;
93 -> 94 ;
95 [label="gini = 0.0\nsamples = 1\nvalue = [0, 1]"] ;
93 -> 95 ;
96 [label="gini = 0.254\nsamples = 161\nvalue = [38, 217]"] ;
92 -> 96 ;
97 [label="gini = 0.202\nsamples = 18\nvalue = [4, 31]"] ;
91 -> 97 ;
98 [label="X[3] <= 0.5\ngini = 0.294\nsamples = 690\nvalue = [189, 865]"] ;
90 -> 98 ;
99 [label="X[4] <= 0.5\ngini = 0.296\nsamples = 685\nvalue = [189, 859]"] ;
98 -> 99 ;
100 [label="X[0] <= 0.5\ngini = 0.313\nsamples = 126\nvalue = [38, 158]"] ;
99 -> 100 ;
101 [label="gini = 0.344\nsamples = 87\nvalue = [30, 106]"] ;
100 -> 101 ;
102 [label="X[5] <= 0.5\ngini = 0.231\nsamples = 39\nvalue = [8, 52]"] ;
100 -> 102 ;
103 [label="gini = 0.198\nsamples = 35\nvalue = [6, 48]"] ;
102 -> 103 ;
104 [label="gini = 0.444\nsamples = 4\nvalue = [2, 4]"] ;
102 -> 104 ;
105 [label="gini = 0.292\nsamples = 559\nvalue = [151, 701]"] ;
99 -> 105 ;
106 [label="gini = 0.0\nsamples = 5\nvalue = [0, 6]"] ;
98 -> 106 ;
107 [label="gini = 0.0\nsamples = 21\nvalue = [0, 34]"] ;
57 -> 107 ;
108 [label="X[23] <= 0.5\ngini = 0.412\nsamples = 40\nvalue = [18, 44]"] ;
56 -> 108 ;
109 [label="gini = 0.0\nsamples = 5\nvalue = [0, 8]"] ;
108 -> 109 ;
110 [label="X[3] <= 0.5\ngini = 0.444\nsamples = 35\nvalue = [18, 36]"] ;
108 -> 110 ;
111 [label="X[14] <= 0.5\ngini = 0.408\nsamples = 13\nvalue = [6, 15]"] ;
110 -> 111 ;
112 [label="gini = 0.0\nsamples = 7\nvalue = [0, 11]"] ;
111 -> 112 ;
113 [label="X[2] <= 0.5\ngini = 0.48\nsamples = 6\nvalue = [6, 4]"] ;
111 -> 113 ;
114 [label="gini = 0.444\nsamples = 5\nvalue = [6, 3]"] ;
113 -> 114 ;
115 [label="gini = 0.0\nsamples = 1\nvalue = [0, 1]"] ;
113 -> 115 ;
116 [label="X[15] <= 0.5\ngini = 0.463\nsamples = 22\nvalue = [12, 21]"] ;
110 -> 116 ;
117 [label="X[14] <= 0.5\ngini = 0.346\nsamples = 20\nvalue = [6, 21]"] ;
116 -> 117 ;
118 [label="gini = 0.415\nsamples = 12\nvalue = [5, 12]"] ;
117 -> 118 ;
119 [label="gini = 0.18\nsamples = 8\nvalue = [1, 9]"] ;
117 -> 119 ;
120 [label="gini = 0.0\nsamples = 2\nvalue = [6, 0]"] ;
116 -> 120 ;
121 [label="X[6] <= 0.5\ngini = 0.485\nsamples = 18\nvalue = [12, 17]"] ;
55 -> 121 ;
122 [label="X[22] <= 0.5\ngini = 0.408\nsamples = 9\nvalue = [10, 4]"] ;
121 -> 122 ;
123 [label="X[5] <= 0.5\ngini = 0.463\nsamples = 7\nvalue = [7, 4]"] ;
122 -> 123 ;
124 [label="X[13] <= 0.5\ngini = 0.42\nsamples = 6\nvalue = [7, 3]"] ;
123 -> 124 ;
125 [label="gini = 0.0\nsamples = 3\nvalue = [5, 0]"] ;
124 -> 125 ;
126 [label="gini = 0.48\nsamples = 3\nvalue = [2, 3]"] ;
124 -> 126 ;
127 [label="gini = 0.0\nsamples = 1\nvalue = [0, 1]"] ;
123 -> 127 ;
128 [label="gini = 0.0\nsamples = 2\nvalue = [3, 0]"] ;
122 -> 128 ;
129 [label="X[23] <= 0.5\ngini = 0.231\nsamples = 9\nvalue = [2, 13]"] ;
121 -> 129 ;
130 [label="gini = 0.0\nsamples = 2\nvalue = [0, 3]"] ;
129 -> 130 ;
131 [label="X[14] <= 0.5\ngini = 0.278\nsamples = 7\nvalue = [2, 10]"] ;
129 -> 131 ;
132 [label="X[15] <= 0.5\ngini = 0.298\nsamples = 6\nvalue = [2, 9]"] ;
131 -> 132 ;
133 [label="gini = 0.346\nsamples = 5\nvalue = [2, 7]"] ;
132 -> 133 ;
134 [label="gini = 0.0\nsamples = 1\nvalue = [0, 2]"] ;
132 -> 134 ;
135 [label="gini = 0.0\nsamples = 1\nvalue = [0, 1]"] ;
131 -> 135 ;
136 [label="X[18] <= 0.5\ngini = 0.446\nsamples = 81\nvalue = [41, 81]"] ;
2 -> 136 ;
137 [label="X[19] <= 0.5\ngini = 0.45\nsamples = 80\nvalue = [41, 79]"] ;
136 -> 137 ;
138 [label="X[23] <= 0.5\ngini = 0.448\nsamples = 78\nvalue = [40, 78]"] ;
137 -> 138 ;
139 [label="X[8] <= 0.5\ngini = 0.494\nsamples = 22\nvalue = [20, 25]"] ;
138 -> 139 ;
140 [label="X[6] <= 0.5\ngini = 0.45\nsamples = 20\nvalue = [13, 25]"] ;
139 -> 140 ;
141 [label="gini = 0.43\nsamples = 15\nvalue = [10, 22]"] ;
140 -> 141 ;
142 [label="X[0] <= 0.5\ngini = 0.5\nsamples = 5\nvalue = [3, 3]"] ;
140 -> 142 ;
143 [label="gini = 0.48\nsamples = 4\nvalue = [3, 2]"] ;
142 -> 143 ;
144 [label="gini = 0.0\nsamples = 1\nvalue = [0, 1]"] ;
142 -> 144 ;
145 [label="gini = 0.0\nsamples = 2\nvalue = [7, 0]"] ;
139 -> 145 ;
146 [label="X[6] <= 0.5\ngini = 0.398\nsamples = 56\nvalue = [20, 53]"] ;
138 -> 146 ;
147 [label="X[9] <= 0.5\ngini = 0.42\nsamples = 45\nvalue = [18, 42]"] ;
146 -> 147 ;
148 [label="gini = 0.0\nsamples = 3\nvalue = [4, 0]"] ;
147 -> 148 ;
149 [label="gini = 0.375\nsamples = 42\nvalue = [14, 42]"] ;
147 -> 149 ;
150 [label="X[17] <= 0.5\ngini = 0.26\nsamples = 11\nvalue = [2, 11]"] ;
146 -> 150 ;
151 [label="X[2] <= 0.5\ngini = 0.153\nsamples = 10\nvalue = [1, 11]"] ;
150 -> 151 ;
152 [label="gini = 0.0\nsamples = 3\nvalue = [0, 5]"] ;
151 -> 152 ;
153 [label="gini = 0.245\nsamples = 7\nvalue = [1, 6]"] ;
151 -> 153 ;
154 [label="gini = 0.0\nsamples = 1\nvalue = [1, 0]"] ;
150 -> 154 ;
155 [label="gini = 0.5\nsamples = 2\nvalue = [1, 1]"] ;
137 -> 155 ;
156 [label="gini = 0.0\nsamples = 1\nvalue = [0, 2]"] ;
136 -> 156 ;
157 [label="X[17] <= 0.5\ngini = 0.496\nsamples = 247\nvalue = [215, 180]"] ;
1 -> 157 ;
158 [label="X[5] <= 0.5\ngini = 0.499\nsamples = 233\nvalue = [192, 180]"] ;
157 -> 158 ;
159 [label="X[13] <= 0.5\ngini = 0.499\nsamples = 231\nvalue = [191, 177]"] ;
158 -> 159 ;
160 [label="X[15] <= 0.5\ngini = 0.475\nsamples = 125\nvalue = [120, 76]"] ;
159 -> 160 ;
161 [label="X[16] <= 0.5\ngini = 0.5\nsamples = 69\nvalue = [52, 52]"] ;
160 -> 161 ;
162 [label="X[14] <= 0.5\ngini = 0.5\nsamples = 68\nvalue = [52, 51]"] ;
161 -> 162 ;
163 [label="gini = 0.153\nsamples = 7\nvalue = [1, 11]"] ;
162 -> 163 ;
164 [label="X[2] <= 0.5\ngini = 0.493\nsamples = 61\nvalue = [51, 40]"] ;
162 -> 164 ;
165 [label="X[7] <= 0.5\ngini = 0.489\nsamples = 60\nvalue = [51, 38]"] ;
164 -> 165 ;
166 [label="X[6] <= 0.5\ngini = 0.484\nsamples = 58\nvalue = [50, 35]"] ;
165 -> 166 ;
167 [label="X[18] <= 0.5\ngini = 0.49\nsamples = 54\nvalue = [45, 34]"] ;
166 -> 167 ;
168 [label="gini = 0.484\nsamples = 50\nvalue = [43, 30]"] ;
167 -> 168 ;
169 [label="gini = 0.444\nsamples = 4\nvalue = [2, 4]"] ;
167 -> 169 ;
170 [label="gini = 0.278\nsamples = 4\nvalue = [5, 1]"] ;
166 -> 170 ;
171 [label="X[20] <= 0.5\ngini = 0.375\nsamples = 2\nvalue = [1, 3]"] ;
165 -> 171 ;
172 [label="gini = 0.0\nsamples = 1\nvalue = [0, 3]"] ;
171 -> 172 ;
173 [label="gini = 0.0\nsamples = 1\nvalue = [1, 0]"] ;
171 -> 173 ;
174 [label="gini = 0.0\nsamples = 1\nvalue = [0, 2]"] ;
164 -> 174 ;
175 [label="gini = 0.0\nsamples = 1\nvalue = [0, 1]"] ;
161 -> 175 ;
176 [label="X[18] <= 0.5\ngini = 0.386\nsamples = 56\nvalue = [68, 24]"] ;
160 -> 176 ;
177 [label="X[2] <= 0.5\ngini = 0.378\nsamples = 55\nvalue = [68, 23]"] ;
176 -> 177 ;
178 [label="X[6] <= 0.5\ngini = 0.386\nsamples = 53\nvalue = [65, 23]"] ;
177 -> 178 ;
179 [label="gini = 0.381\nsamples = 50\nvalue = [61, 21]"] ;
178 -> 179 ;
180 [label="gini = 0.444\nsamples = 3\nvalue = [4, 2]"] ;
178 -> 180 ;
181 [label="gini = 0.0\nsamples = 2\nvalue = [3, 0]"] ;
177 -> 181 ;
182 [label="gini = 0.0\nsamples = 1\nvalue = [0, 1]"] ;
176 -> 182 ;
183 [label="X[0] <= 0.5\ngini = 0.485\nsamples = 106\nvalue = [71, 101]"] ;
159 -> 183 ;
184 [label="X[2] <= 0.5\ngini = 0.496\nsamples = 13\nvalue = [10, 12]"] ;
183 -> 184 ;
185 [label="X[1] <= 0.5\ngini = 0.492\nsamples = 9\nvalue = [9, 7]"] ;
184 -> 185 ;
186 [label="X[6] <= 0.5\ngini = 0.42\nsamples = 7\nvalue = [3, 7]"] ;
185 -> 186 ;
187 [label="gini = 0.32\nsamples = 3\nvalue = [1, 4]"] ;
186 -> 187 ;
188 [label="gini = 0.48\nsamples = 4\nvalue = [2, 3]"] ;
186 -> 188 ;
189 [label="gini = 0.0\nsamples = 2\nvalue = [6, 0]"] ;
185 -> 189 ;
190 [label="X[7] <= 0.5\ngini = 0.278\nsamples = 4\nvalue = [1, 5]"] ;
184 -> 190 ;
191 [label="gini = 0.0\nsamples = 3\nvalue = [0, 5]"] ;
190 -> 191 ;
192 [label="gini = 0.0\nsamples = 1\nvalue = [1, 0]"] ;
190 -> 192 ;
193 [label="X[6] <= 0.5\ngini = 0.483\nsamples = 93\nvalue = [61, 89]"] ;
183 -> 193 ;
194 [label="gini = 0.484\nsamples = 89\nvalue = [59, 85]"] ;
193 -> 194 ;
195 [label="gini = 0.444\nsamples = 4\nvalue = [2, 4]"] ;
193 -> 195 ;
196 [label="X[14] <= 0.5\ngini = 0.375\nsamples = 2\nvalue = [1, 3]"] ;
158 -> 196 ;
197 [label="gini = 0.0\nsamples = 1\nvalue = [0, 3]"] ;
196 -> 197 ;
198 [label="gini = 0.0\nsamples = 1\nvalue = [1, 0]"] ;
196 -> 198 ;
199 [label="gini = 0.0\nsamples = 14\nvalue = [23, 0]"] ;
157 -> 199 ;
200 [label="X[8] <= 0.5\ngini = 0.482\nsamples = 3254\nvalue = [3088, 2096]"] ;
0 -> 200 [labeldistance=2.5, labelangle=-45, headlabel="False"] ;
201 [label="X[16] <= 0.5\ngini = 0.494\nsamples = 2913\nvalue = [2591, 2066]"] ;
200 -> 201 ;
202 [label="X[11] <= 0.5\ngini = 0.466\nsamples = 2534\nvalue = [2554, 1502]"] ;
201 -> 202 ;
203 [label="X[10] <= 0.5\ngini = 0.452\nsamples = 1351\nvalue = [736, 1399]"] ;
202 -> 203 ;
204 [label="X[18] <= 0.5\ngini = 0.453\nsamples = 1343\nvalue = [734, 1387]"] ;
203 -> 204 ;
205 [label="X[19] <= 0.5\ngini = 0.454\nsamples = 1327\nvalue = [729, 1364]"] ;
204 -> 205 ;
206 [label="X[4] <= 0.5\ngini = 0.482\nsamples = 277\nvalue = [172, 252]"] ;
205 -> 206 ;
207 [label="X[5] <= 0.5\ngini = 0.494\nsamples = 64\nvalue = [41, 51]"] ;
206 -> 207 ;
208 [label="X[15] <= 0.5\ngini = 0.492\nsamples = 61\nvalue = [39, 50]"] ;
207 -> 208 ;
209 [label="X[0] <= 0.5\ngini = 0.47\nsamples = 48\nvalue = [26, 43]"] ;
208 -> 209 ;
210 [label="X[2] <= 0.5\ngini = 0.455\nsamples = 28\nvalue = [14, 26]"] ;
209 -> 210 ;
211 [label="gini = 0.0\nsamples = 3\nvalue = [0, 3]"] ;
210 -> 211 ;
212 [label="X[13] <= 0.5\ngini = 0.47\nsamples = 25\nvalue = [14, 23]"] ;
210 -> 212 ;
213 [label="X[12] <= 0.5\ngini = 0.463\nsamples = 15\nvalue = [8, 14]"] ;
212 -> 213 ;
214 [label="gini = 0.472\nsamples = 14\nvalue = [8, 13]"] ;
213 -> 214 ;
215 [label="gini = 0.0\nsamples = 1\nvalue = [0, 1]"] ;
213 -> 215 ;
216 [label="gini = 0.48\nsamples = 10\nvalue = [6, 9]"] ;
212 -> 216 ;
217 [label="X[14] <= 0.5\ngini = 0.485\nsamples = 20\nvalue = [12, 17]"] ;
209 -> 217 ;
218 [label="X[12] <= 0.5\ngini = 0.498\nsamples = 12\nvalue = [8, 9]"] ;
217 -> 218 ;
219 [label="X[7] <= 0.5\ngini = 0.492\nsamples = 11\nvalue = [7, 9]"] ;
218 -> 219 ;
220 [label="gini = 0.48\nsamples = 8\nvalue = [4, 6]"] ;
219 -> 220 ;
221 [label="gini = 0.5\nsamples = 3\nvalue = [3, 3]"] ;
219 -> 221 ;
222 [label="gini = 0.0\nsamples = 1\nvalue = [1, 0]"] ;
218 -> 222 ;
223 [label="gini = 0.444\nsamples = 8\nvalue = [4, 8]"] ;
217 -> 223 ;
224 [label="X[3] <= 0.5\ngini = 0.455\nsamples = 13\nvalue = [13, 7]"] ;
208 -> 224 ;
225 [label="X[7] <= 0.5\ngini = 0.475\nsamples = 11\nvalue = [11, 7]"] ;
224 -> 225 ;
226 [label="X[2] <= 0.5\ngini = 0.498\nsamples = 9\nvalue = [8, 7]"] ;
225 -> 226 ;
227 [label="gini = 0.444\nsamples = 2\nvalue = [1, 2]"] ;
226 -> 227 ;
228 [label="gini = 0.486\nsamples = 7\nvalue = [7, 5]"] ;
226 -> 228 ;
229 [label="gini = 0.0\nsamples = 2\nvalue = [3, 0]"] ;
225 -> 229 ;
230 [label="gini = 0.0\nsamples = 2\nvalue = [2, 0]"] ;
224 -> 230 ;
231 [label="X[0] <= 0.5\ngini = 0.444\nsamples = 3\nvalue = [2, 1]"] ;
207 -> 231 ;
232 [label="gini = 0.0\nsamples = 2\nvalue = [2, 0]"] ;
231 -> 232 ;
233 [label="gini = 0.0\nsamples = 1\nvalue = [0, 1]"] ;
231 -> 233 ;
234 [label="X[13] <= 0.5\ngini = 0.478\nsamples = 213\nvalue = [131, 201]"] ;
206 -> 234 ;
235 [label="X[2] <= 0.5\ngini = 0.474\nsamples = 121\nvalue = [75, 119]"] ;
234 -> 235 ;
236 [label="X[0] <= 0.5\ngini = 0.474\nsamples = 119\nvalue = [74, 118]"] ;
235 -> 236 ;
237 [label="gini = 0.0\nsamples = 1\nvalue = [0, 1]"] ;
236 -> 237 ;
238 [label="X[12] <= 0.5\ngini = 0.475\nsamples = 118\nvalue = [74, 117]"] ;
236 -> 238 ;
239 [label="X[15] <= 0.5\ngini = 0.474\nsamples = 100\nvalue = [62, 99]"] ;
238 -> 239 ;
240 [label="gini = 0.4\nsamples = 46\nvalue = [21, 55]"] ;
239 -> 240 ;
241 [label="gini = 0.499\nsamples = 54\nvalue = [41, 44]"] ;
239 -> 241 ;
242 [label="gini = 0.48\nsamples = 18\nvalue = [12, 18]"] ;
238 -> 242 ;
243 [label="gini = 0.5\nsamples = 2\nvalue = [1, 1]"] ;
235 -> 243 ;
244 [label="X[0] <= 0.5\ngini = 0.482\nsamples = 92\nvalue = [56, 82]"] ;
234 -> 244 ;
245 [label="gini = 0.0\nsamples = 2\nvalue = [0, 3]"] ;
244 -> 245 ;
246 [label="gini = 0.485\nsamples = 90\nvalue = [56, 79]"] ;
244 -> 246 ;
247 [label="X[12] <= 0.5\ngini = 0.445\nsamples = 1050\nvalue = [557, 1112]"] ;
205 -> 247 ;
248 [label="X[15] <= 0.5\ngini = 0.461\nsamples = 761\nvalue = [442, 784]"] ;
247 -> 248 ;
249 [label="X[3] <= 0.5\ngini = 0.442\nsamples = 607\nvalue = [318, 648]"] ;
248 -> 249 ;
250 [label="X[1] <= 0.5\ngini = 0.441\nsamples = 591\nvalue = [311, 635]"] ;
249 -> 250 ;
251 [label="X[14] <= 0.5\ngini = 0.442\nsamples = 583\nvalue = [308, 626]"] ;
250 -> 251 ;
252 [label="X[7] <= 0.5\ngini = 0.443\nsamples = 392\nvalue = [204, 412]"] ;
251 -> 252 ;
253 [label="X[0] <= 0.5\ngini = 0.442\nsamples = 389\nvalue = [202, 410]"] ;
252 -> 253 ;
254 [label="gini = 0.379\nsamples = 39\nvalue = [15, 44]"] ;
253 -> 254 ;
255 [label="X[5] <= 0.5\ngini = 0.448\nsamples = 350\nvalue = [187, 366]"] ;
253 -> 255 ;
256 [label="X[4] <= 0.5\ngini = 0.449\nsamples = 348\nvalue = [187, 362]"] ;
255 -> 256 ;
257 [label="gini = 0.467\nsamples = 24\nvalue = [13, 22]"] ;
256 -> 257 ;
258 [label="gini = 0.448\nsamples = 324\nvalue = [174, 340]"] ;
256 -> 258 ;
259 [label="gini = 0.0\nsamples = 2\nvalue = [0, 4]"] ;
255 -> 259 ;
260 [label="X[2] <= 0.5\ngini = 0.5\nsamples = 3\nvalue = [2, 2]"] ;
252 -> 260 ;
261 [label="gini = 0.444\nsamples = 2\nvalue = [1, 2]"] ;
260 -> 261 ;
262 [label="gini = 0.0\nsamples = 1\nvalue = [1, 0]"] ;
260 -> 262 ;
263 [label="X[6] <= 0.5\ngini = 0.44\nsamples = 191\nvalue = [104, 214]"] ;
251 -> 263 ;
264 [label="X[5] <= 0.5\ngini = 0.426\nsamples = 159\nvalue = [82, 185]"] ;
263 -> 264 ;
265 [label="X[7] <= 0.5\ngini = 0.424\nsamples = 158\nvalue = [81, 185]"] ;
264 -> 265 ;
266 [label="gini = 0.42\nsamples = 154\nvalue = [78, 182]"] ;
265 -> 266 ;
267 [label="gini = 0.5\nsamples = 4\nvalue = [3, 3]"] ;
265 -> 267 ;
268 [label="gini = 0.0\nsamples = 1\nvalue = [1, 0]"] ;
264 -> 268 ;
269 [label="X[0] <= 0.5\ngini = 0.491\nsamples = 32\nvalue = [22, 29]"] ;
263 -> 269 ;
270 [label="gini = 0.495\nsamples = 21\nvalue = [17, 14]"] ;
269 -> 270 ;
271 [label="gini = 0.375\nsamples = 11\nvalue = [5, 15]"] ;
269 -> 271 ;
272 [label="X[7] <= 0.5\ngini = 0.375\nsamples = 8\nvalue = [3, 9]"] ;
250 -> 272 ;
273 [label="X[13] <= 0.5\ngini = 0.444\nsamples = 6\nvalue = [3, 6]"] ;
272 -> 273 ;
274 [label="X[6] <= 0.5\ngini = 0.408\nsamples = 4\nvalue = [2, 5]"] ;
273 -> 274 ;
275 [label="gini = 0.278\nsamples = 3\nvalue = [1, 5]"] ;
274 -> 275 ;
276 [label="gini = 0.0\nsamples = 1\nvalue = [1, 0]"] ;
274 -> 276 ;
277 [label="X[6] <= 0.5\ngini = 0.5\nsamples = 2\nvalue = [1, 1]"] ;
273 -> 277 ;
278 [label="gini = 0.0\nsamples = 1\nvalue = [1, 0]"] ;
277 -> 278 ;
279 [label="gini = 0.0\nsamples = 1\nvalue = [0, 1]"] ;
277 -> 279 ;
280 [label="gini = 0.0\nsamples = 2\nvalue = [0, 3]"] ;
272 -> 280 ;
281 [label="X[13] <= 0.5\ngini = 0.455\nsamples = 16\nvalue = [7, 13]"] ;
249 -> 281 ;
282 [label="gini = 0.49\nsamples = 5\nvalue = [3, 4]"] ;
281 -> 282 ;
283 [label="X[7] <= 0.5\ngini = 0.426\nsamples = 11\nvalue = [4, 9]"] ;
281 -> 283 ;
284 [label="gini = 0.48\nsamples = 4\nvalue = [2, 3]"] ;
283 -> 284 ;
285 [label="gini = 0.375\nsamples = 7\nvalue = [2, 6]"] ;
283 -> 285 ;
286 [label="X[6] <= 0.5\ngini = 0.499\nsamples = 154\nvalue = [124, 136]"] ;
248 -> 286 ;
287 [label="X[5] <= 0.5\ngini = 0.497\nsamples = 133\nvalue = [104, 122]"] ;
286 -> 287 ;
288 [label="X[4] <= 0.5\ngini = 0.496\nsamples = 132\nvalue = [103, 122]"] ;
287 -> 288 ;
289 [label="gini = 0.494\nsamples = 5\nvalue = [5, 4]"] ;
288 -> 289 ;
290 [label="gini = 0.496\nsamples = 127\nvalue = [98, 118]"] ;
288 -> 290 ;
291 [label="gini = 0.0\nsamples = 1\nvalue = [1, 0]"] ;
287 -> 291 ;
292 [label="X[0] <= 0.5\ngini = 0.484\nsamples = 21\nvalue = [20, 14]"] ;
286 -> 292 ;
293 [label="X[3] <= 0.5\ngini = 0.48\nsamples = 11\nvalue = [6, 9]"] ;
292 -> 293 ;
294 [label="gini = 0.49\nsamples = 10\nvalue = [6, 8]"] ;
293 -> 294 ;
295 [label="gini = 0.0\nsamples = 1\nvalue = [0, 1]"] ;
293 -> 295 ;
296 [label="gini = 0.388\nsamples = 10\nvalue = [14, 5]"] ;
292 -> 296 ;
297 [label="X[6] <= 0.5\ngini = 0.384\nsamples = 289\nvalue = [115, 328]"] ;
247 -> 297 ;
298 [label="X[0] <= 0.5\ngini = 0.393\nsamples = 240\nvalue = [98, 266]"] ;
297 -> 298 ;
299 [label="X[1] <= 0.5\ngini = 0.346\nsamples = 5\nvalue = [2, 7]"] ;
298 -> 299 ;
300 [label="gini = 0.0\nsamples = 4\nvalue = [0, 7]"] ;
299 -> 300 ;
301 [label="gini = 0.0\nsamples = 1\nvalue = [2, 0]"] ;
299 -> 301 ;
302 [label="X[7] <= 0.5\ngini = 0.395\nsamples = 235\nvalue = [96, 259]"] ;
298 -> 302 ;
303 [label="gini = 0.393\nsamples = 234\nvalue = [95, 259]"] ;
302 -> 303 ;
304 [label="gini = 0.0\nsamples = 1\nvalue = [1, 0]"] ;
302 -> 304 ;
305 [label="X[2] <= 0.5\ngini = 0.338\nsamples = 49\nvalue = [17, 62]"] ;
297 -> 305 ;
306 [label="X[1] <= 0.5\ngini = 0.252\nsamples = 18\nvalue = [4, 23]"] ;
305 -> 306 ;
307 [label="gini = 0.278\nsamples = 17\nvalue = [4, 20]"] ;
306 -> 307 ;
308 [label="gini = 0.0\nsamples = 1\nvalue = [0, 3]"] ;
306 -> 308 ;
309 [label="gini = 0.375\nsamples = 31\nvalue = [13, 39]"] ;
305 -> 309 ;
310 [label="X[14] <= 0.5\ngini = 0.293\nsamples = 16\nvalue = [5, 23]"] ;
204 -> 310 ;
311 [label="X[15] <= 0.5\ngini = 0.219\nsamples = 5\nvalue = [1, 7]"] ;
310 -> 311 ;
312 [label="gini = 0.0\nsamples = 4\nvalue = [0, 7]"] ;
311 -> 312 ;
313 [label="gini = 0.0\nsamples = 1\nvalue = [1, 0]"] ;
311 -> 313 ;
314 [label="X[4] <= 0.5\ngini = 0.32\nsamples = 11\nvalue = [4, 16]"] ;
310 -> 314 ;
315 [label="gini = 0.0\nsamples = 2\nvalue = [0, 2]"] ;
314 -> 315 ;
316 [label="gini = 0.346\nsamples = 9\nvalue = [4, 14]"] ;
314 -> 316 ;
317 [label="X[14] <= 0.5\ngini = 0.245\nsamples = 8\nvalue = [2, 12]"] ;
203 -> 317 ;
318 [label="X[19] <= 0.5\ngini = 0.278\nsamples = 7\nvalue = [2, 10]"] ;
317 -> 318 ;
319 [label="gini = 0.0\nsamples = 2\nvalue = [0, 3]"] ;
318 -> 319 ;
320 [label="X[13] <= 0.5\ngini = 0.346\nsamples = 5\nvalue = [2, 7]"] ;
318 -> 320 ;
321 [label="gini = 0.0\nsamples = 2\nvalue = [0, 4]"] ;
320 -> 321 ;
322 [label="gini = 0.48\nsamples = 3\nvalue = [2, 3]"] ;
320 -> 322 ;
323 [label="gini = 0.0\nsamples = 1\nvalue = [0, 2]"] ;
317 -> 323 ;
324 [label="X[12] <= 0.5\ngini = 0.101\nsamples = 1183\nvalue = [1818, 103]"] ;
202 -> 324 ;
325 [label="X[15] <= 0.5\ngini = 0.079\nsamples = 1049\nvalue = [1629, 70]"] ;
324 -> 325 ;
326 [label="X[13] <= 0.5\ngini = 0.091\nsamples = 649\nvalue = [992, 50]"] ;
325 -> 326 ;
327 [label="X[0] <= 0.5\ngini = 0.066\nsamples = 322\nvalue = [508, 18]"] ;
326 -> 327 ;
328 [label="X[6] <= 0.5\ngini = 0.069\nsamples = 66\nvalue = [108, 4]"] ;
327 -> 328 ;
329 [label="X[3] <= 0.5\ngini = 0.117\nsamples = 10\nvalue = [15, 1]"] ;
328 -> 329 ;
330 [label="gini = 0.0\nsamples = 3\nvalue = [3, 0]"] ;
329 -> 330 ;
331 [label="gini = 0.142\nsamples = 7\nvalue = [12, 1]"] ;
329 -> 331 ;
332 [label="X[3] <= 0.5\ngini = 0.061\nsamples = 56\nvalue = [93, 3]"] ;
328 -> 332 ;
333 [label="X[1] <= 0.5\ngini = 0.062\nsamples = 55\nvalue = [91, 3]"] ;
332 -> 333 ;
334 [label="gini = 0.064\nsamples = 53\nvalue = [87, 3]"] ;
333 -> 334 ;
335 [label="gini = 0.0\nsamples = 2\nvalue = [4, 0]"] ;
333 -> 335 ;
336 [label="gini = 0.0\nsamples = 1\nvalue = [2, 0]"] ;
332 -> 336 ;
337 [label="X[4] <= 0.5\ngini = 0.065\nsamples = 256\nvalue = [400, 14]"] ;
327 -> 337 ;
338 [label="gini = 0.0\nsamples = 15\nvalue = [24, 0]"] ;
337 -> 338 ;
339 [label="X[20] <= 0.5\ngini = 0.069\nsamples = 241\nvalue = [376, 14]"] ;
337 -> 339 ;
340 [label="gini = 0.07\nsamples = 239\nvalue = [374, 14]"] ;
339 -> 340 ;
341 [label="gini = 0.0\nsamples = 2\nvalue = [2, 0]"] ;
339 -> 341 ;
342 [label="X[7] <= 0.5\ngini = 0.116\nsamples = 327\nvalue = [484, 32]"] ;
326 -> 342 ;
343 [label="X[2] <= 0.5\ngini = 0.118\nsamples = 324\nvalue = [477, 32]"] ;
342 -> 343 ;
344 [label="X[4] <= 0.5\ngini = 0.116\nsamples = 268\nvalue = [393, 26]"] ;
343 -> 344 ;
345 [label="gini = 0.0\nsamples = 29\nvalue = [45, 0]"] ;
344 -> 345 ;
346 [label="X[20] <= 0.5\ngini = 0.129\nsamples = 239\nvalue = [348, 26]"] ;
344 -> 346 ;
347 [label="gini = 0.13\nsamples = 237\nvalue = [346, 26]"] ;
346 -> 347 ;
348 [label="gini = 0.0\nsamples = 2\nvalue = [2, 0]"] ;
346 -> 348 ;
349 [label="gini = 0.124\nsamples = 56\nvalue = [84, 6]"] ;
343 -> 349 ;
350 [label="gini = 0.0\nsamples = 3\nvalue = [7, 0]"] ;
342 -> 350 ;
351 [label="X[6] <= 0.5\ngini = 0.059\nsamples = 400\nvalue = [637, 20]"] ;
325 -> 351 ;
352 [label="X[0] <= 0.5\ngini = 0.056\nsamples = 328\nvalue = [534, 16]"] ;
351 -> 352 ;
353 [label="gini = 0.0\nsamples = 6\nvalue = [9, 0]"] ;
352 -> 353 ;
354 [label="X[7] <= 0.5\ngini = 0.057\nsamples = 322\nvalue = [525, 16]"] ;
352 -> 354 ;
355 [label="X[18] <= 0.5\ngini = 0.051\nsamples = 316\nvalue = [516, 14]"] ;
354 -> 355 ;
356 [label="X[5] <= 0.5\ngini = 0.052\nsamples = 315\nvalue = [513, 14]"] ;
355 -> 356 ;
357 [label="X[20] <= 0.5\ngini = 0.052\nsamples = 312\nvalue = [510, 14]"] ;
356 -> 357 ;
358 [label="gini = 0.052\nsamples = 311\nvalue = [508, 14]"] ;
357 -> 358 ;
359 [label="gini = 0.0\nsamples = 1\nvalue = [2, 0]"] ;
357 -> 359 ;
360 [label="gini = 0.0\nsamples = 3\nvalue = [3, 0]"] ;
356 -> 360 ;
361 [label="gini = 0.0\nsamples = 1\nvalue = [3, 0]"] ;
355 -> 361 ;
362 [label="gini = 0.298\nsamples = 6\nvalue = [9, 2]"] ;
354 -> 362 ;
363 [label="X[0] <= 0.5\ngini = 0.072\nsamples = 72\nvalue = [103, 4]"] ;
351 -> 363 ;
364 [label="X[1] <= 0.5\ngini = 0.094\nsamples = 54\nvalue = [77, 4]"] ;
363 -> 364 ;
365 [label="X[20] <= 0.5\ngini = 0.097\nsamples = 52\nvalue = [74, 4]"] ;
364 -> 365 ;
366 [label="X[3] <= 0.5\ngini = 0.098\nsamples = 51\nvalue = [73, 4]"] ;
365 -> 366 ;
367 [label="gini = 0.104\nsamples = 47\nvalue = [69, 4]"] ;
366 -> 367 ;
368 [label="gini = 0.0\nsamples = 4\nvalue = [4, 0]"] ;
366 -> 368 ;
369 [label="gini = 0.0\nsamples = 1\nvalue = [1, 0]"] ;
365 -> 369 ;
370 [label="gini = 0.0\nsamples = 2\nvalue = [3, 0]"] ;
364 -> 370 ;
371 [label="gini = 0.0\nsamples = 18\nvalue = [26, 0]"] ;
363 -> 371 ;
372 [label="X[7] <= 0.5\ngini = 0.253\nsamples = 134\nvalue = [189, 33]"] ;
324 -> 372 ;
373 [label="X[4] <= 0.5\ngini = 0.248\nsamples = 133\nvalue = [189, 32]"] ;
372 -> 373 ;
374 [label="X[3] <= 0.5\ngini = 0.142\nsamples = 33\nvalue = [48, 4]"] ;
373 -> 374 ;
375 [label="X[0] <= 0.5\ngini = 0.153\nsamples = 30\nvalue = [44, 4]"] ;
374 -> 375 ;
376 [label="gini = 0.124\nsamples = 20\nvalue = [28, 2]"] ;
375 -> 376 ;
377 [label="X[6] <= 0.5\ngini = 0.198\nsamples = 10\nvalue = [16, 2]"] ;
375 -> 377 ;
378 [label="gini = 0.0\nsamples = 1\nvalue = [2, 0]"] ;
377 -> 378 ;
379 [label="gini = 0.219\nsamples = 9\nvalue = [14, 2]"] ;
377 -> 379 ;
380 [label="gini = 0.0\nsamples = 3\nvalue = [4, 0]"] ;
374 -> 380 ;
381 [label="gini = 0.276\nsamples = 100\nvalue = [141, 28]"] ;
373 -> 381 ;
382 [label="gini = 0.0\nsamples = 1\nvalue = [0, 1]"] ;
372 -> 382 ;
383 [label="X[10] <= 0.5\ngini = 0.116\nsamples = 379\nvalue = [37, 564]"] ;
201 -> 383 ;
384 [label="X[11] <= 0.5\ngini = 0.145\nsamples = 298\nvalue = [37, 432]"] ;
383 -> 384 ;
385 [label="X[6] <= 0.5\ngini = 0.066\nsamples = 280\nvalue = [15, 426]"] ;
384 -> 385 ;
386 [label="X[18] <= 0.5\ngini = 0.079\nsamples = 226\nvalue = [15, 347]"] ;
385 -> 386 ;
387 [label="X[19] <= 0.5\ngini = 0.081\nsamples = 223\nvalue = [15, 341]"] ;
386 -> 387 ;
388 [label="X[0] <= 0.5\ngini = 0.044\nsamples = 83\nvalue = [3, 131]"] ;
387 -> 388 ;
389 [label="gini = 0.0\nsamples = 1\nvalue = [0, 1]"] ;
388 -> 389 ;
390 [label="gini = 0.044\nsamples = 82\nvalue = [3, 130]"] ;
388 -> 390 ;
391 [label="X[4] <= 0.5\ngini = 0.102\nsamples = 140\nvalue = [12, 210]"] ;
387 -> 391 ;
392 [label="X[0] <= 0.5\ngini = 0.111\nsamples = 10\nvalue = [1, 16]"] ;
391 -> 392 ;
393 [label="X[3] <= 0.5\ngini = 0.165\nsamples = 5\nvalue = [1, 10]"] ;
392 -> 393 ;
394 [label="gini = 0.0\nsamples = 1\nvalue = [0, 2]"] ;
393 -> 394 ;
395 [label="gini = 0.198\nsamples = 4\nvalue = [1, 8]"] ;
393 -> 395 ;
396 [label="gini = 0.0\nsamples = 5\nvalue = [0, 6]"] ;
392 -> 396 ;
397 [label="gini = 0.102\nsamples = 130\nvalue = [11, 194]"] ;
391 -> 397 ;
398 [label="gini = 0.0\nsamples = 3\nvalue = [0, 6]"] ;
386 -> 398 ;
399 [label="gini = 0.0\nsamples = 54\nvalue = [0, 79]"] ;
385 -> 399 ;
400 [label="X[19] <= 0.5\ngini = 0.337\nsamples = 18\nvalue = [22, 6]"] ;
384 -> 400 ;
401 [label="gini = 0.0\nsamples = 1\nvalue = [0, 2]"] ;
400 -> 401 ;
402 [label="X[0] <= 0.5\ngini = 0.26\nsamples = 17\nvalue = [22, 4]"] ;
400 -> 402 ;
403 [label="gini = 0.346\nsamples = 4\nvalue = [7, 2]"] ;
402 -> 403 ;
404 [label="X[6] <= 0.5\ngini = 0.208\nsamples = 13\nvalue = [15, 2]"] ;
402 -> 404 ;
405 [label="gini = 0.278\nsamples = 10\nvalue = [10, 2]"] ;
404 -> 405 ;
406 [label="gini = 0.0\nsamples = 3\nvalue = [5, 0]"] ;
404 -> 406 ;
407 [label="gini = 0.0\nsamples = 81\nvalue = [0, 132]"] ;
383 -> 407 ;
408 [label="X[16] <= 0.5\ngini = 0.107\nsamples = 341\nvalue = [497, 30]"] ;
200 -> 408 ;
409 [label="X[13] <= 0.5\ngini = 0.088\nsamples = 335\nvalue = [496, 24]"] ;
408 -> 409 ;
410 [label="X[4] <= 0.5\ngini = 0.053\nsamples = 164\nvalue = [250, 7]"] ;
409 -> 410 ;
411 [label="gini = 0.0\nsamples = 10\nvalue = [17, 0]"] ;
410 -> 411 ;
412 [label="X[15] <= 0.5\ngini = 0.057\nsamples = 154\nvalue = [233, 7]"] ;
410 -> 412 ;
413 [label="X[19] <= 0.5\ngini = 0.049\nsamples = 125\nvalue = [194, 5]"] ;
412 -> 413 ;
414 [label="X[14] <= 0.5\ngini = 0.052\nsamples = 119\nvalue = [182, 5]"] ;
413 -> 414 ;
415 [label="gini = 0.0\nsamples = 23\nvalue = [39, 0]"] ;
414 -> 415 ;
416 [label="gini = 0.065\nsamples = 96\nvalue = [143, 5]"] ;
414 -> 416 ;
417 [label="gini = 0.0\nsamples = 6\nvalue = [12, 0]"] ;
413 -> 417 ;
418 [label="X[1] <= 0.5\ngini = 0.093\nsamples = 29\nvalue = [39, 2]"] ;
412 -> 418 ;
419 [label="X[17] <= 0.5\ngini = 0.095\nsamples = 28\nvalue = [38, 2]"] ;
418 -> 419 ;
420 [label="gini = 0.0\nsamples = 1\nvalue = [1, 0]"] ;
419 -> 420 ;
421 [label="gini = 0.097\nsamples = 27\nvalue = [37, 2]"] ;
419 -> 421 ;
422 [label="gini = 0.0\nsamples = 1\nvalue = [1, 0]"] ;
418 -> 422 ;
423 [label="X[6] <= 0.5\ngini = 0.121\nsamples = 171\nvalue = [246, 17]"] ;
409 -> 423 ;
424 [label="X[4] <= 0.5\ngini = 0.135\nsamples = 155\nvalue = [217, 17]"] ;
423 -> 424 ;
425 [label="gini = 0.0\nsamples = 1\nvalue = [1, 0]"] ;
424 -> 425 ;
426 [label="X[17] <= 0.5\ngini = 0.135\nsamples = 154\nvalue = [216, 17]"] ;
424 -> 426 ;
427 [label="gini = 0.49\nsamples = 13\nvalue = [8, 6]"] ;
426 -> 427 ;
428 [label="X[0] <= 0.5\ngini = 0.095\nsamples = 141\nvalue = [208, 11]"] ;
426 -> 428 ;
429 [label="gini = 0.0\nsamples = 1\nvalue = [1, 0]"] ;
428 -> 429 ;
430 [label="gini = 0.096\nsamples = 140\nvalue = [207, 11]"] ;
428 -> 430 ;
431 [label="gini = 0.0\nsamples = 16\nvalue = [29, 0]"] ;
423 -> 431 ;
432 [label="gini = 0.245\nsamples = 6\nvalue = [1, 6]"] ;
408 -> 432 ;
}