digraph Tree {
node [shape=box] ;
0 [label="X[9] <= 0.5\ngini = 0.49\nsamples = 6344\nvalue = [4324, 5771]"] ;
1 [label="X[21] <= 0.5\ngini = 0.171\nsamples = 1834\nvalue = [2631, 275]"] ;
0 -> 1 [labeldistance=2.5, labelangle=45, headlabel="True"] ;
2 [label="X[8] <= 0.5\ngini = 0.172\nsamples = 1823\nvalue = [2615, 275]"] ;
1 -> 2 ;
3 [label="X[7] <= 0.5\ngini = 0.2\nsamples = 1285\nvalue = [1790, 227]"] ;
2 -> 3 ;
4 [label="X[20] <= 0.5\ngini = 0.195\nsamples = 1264\nvalue = [1768, 218]"] ;
3 -> 4 ;
5 [label="X[10] <= 0.5\ngini = 0.184\nsamples = 1248\nvalue = [1756, 201]"] ;
4 -> 5 ;
6 [label="X[15] <= 0.5\ngini = 0.106\nsamples = 1181\nvalue = [1754, 104]"] ;
5 -> 6 ;
7 [label="X[12] <= 0.5\ngini = 0.126\nsamples = 782\nvalue = [1161, 84]"] ;
6 -> 7 ;
8 [label="X[4] <= 0.5\ngini = 0.104\nsamples = 644\nvalue = [965, 56]"] ;
7 -> 8 ;
9 [label="X[3] <= 0.5\ngini = 0.053\nsamples = 160\nvalue = [248, 7]"] ;
8 -> 9 ;
10 [label="X[2] <= 0.5\ngini = 0.056\nsamples = 152\nvalue = [236, 7]"] ;
9 -> 10 ;
11 [label="gini = 0.0\nsamples = 46\nvalue = [69, 0]"] ;
10 -> 11 ;
12 [label="X[13] <= 0.5\ngini = 0.077\nsamples = 106\nvalue = [167, 7]"] ;
10 -> 12 ;
13 [label="X[14] <= 0.5\ngini = 0.101\nsamples = 62\nvalue = [89, 5]"] ;
12 -> 13 ;
14 [label="gini = 0.32\nsamples = 3\nvalue = [4, 1]"] ;
13 -> 14 ;
15 [label="gini = 0.086\nsamples = 59\nvalue = [85, 4]"] ;
13 -> 15 ;
16 [label="gini = 0.049\nsamples = 44\nvalue = [78, 2]"] ;
12 -> 16 ;
17 [label="gini = 0.0\nsamples = 8\nvalue = [12, 0]"] ;
9 -> 17 ;
18 [label="X[13] <= 0.5\ngini = 0.12\nsamples = 484\nvalue = [717, 49]"] ;
8 -> 18 ;
19 [label="X[1] <= 0.5\ngini = 0.095\nsamples = 243\nvalue = [362, 19]"] ;
18 -> 19 ;
20 [label="X[16] <= 0.5\ngini = 0.095\nsamples = 242\nvalue = [361, 19]"] ;
19 -> 20 ;
21 [label="gini = 0.09\nsamples = 231\nvalue = [345, 17]"] ;
20 -> 21 ;
22 [label="gini = 0.198\nsamples = 11\nvalue = [16, 2]"] ;
20 -> 22 ;
23 [label="gini = 0.0\nsamples = 1\nvalue = [1, 0]"] ;
19 -> 23 ;
24 [label="X[2] <= 0.5\ngini = 0.144\nsamples = 241\nvalue = [355, 30]"] ;
18 -> 24 ;
25 [label="gini = 0.14\nsamples = 240\nvalue = [355, 29]"] ;
24 -> 25 ;
26 [label="gini = 0.0\nsamples = 1\nvalue = [0, 1]"] ;
24 -> 26 ;
27 [label="X[3] <= 0.5\ngini = 0.219\nsamples = 138\nvalue = [196, 28]"] ;
7 -> 27 ;
28 [label="X[6] <= 0.5\ngini = 0.221\nsamples = 135\nvalue = [193, 28]"] ;
27 -> 28 ;
29 [label="gini = 0.246\nsamples = 107\nvalue = [149, 25]"] ;
28 -> 29 ;
30 [label="X[0] <= 0.5\ngini = 0.12\nsamples = 28\nvalue = [44, 3]"] ;
28 -> 30 ;
31 [label="X[1] <= 0.5\ngini = 0.053\nsamples = 21\nvalue = [36, 1]"] ;
30 -> 31 ;
32 [label="gini = 0.054\nsamples = 20\nvalue = [35, 1]"] ;
31 -> 32 ;
33 [label="gini = 0.0\nsamples = 1\nvalue = [1, 0]"] ;
31 -> 33 ;
34 [label="gini = 0.32\nsamples = 7\nvalue = [8, 2]"] ;
30 -> 34 ;
35 [label="gini = 0.0\nsamples = 3\nvalue = [3, 0]"] ;
27 -> 35 ;
36 [label="X[4] <= 0.5\ngini = 0.063\nsamples = 399\nvalue = [593, 20]"] ;
6 -> 36 ;
37 [label="X[0] <= 0.5\ngini = 0.072\nsamples = 81\nvalue = [128, 5]"] ;
36 -> 37 ;
38 [label="X[1] <= 0.5\ngini = 0.098\nsamples = 60\nvalue = [92, 5]"] ;
37 -> 38 ;
39 [label="X[3] <= 0.5\ngini = 0.105\nsamples = 55\nvalue = [85, 5]"] ;
38 -> 39 ;
40 [label="gini = 0.112\nsamples = 51\nvalue = [79, 5]"] ;
39 -> 40 ;
41 [label="gini = 0.0\nsamples = 4\nvalue = [6, 0]"] ;
39 -> 41 ;
42 [label="gini = 0.0\nsamples = 5\nvalue = [7, 0]"] ;
38 -> 42 ;
43 [label="gini = 0.0\nsamples = 21\nvalue = [36, 0]"] ;
37 -> 43 ;
44 [label="gini = 0.061\nsamples = 318\nvalue = [465, 15]"] ;
36 -> 44 ;
45 [label="X[5] <= 0.5\ngini = 0.04\nsamples = 67\nvalue = [2, 97]"] ;
5 -> 45 ;
46 [label="X[12] <= 0.5\ngini = 0.041\nsamples = 65\nvalue = [2, 94]"] ;
45 -> 46 ;
47 [label="X[16] <= 0.5\ngini = 0.021\nsamples = 64\nvalue = [1, 94]"] ;
46 -> 47 ;
48 [label="gini = 0.375\nsamples = 2\nvalue = [1, 3]"] ;
47 -> 48 ;
49 [label="gini = 0.0\nsamples = 62\nvalue = [0, 91]"] ;
47 -> 49 ;
50 [label="gini = 0.0\nsamples = 1\nvalue = [1, 0]"] ;
46 -> 50 ;
51 [label="gini = 0.0\nsamples = 2\nvalue = [0, 3]"] ;
45 -> 51 ;
52 [label="X[10] <= 0.5\ngini = 0.485\nsamples = 16\nvalue = [12, 17]"] ;
4 -> 52 ;
53 [label="X[15] <= 0.5\ngini = 0.32\nsamples = 8\nvalue = [12, 3]"] ;
52 -> 53 ;
54 [label="X[14] <= 0.5\ngini = 0.375\nsamples = 6\nvalue = [9, 3]"] ;
53 -> 54 ;
55 [label="gini = 0.0\nsamples = 4\nvalue = [8, 0]"] ;
54 -> 55 ;
56 [label="gini = 0.375\nsamples = 2\nvalue = [1, 3]"] ;
54 -> 56 ;
57 [label="gini = 0.0\nsamples = 2\nvalue = [3, 0]"] ;
53 -> 57 ;
58 [label="gini = 0.0\nsamples = 8\nvalue = [0, 14]"] ;
52 -> 58 ;
59 [label="X[1] <= 0.5\ngini = 0.412\nsamples = 21\nvalue = [22, 9]"] ;
3 -> 59 ;
60 [label="X[0] <= 0.5\ngini = 0.42\nsamples = 20\nvalue = [21, 9]"] ;
59 -> 60 ;
61 [label="X[11] <= 0.5\ngini = 0.444\nsamples = 10\nvalue = [10, 5]"] ;
60 -> 61 ;
62 [label="gini = 0.0\nsamples = 3\nvalue = [0, 5]"] ;
61 -> 62 ;
63 [label="gini = 0.0\nsamples = 7\nvalue = [10, 0]"] ;
61 -> 63 ;
64 [label="X[15] <= 0.5\ngini = 0.391\nsamples = 10\nvalue = [11, 4]"] ;
60 -> 64 ;
65 [label="X[16] <= 0.5\ngini = 0.494\nsamples = 7\nvalue = [5, 4]"] ;
64 -> 65 ;
66 [label="gini = 0.0\nsamples = 4\nvalue = [5, 0]"] ;
65 -> 66 ;
67 [label="gini = 0.0\nsamples = 3\nvalue = [0, 4]"] ;
65 -> 67 ;
68 [label="gini = 0.0\nsamples = 3\nvalue = [6, 0]"] ;
64 -> 68 ;
69 [label="gini = 0.0\nsamples = 1\nvalue = [1, 0]"] ;
59 -> 69 ;
70 [label="X[24] <= 0.5\ngini = 0.104\nsamples = 538\nvalue = [825, 48]"] ;
2 -> 70 ;
71 [label="X[23] <= 0.5\ngini = 0.076\nsamples = 188\nvalue = [290, 12]"] ;
70 -> 71 ;
72 [label="gini = 0.0\nsamples = 19\nvalue = [35, 0]"] ;
71 -> 72 ;
73 [label="X[14] <= 0.5\ngini = 0.086\nsamples = 169\nvalue = [255, 12]"] ;
71 -> 73 ;
74 [label="X[6] <= 0.5\ngini = 0.102\nsamples = 111\nvalue = [176, 10]"] ;
73 -> 74 ;
75 [label="X[20] <= 0.5\ngini = 0.108\nsamples = 105\nvalue = [165, 10]"] ;
74 -> 75 ;
76 [label="X[13] <= 0.5\ngini = 0.109\nsamples = 103\nvalue = [163, 10]"] ;
75 -> 76 ;
77 [label="X[12] <= 0.5\ngini = 0.083\nsamples = 15\nvalue = [22, 1]"] ;
76 -> 77 ;
78 [label="gini = 0.133\nsamples = 11\nvalue = [13, 1]"] ;
77 -> 78 ;
79 [label="gini = 0.0\nsamples = 4\nvalue = [9, 0]"] ;
77 -> 79 ;
80 [label="X[5] <= 0.5\ngini = 0.113\nsamples = 88\nvalue = [141, 9]"] ;
76 -> 80 ;
81 [label="gini = 0.114\nsamples = 87\nvalue = [140, 9]"] ;
80 -> 81 ;
82 [label="gini = 0.0\nsamples = 1\nvalue = [1, 0]"] ;
80 -> 82 ;
83 [label="gini = 0.0\nsamples = 2\nvalue = [2, 0]"] ;
75 -> 83 ;
84 [label="gini = 0.0\nsamples = 6\nvalue = [11, 0]"] ;
74 -> 84 ;
85 [label="X[6] <= 0.5\ngini = 0.048\nsamples = 58\nvalue = [79, 2]"] ;
73 -> 85 ;
86 [label="X[4] <= 0.5\ngini = 0.056\nsamples = 51\nvalue = [67, 2]"] ;
85 -> 86 ;
87 [label="gini = 0.0\nsamples = 1\nvalue = [3, 0]"] ;
86 -> 87 ;
88 [label="gini = 0.059\nsamples = 50\nvalue = [64, 2]"] ;
86 -> 88 ;
89 [label="gini = 0.0\nsamples = 7\nvalue = [12, 0]"] ;
85 -> 89 ;
90 [label="X[16] <= 0.5\ngini = 0.118\nsamples = 350\nvalue = [535, 36]"] ;
70 -> 90 ;
91 [label="X[6] <= 0.5\ngini = 0.089\nsamples = 342\nvalue = [529, 26]"] ;
90 -> 91 ;
92 [label="X[13] <= 0.5\ngini = 0.096\nsamples = 311\nvalue = [489, 26]"] ;
91 -> 92 ;
93 [label="X[5] <= 0.5\ngini = 0.034\nsamples = 167\nvalue = [284, 5]"] ;
92 -> 93 ;
94 [label="X[12] <= 0.5\ngini = 0.034\nsamples = 166\nvalue = [281, 5]"] ;
93 -> 94 ;
95 [label="X[15] <= 0.5\ngini = 0.033\nsamples = 134\nvalue = [233, 4]"] ;
94 -> 95 ;
96 [label="X[17] <= 0.5\ngini = 0.043\nsamples = 100\nvalue = [178, 4]"] ;
95 -> 96 ;
97 [label="gini = 0.0\nsamples = 2\nvalue = [3, 0]"] ;
96 -> 97 ;
98 [label="X[0] <= 0.5\ngini = 0.044\nsamples = 98\nvalue = [175, 4]"] ;
96 -> 98 ;
99 [label="gini = 0.0\nsamples = 1\nvalue = [1, 0]"] ;
98 -> 99 ;
100 [label="gini = 0.044\nsamples = 97\nvalue = [174, 4]"] ;
98 -> 100 ;
101 [label="gini = 0.0\nsamples = 34\nvalue = [55, 0]"] ;
95 -> 101 ;
102 [label="X[17] <= 0.5\ngini = 0.04\nsamples = 32\nvalue = [48, 1]"] ;
94 -> 102 ;
103 [label="gini = 0.0\nsamples = 6\nvalue = [10, 0]"] ;
102 -> 103 ;
104 [label="gini = 0.05\nsamples = 26\nvalue = [38, 1]"] ;
102 -> 104 ;
105 [label="gini = 0.0\nsamples = 1\nvalue = [3, 0]"] ;
93 -> 105 ;
106 [label="X[17] <= 0.5\ngini = 0.169\nsamples = 144\nvalue = [205, 21]"] ;
92 -> 106 ;
107 [label="gini = 0.305\nsamples = 10\nvalue = [13, 3]"] ;
106 -> 107 ;
108 [label="X[5] <= 0.5\ngini = 0.157\nsamples = 134\nvalue = [192, 18]"] ;
106 -> 108 ;
109 [label="gini = 0.158\nsamples = 133\nvalue = [190, 18]"] ;
108 -> 109 ;
110 [label="gini = 0.0\nsamples = 1\nvalue = [2, 0]"] ;
108 -> 110 ;
111 [label="gini = 0.0\nsamples = 31\nvalue = [40, 0]"] ;
91 -> 111 ;
112 [label="X[17] <= 0.5\ngini = 0.469\nsamples = 8\nvalue = [6, 10]"] ;
90 -> 112 ;
113 [label="gini = 0.0\nsamples = 1\nvalue = [2, 0]"] ;
112 -> 113 ;
114 [label="X[6] <= 0.5\ngini = 0.408\nsamples = 7\nvalue = [4, 10]"] ;
112 -> 114 ;
115 [label="gini = 0.444\nsamples = 6\nvalue = [4, 8]"] ;
114 -> 115 ;
116 [label="gini = 0.0\nsamples = 1\nvalue = [0, 2]"] ;
114 -> 116 ;
117 [label="gini = 0.0\nsamples = 11\nvalue = [16, 0]"] ;
1 -> 117 ;
118 [label="X[21] <= 0.5\ngini = 0.36\nsamples = 4510\nvalue = [1693, 5496]"] ;
0 -> 118 [labeldistance=2.5, labelangle=-45, headlabel="False"] ;
119 [label="X[20] <= 0.5\ngini = 0.34\nsamples = 4259\nvalue = [1470, 5309]"] ;
118 -> 119 ;
120 [label="X[19] <= 0.5\ngini = 0.382\nsamples = 1542\nvalue = [639, 1851]"] ;
119 -> 120 ;
121 [label="X[22] <= 0.5\ngini = 0.103\nsamples = 257\nvalue = [23, 398]"] ;
120 -> 121 ;
122 [label="X[6] <= 0.5\ngini = 0.116\nsamples = 217\nvalue = [22, 334]"] ;
121 -> 122 ;
123 [label="X[13] <= 0.5\ngini = 0.13\nsamples = 178\nvalue = [20, 267]"] ;
122 -> 123 ;
124 [label="X[5] <= 0.5\ngini = 0.073\nsamples = 111\nvalue = [7, 177]"] ;
123 -> 124 ;
125 [label="X[3] <= 0.5\ngini = 0.075\nsamples = 108\nvalue = [7, 173]"] ;
124 -> 125 ;
126 [label="X[12] <= 0.5\ngini = 0.076\nsamples = 105\nvalue = [7, 169]"] ;
125 -> 126 ;
127 [label="X[23] <= 0.5\ngini = 0.077\nsamples = 104\nvalue = [7, 167]"] ;
126 -> 127 ;
128 [label="X[14] <= 0.5\ngini = 0.255\nsamples = 14\nvalue = [3, 17]"] ;
127 -> 128 ;
129 [label="X[15] <= 0.5\ngini = 0.165\nsamples = 7\nvalue = [1, 10]"] ;
128 -> 129 ;
130 [label="gini = 0.0\nsamples = 6\nvalue = [0, 10]"] ;
129 -> 130 ;
131 [label="gini = 0.0\nsamples = 1\nvalue = [1, 0]"] ;
129 -> 131 ;
132 [label="gini = 0.346\nsamples = 7\nvalue = [2, 7]"] ;
128 -> 132 ;
133 [label="X[0] <= 0.5\ngini = 0.051\nsamples = 90\nvalue = [4, 150]"] ;
127 -> 133 ;
134 [label="gini = 0.0\nsamples = 1\nvalue = [0, 2]"] ;
133 -> 134 ;
135 [label="X[15] <= 0.5\ngini = 0.051\nsamples = 89\nvalue = [4, 148]"] ;
133 -> 135 ;
136 [label="gini = 0.062\nsamples = 71\nvalue = [4, 121]"] ;
135 -> 136 ;
137 [label="gini = 0.0\nsamples = 18\nvalue = [0, 27]"] ;
135 -> 137 ;
138 [label="gini = 0.0\nsamples = 1\nvalue = [0, 2]"] ;
126 -> 138 ;
139 [label="gini = 0.0\nsamples = 3\nvalue = [0, 4]"] ;
125 -> 139 ;
140 [label="gini = 0.0\nsamples = 3\nvalue = [0, 4]"] ;
124 -> 140 ;
141 [label="X[1] <= 0.5\ngini = 0.221\nsamples = 67\nvalue = [13, 90]"] ;
123 -> 141 ;
142 [label="X[23] <= 0.5\ngini = 0.224\nsamples = 65\nvalue = [13, 88]"] ;
141 -> 142 ;
143 [label="gini = 0.0\nsamples = 8\nvalue = [0, 15]"] ;
142 -> 143 ;
144 [label="X[7] <= 0.5\ngini = 0.257\nsamples = 57\nvalue = [13, 73]"] ;
142 -> 144 ;
145 [label="gini = 0.262\nsamples = 55\nvalue = [13, 71]"] ;
144 -> 145 ;
146 [label="gini = 0.0\nsamples = 2\nvalue = [0, 2]"] ;
144 -> 146 ;
147 [label="gini = 0.0\nsamples = 2\nvalue = [0, 2]"] ;
141 -> 147 ;
148 [label="X[13] <= 0.5\ngini = 0.056\nsamples = 39\nvalue = [2, 67]"] ;
122 -> 148 ;
149 [label="gini = 0.0\nsamples = 22\nvalue = [0, 40]"] ;
148 -> 149 ;
150 [label="X[2] <= 0.5\ngini = 0.128\nsamples = 17\nvalue = [2, 27]"] ;
148 -> 150 ;
151 [label="gini = 0.0\nsamples = 6\nvalue = [0, 10]"] ;
150 -> 151 ;
152 [label="gini = 0.188\nsamples = 11\nvalue = [2, 17]"] ;
150 -> 152 ;
153 [label="X[0] <= 0.5\ngini = 0.03\nsamples = 40\nvalue = [1, 64]"] ;
121 -> 153 ;
154 [label="gini = 0.0\nsamples = 6\nvalue = [0, 12]"] ;
153 -> 154 ;
155 [label="X[15] <= 0.5\ngini = 0.037\nsamples = 34\nvalue = [1, 52]"] ;
153 -> 155 ;
156 [label="X[4] <= 0.5\ngini = 0.038\nsamples = 33\nvalue = [1, 50]"] ;
155 -> 156 ;
157 [label="gini = 0.0\nsamples = 3\nvalue = [0, 3]"] ;
156 -> 157 ;
158 [label="X[13] <= 0.5\ngini = 0.041\nsamples = 30\nvalue = [1, 47]"] ;
156 -> 158 ;
159 [label="gini = 0.0\nsamples = 17\nvalue = [0, 30]"] ;
158 -> 159 ;
160 [label="gini = 0.105\nsamples = 13\nvalue = [1, 17]"] ;
158 -> 160 ;
161 [label="gini = 0.0\nsamples = 1\nvalue = [0, 2]"] ;
155 -> 161 ;
162 [label="X[16] <= 0.5\ngini = 0.418\nsamples = 1285\nvalue = [616, 1453]"] ;
120 -> 162 ;
163 [label="X[14] <= 0.5\ngini = 0.443\nsamples = 1124\nvalue = [599, 1208]"] ;
162 -> 163 ;
164 [label="X[15] <= 0.5\ngini = 0.437\nsamples = 896\nvalue = [459, 965]"] ;
163 -> 164 ;
165 [label="X[24] <= 0.5\ngini = 0.409\nsamples = 740\nvalue = [339, 844]"] ;
164 -> 165 ;
166 [label="X[12] <= 0.5\ngini = 0.117\nsamples = 10\nvalue = [1, 15]"] ;
165 -> 166 ;
167 [label="gini = 0.0\nsamples = 8\nvalue = [0, 14]"] ;
166 -> 167 ;
168 [label="X[23] <= 0.5\ngini = 0.5\nsamples = 2\nvalue = [1, 1]"] ;
166 -> 168 ;
169 [label="gini = 0.0\nsamples = 1\nvalue = [0, 1]"] ;
168 -> 169 ;
170 [label="gini = 0.0\nsamples = 1\nvalue = [1, 0]"] ;
168 -> 170 ;
171 [label="X[12] <= 0.5\ngini = 0.411\nsamples = 730\nvalue = [338, 829]"] ;
165 -> 171 ;
172 [label="X[4] <= 0.5\ngini = 0.437\nsamples = 428\nvalue = [221, 464]"] ;
171 -> 172 ;
173 [label="X[7] <= 0.5\ngini = 0.385\nsamples = 84\nvalue = [37, 105]"] ;
172 -> 173 ;
174 [label="X[2] <= 0.5\ngini = 0.377\nsamples = 71\nvalue = [31, 92]"] ;
173 -> 174 ;
175 [label="X[5] <= 0.5\ngini = 0.408\nsamples = 33\nvalue = [16, 40]"] ;
174 -> 175 ;
176 [label="X[1] <= 0.5\ngini = 0.418\nsamples = 29\nvalue = [14, 33]"] ;
175 -> 176 ;
177 [label="X[0] <= 0.5\ngini = 0.429\nsamples = 28\nvalue = [14, 31]"] ;
176 -> 177 ;
178 [label="gini = 0.42\nsamples = 5\nvalue = [3, 7]"] ;
177 -> 178 ;
179 [label="gini = 0.431\nsamples = 23\nvalue = [11, 24]"] ;
177 -> 179 ;
180 [label="gini = 0.0\nsamples = 1\nvalue = [0, 2]"] ;
176 -> 180 ;
181 [label="X[1] <= 0.5\ngini = 0.346\nsamples = 4\nvalue = [2, 7]"] ;
175 -> 181 ;
182 [label="gini = 0.0\nsamples = 3\nvalue = [0, 7]"] ;
181 -> 182 ;
183 [label="gini = 0.0\nsamples = 1\nvalue = [2, 0]"] ;
181 -> 183 ;
184 [label="gini = 0.348\nsamples = 38\nvalue = [15, 52]"] ;
174 -> 184 ;
185 [label="X[2] <= 0.5\ngini = 0.432\nsamples = 13\nvalue = [6, 13]"] ;
173 -> 185 ;
186 [label="X[0] <= 0.5\ngini = 0.401\nsamples = 12\nvalue = [5, 13]"] ;
185 -> 186 ;
187 [label="X[3] <= 0.5\ngini = 0.355\nsamples = 9\nvalue = [3, 10]"] ;
186 -> 187 ;
188 [label="gini = 0.0\nsamples = 1\nvalue = [0, 1]"] ;
187 -> 188 ;
189 [label="gini = 0.375\nsamples = 8\nvalue = [3, 9]"] ;
187 -> 189 ;
190 [label="gini = 0.48\nsamples = 3\nvalue = [2, 3]"] ;
186 -> 190 ;
191 [label="gini = 0.0\nsamples = 1\nvalue = [1, 0]"] ;
185 -> 191 ;
192 [label="gini = 0.448\nsamples = 344\nvalue = [184, 359]"] ;
172 -> 192 ;
193 [label="X[3] <= 0.5\ngini = 0.368\nsamples = 302\nvalue = [117, 365]"] ;
171 -> 193 ;
194 [label="X[1] <= 0.5\ngini = 0.371\nsamples = 295\nvalue = [115, 352]"] ;
193 -> 194 ;
195 [label="X[4] <= 0.5\ngini = 0.369\nsamples = 293\nvalue = [113, 350]"] ;
194 -> 195 ;
196 [label="X[6] <= 0.5\ngini = 0.378\nsamples = 49\nvalue = [20, 59]"] ;
195 -> 196 ;
197 [label="gini = 0.0\nsamples = 4\nvalue = [8, 0]"] ;
196 -> 197 ;
198 [label="X[2] <= 0.5\ngini = 0.281\nsamples = 45\nvalue = [12, 59]"] ;
196 -> 198 ;
199 [label="gini = 0.366\nsamples = 18\nvalue = [7, 22]"] ;
198 -> 199 ;
200 [label="gini = 0.21\nsamples = 27\nvalue = [5, 37]"] ;
198 -> 200 ;
201 [label="gini = 0.367\nsamples = 244\nvalue = [93, 291]"] ;
195 -> 201 ;
202 [label="gini = 0.5\nsamples = 2\nvalue = [2, 2]"] ;
194 -> 202 ;
203 [label="gini = 0.231\nsamples = 7\nvalue = [2, 13]"] ;
193 -> 203 ;
204 [label="X[4] <= 0.5\ngini = 0.5\nsamples = 156\nvalue = [120, 121]"] ;
164 -> 204 ;
205 [label="X[2] <= 0.5\ngini = 0.5\nsamples = 26\nvalue = [21, 20]"] ;
204 -> 205 ;
206 [label="X[3] <= 0.5\ngini = 0.493\nsamples = 15\nvalue = [11, 14]"] ;
205 -> 206 ;
207 [label="X[6] <= 0.5\ngini = 0.488\nsamples = 12\nvalue = [8, 11]"] ;
206 -> 207 ;
208 [label="gini = 0.0\nsamples = 1\nvalue = [0, 1]"] ;
207 -> 208 ;
209 [label="gini = 0.494\nsamples = 11\nvalue = [8, 10]"] ;
207 -> 209 ;
210 [label="gini = 0.5\nsamples = 3\nvalue = [3, 3]"] ;
206 -> 210 ;
211 [label="X[23] <= 0.5\ngini = 0.469\nsamples = 11\nvalue = [10, 6]"] ;
205 -> 211 ;
212 [label="gini = 0.408\nsamples = 10\nvalue = [10, 4]"] ;
211 -> 212 ;
213 [label="gini = 0.0\nsamples = 1\nvalue = [0, 2]"] ;
211 -> 213 ;
214 [label="X[23] <= 0.5\ngini = 0.5\nsamples = 130\nvalue = [99, 101]"] ;
204 -> 214 ;
215 [label="X[22] <= 0.5\ngini = 0.5\nsamples = 127\nvalue = [95, 97]"] ;
214 -> 215 ;
216 [label="gini = 0.5\nsamples = 126\nvalue = [95, 96]"] ;
215 -> 216 ;
217 [label="gini = 0.0\nsamples = 1\nvalue = [0, 1]"] ;
215 -> 217 ;
218 [label="gini = 0.5\nsamples = 3\nvalue = [4, 4]"] ;
214 -> 218 ;
219 [label="X[6] <= 0.5\ngini = 0.464\nsamples = 228\nvalue = [140, 243]"] ;
163 -> 219 ;
220 [label="X[23] <= 0.5\ngini = 0.449\nsamples = 196\nvalue = [112, 217]"] ;
219 -> 220 ;
221 [label="X[5] <= 0.5\ngini = 0.435\nsamples = 185\nvalue = [98, 208]"] ;
220 -> 221 ;
222 [label="X[1] <= 0.5\ngini = 0.425\nsamples = 181\nvalue = [91, 206]"] ;
221 -> 222 ;
223 [label="X[7] <= 0.5\ngini = 0.421\nsamples = 177\nvalue = [87, 202]"] ;
222 -> 223 ;
224 [label="X[22] <= 0.5\ngini = 0.415\nsamples = 169\nvalue = [81, 195]"] ;
223 -> 224 ;
225 [label="gini = 0.417\nsamples = 161\nvalue = [78, 185]"] ;
224 -> 225 ;
226 [label="gini = 0.355\nsamples = 8\nvalue = [3, 10]"] ;
224 -> 226 ;
227 [label="X[0] <= 0.5\ngini = 0.497\nsamples = 8\nvalue = [6, 7]"] ;
223 -> 227 ;
228 [label="gini = 0.494\nsamples = 5\nvalue = [4, 5]"] ;
227 -> 228 ;
229 [label="gini = 0.5\nsamples = 3\nvalue = [2, 2]"] ;
227 -> 229 ;
230 [label="gini = 0.5\nsamples = 4\nvalue = [4, 4]"] ;
222 -> 230 ;
231 [label="X[1] <= 0.5\ngini = 0.346\nsamples = 4\nvalue = [7, 2]"] ;
221 -> 231 ;
232 [label="gini = 0.0\nsamples = 1\nvalue = [2, 0]"] ;
231 -> 232 ;
233 [label="gini = 0.408\nsamples = 3\nvalue = [5, 2]"] ;
231 -> 233 ;
234 [label="X[4] <= 0.5\ngini = 0.476\nsamples = 11\nvalue = [14, 9]"] ;
220 -> 234 ;
235 [label="gini = 0.0\nsamples = 1\nvalue = [0, 1]"] ;
234 -> 235 ;
236 [label="gini = 0.463\nsamples = 10\nvalue = [14, 8]"] ;
234 -> 236 ;
237 [label="X[1] <= 0.5\ngini = 0.499\nsamples = 32\nvalue = [28, 26]"] ;
219 -> 237 ;
238 [label="X[2] <= 0.5\ngini = 0.499\nsamples = 30\nvalue = [26, 24]"] ;
237 -> 238 ;
239 [label="X[0] <= 0.5\ngini = 0.49\nsamples = 14\nvalue = [12, 9]"] ;
238 -> 239 ;
240 [label="gini = 0.0\nsamples = 1\nvalue = [3, 0]"] ;
239 -> 240 ;
241 [label="X[23] <= 0.5\ngini = 0.5\nsamples = 13\nvalue = [9, 9]"] ;
239 -> 241 ;
242 [label="gini = 0.498\nsamples = 12\nvalue = [9, 8]"] ;
241 -> 242 ;
243 [label="gini = 0.0\nsamples = 1\nvalue = [0, 1]"] ;
241 -> 243 ;
244 [label="gini = 0.499\nsamples = 16\nvalue = [14, 15]"] ;
238 -> 244 ;
245 [label="gini = 0.5\nsamples = 2\nvalue = [2, 2]"] ;
237 -> 245 ;
246 [label="X[4] <= 0.5\ngini = 0.121\nsamples = 161\nvalue = [17, 245]"] ;
162 -> 246 ;
247 [label="X[1] <= 0.5\ngini = 0.087\nsamples = 41\nvalue = [3, 63]"] ;
246 -> 247 ;
248 [label="X[6] <= 0.5\ngini = 0.088\nsamples = 40\nvalue = [3, 62]"] ;
247 -> 248 ;
249 [label="X[3] <= 0.5\ngini = 0.198\nsamples = 13\nvalue = [2, 16]"] ;
248 -> 249 ;
250 [label="gini = 0.0\nsamples = 7\nvalue = [0, 9]"] ;
249 -> 250 ;
251 [label="gini = 0.346\nsamples = 6\nvalue = [2, 7]"] ;
249 -> 251 ;
252 [label="X[2] <= 0.5\ngini = 0.042\nsamples = 27\nvalue = [1, 46]"] ;
248 -> 252 ;
253 [label="gini = 0.0\nsamples = 7\nvalue = [0, 12]"] ;
252 -> 253 ;
254 [label="gini = 0.056\nsamples = 20\nvalue = [1, 34]"] ;
252 -> 254 ;
255 [label="gini = 0.0\nsamples = 1\nvalue = [0, 1]"] ;
247 -> 255 ;
256 [label="X[23] <= 0.5\ngini = 0.133\nsamples = 120\nvalue = [14, 182]"] ;
246 -> 256 ;
257 [label="gini = 0.134\nsamples = 119\nvalue = [14, 180]"] ;
256 -> 257 ;
258 [label="gini = 0.0\nsamples = 1\nvalue = [0, 2]"] ;
256 -> 258 ;
259 [label="X[1] <= 0.5\ngini = 0.312\nsamples = 2717\nvalue = [831, 3458]"] ;
119 -> 259 ;
260 [label="X[23] <= 0.5\ngini = 0.311\nsamples = 2691\nvalue = [818, 3431]"] ;
259 -> 260 ;
261 [label="X[14] <= 0.5\ngini = 0.362\nsamples = 899\nvalue = [345, 1111]"] ;
260 -> 261 ;
262 [label="X[2] <= 0.5\ngini = 0.385\nsamples = 624\nvalue = [256, 728]"] ;
261 -> 262 ;
263 [label="X[0] <= 0.5\ngini = 0.394\nsamples = 562\nvalue = [238, 645]"] ;
262 -> 263 ;
264 [label="X[16] <= 0.5\ngini = 0.153\nsamples = 8\nvalue = [1, 11]"] ;
263 -> 264 ;
265 [label="X[7] <= 0.5\ngini = 0.18\nsamples = 7\nvalue = [1, 9]"] ;
264 -> 265 ;
266 [label="gini = 0.0\nsamples = 1\nvalue = [0, 2]"] ;
265 -> 266 ;
267 [label="X[15] <= 0.5\ngini = 0.219\nsamples = 6\nvalue = [1, 7]"] ;
265 -> 267 ;
268 [label="gini = 0.0\nsamples = 5\nvalue = [0, 7]"] ;
267 -> 268 ;
269 [label="gini = 0.0\nsamples = 1\nvalue = [1, 0]"] ;
267 -> 269 ;
270 [label="gini = 0.0\nsamples = 1\nvalue = [0, 2]"] ;
264 -> 270 ;
271 [label="X[16] <= 0.5\ngini = 0.396\nsamples = 554\nvalue = [237, 634]"] ;
263 -> 271 ;
272 [label="X[12] <= 0.5\ngini = 0.43\nsamples = 452\nvalue = [228, 501]"] ;
271 -> 272 ;
273 [label="X[24] <= 0.5\ngini = 0.437\nsamples = 416\nvalue = [215, 452]"] ;
272 -> 273 ;
274 [label="X[4] <= 0.5\ngini = 0.349\nsamples = 245\nvalue = [89, 306]"] ;
273 -> 274 ;
275 [label="X[13] <= 0.5\ngini = 0.453\nsamples = 17\nvalue = [9, 17]"] ;
274 -> 275 ;
276 [label="gini = 0.0\nsamples = 3\nvalue = [0, 3]"] ;
275 -> 276 ;
277 [label="gini = 0.476\nsamples = 14\nvalue = [9, 14]"] ;
275 -> 277 ;
278 [label="X[13] <= 0.5\ngini = 0.34\nsamples = 228\nvalue = [80, 289]"] ;
274 -> 278 ;
279 [label="gini = 0.35\nsamples = 98\nvalue = [36, 123]"] ;
278 -> 279 ;
280 [label="gini = 0.331\nsamples = 130\nvalue = [44, 166]"] ;
278 -> 280 ;
281 [label="X[7] <= 0.5\ngini = 0.497\nsamples = 171\nvalue = [126, 146]"] ;
273 -> 281 ;
282 [label="X[6] <= 0.5\ngini = 0.498\nsamples = 168\nvalue = [125, 142]"] ;
281 -> 282 ;
283 [label="X[4] <= 0.5\ngini = 0.497\nsamples = 159\nvalue = [117, 135]"] ;
282 -> 283 ;
284 [label="X[13] <= 0.5\ngini = 0.5\nsamples = 2\nvalue = [1, 1]"] ;
283 -> 284 ;
285 [label="gini = 0.0\nsamples = 1\nvalue = [0, 1]"] ;
284 -> 285 ;
286 [label="gini = 0.0\nsamples = 1\nvalue = [1, 0]"] ;
284 -> 286 ;
287 [label="X[13] <= 0.5\ngini = 0.497\nsamples = 157\nvalue = [116, 134]"] ;
283 -> 287 ;
288 [label="gini = 0.497\nsamples = 51\nvalue = [46, 39]"] ;
287 -> 288 ;
289 [label="gini = 0.489\nsamples = 106\nvalue = [70, 95]"] ;
287 -> 289 ;
290 [label="X[15] <= 0.5\ngini = 0.498\nsamples = 9\nvalue = [8, 7]"] ;
282 -> 290 ;
291 [label="gini = 0.496\nsamples = 7\nvalue = [6, 5]"] ;
290 -> 291 ;
292 [label="gini = 0.5\nsamples = 2\nvalue = [2, 2]"] ;
290 -> 292 ;
293 [label="X[15] <= 0.5\ngini = 0.32\nsamples = 3\nvalue = [1, 4]"] ;
281 -> 293 ;
294 [label="gini = 0.0\nsamples = 2\nvalue = [0, 4]"] ;
293 -> 294 ;
295 [label="gini = 0.0\nsamples = 1\nvalue = [1, 0]"] ;
293 -> 295 ;
296 [label="X[24] <= 0.5\ngini = 0.331\nsamples = 36\nvalue = [13, 49]"] ;
272 -> 296 ;
297 [label="X[6] <= 0.5\ngini = 0.17\nsamples = 19\nvalue = [3, 29]"] ;
296 -> 297 ;
298 [label="gini = 0.191\nsamples = 18\nvalue = [3, 25]"] ;
297 -> 298 ;
299 [label="gini = 0.0\nsamples = 1\nvalue = [0, 4]"] ;
297 -> 299 ;
300 [label="gini = 0.444\nsamples = 17\nvalue = [10, 20]"] ;
296 -> 300 ;
301 [label="X[6] <= 0.5\ngini = 0.119\nsamples = 102\nvalue = [9, 133]"] ;
271 -> 301 ;
302 [label="X[24] <= 0.5\ngini = 0.127\nsamples = 94\nvalue = [9, 123]"] ;
301 -> 302 ;
303 [label="gini = 0.0\nsamples = 4\nvalue = [0, 5]"] ;
302 -> 303 ;
304 [label="gini = 0.132\nsamples = 90\nvalue = [9, 118]"] ;
302 -> 304 ;
305 [label="gini = 0.0\nsamples = 8\nvalue = [0, 10]"] ;
301 -> 305 ;
306 [label="X[16] <= 0.5\ngini = 0.293\nsamples = 62\nvalue = [18, 83]"] ;
262 -> 306 ;
307 [label="X[12] <= 0.5\ngini = 0.365\nsamples = 45\nvalue = [18, 57]"] ;
306 -> 307 ;
308 [label="X[22] <= 0.5\ngini = 0.378\nsamples = 43\nvalue = [18, 53]"] ;
307 -> 308 ;
309 [label="X[15] <= 0.5\ngini = 0.467\nsamples = 18\nvalue = [13, 22]"] ;
308 -> 309 ;
310 [label="gini = 0.255\nsamples = 11\nvalue = [3, 17]"] ;
309 -> 310 ;
311 [label="gini = 0.444\nsamples = 7\nvalue = [10, 5]"] ;
309 -> 311 ;
312 [label="X[13] <= 0.5\ngini = 0.239\nsamples = 25\nvalue = [5, 31]"] ;
308 -> 312 ;
313 [label="gini = 0.153\nsamples = 9\nvalue = [1, 11]"] ;
312 -> 313 ;
314 [label="gini = 0.278\nsamples = 16\nvalue = [4, 20]"] ;
312 -> 314 ;
315 [label="gini = 0.0\nsamples = 2\nvalue = [0, 4]"] ;
307 -> 315 ;
316 [label="gini = 0.0\nsamples = 17\nvalue = [0, 26]"] ;
306 -> 316 ;
317 [label="X[0] <= 0.5\ngini = 0.306\nsamples = 275\nvalue = [89, 383]"] ;
261 -> 317 ;
318 [label="X[22] <= 0.5\ngini = 0.475\nsamples = 34\nvalue = [24, 38]"] ;
317 -> 318 ;
319 [label="X[3] <= 0.5\ngini = 0.495\nsamples = 16\nvalue = [17, 14]"] ;
318 -> 319 ;
320 [label="X[6] <= 0.5\ngini = 0.5\nsamples = 14\nvalue = [14, 14]"] ;
319 -> 320 ;
321 [label="gini = 0.375\nsamples = 2\nvalue = [1, 3]"] ;
320 -> 321 ;
322 [label="gini = 0.497\nsamples = 12\nvalue = [13, 11]"] ;
320 -> 322 ;
323 [label="gini = 0.0\nsamples = 2\nvalue = [3, 0]"] ;
319 -> 323 ;
324 [label="X[2] <= 0.5\ngini = 0.35\nsamples = 18\nvalue = [7, 24]"] ;
318 -> 324 ;
325 [label="gini = 0.0\nsamples = 3\nvalue = [0, 7]"] ;
324 -> 325 ;
326 [label="gini = 0.413\nsamples = 15\nvalue = [7, 17]"] ;
324 -> 326 ;
327 [label="X[24] <= 0.5\ngini = 0.267\nsamples = 241\nvalue = [65, 345]"] ;
317 -> 327 ;
328 [label="X[7] <= 0.5\ngini = 0.214\nsamples = 180\nvalue = [37, 267]"] ;
327 -> 328 ;
329 [label="X[4] <= 0.5\ngini = 0.214\nsamples = 179\nvalue = [37, 266]"] ;
328 -> 329 ;
330 [label="gini = 0.159\nsamples = 12\nvalue = [2, 21]"] ;
329 -> 330 ;
331 [label="gini = 0.219\nsamples = 167\nvalue = [35, 245]"] ;
329 -> 331 ;
332 [label="gini = 0.0\nsamples = 1\nvalue = [0, 1]"] ;
328 -> 332 ;
333 [label="X[4] <= 0.5\ngini = 0.389\nsamples = 61\nvalue = [28, 78]"] ;
327 -> 333 ;
334 [label="X[5] <= 0.5\ngini = 0.484\nsamples = 11\nvalue = [7, 10]"] ;
333 -> 334 ;
335 [label="X[6] <= 0.5\ngini = 0.444\nsamples = 10\nvalue = [5, 10]"] ;
334 -> 335 ;
336 [label="gini = 0.0\nsamples = 1\nvalue = [0, 1]"] ;
335 -> 336 ;
337 [label="gini = 0.459\nsamples = 9\nvalue = [5, 9]"] ;
335 -> 337 ;
338 [label="gini = 0.0\nsamples = 1\nvalue = [2, 0]"] ;
334 -> 338 ;
339 [label="gini = 0.361\nsamples = 50\nvalue = [21, 68]"] ;
333 -> 339 ;
340 [label="X[13] <= 0.5\ngini = 0.281\nsamples = 1792\nvalue = [473, 2320]"] ;
260 -> 340 ;
341 [label="X[14] <= 0.5\ngini = 0.296\nsamples = 1102\nvalue = [316, 1434]"] ;
340 -> 341 ;
342 [label="X[16] <= 0.5\ngini = 0.291\nsamples = 384\nvalue = [112, 521]"] ;
341 -> 342 ;
343 [label="X[0] <= 0.5\ngini = 0.296\nsamples = 374\nvalue = [112, 507]"] ;
342 -> 343 ;
344 [label="X[12] <= 0.5\ngini = 0.248\nsamples = 39\nvalue = [10, 59]"] ;
343 -> 344 ;
345 [label="X[3] <= 0.5\ngini = 0.271\nsamples = 35\nvalue = [10, 52]"] ;
344 -> 345 ;
346 [label="gini = 0.208\nsamples = 30\nvalue = [6, 45]"] ;
345 -> 346 ;
347 [label="X[7] <= 0.5\ngini = 0.463\nsamples = 5\nvalue = [4, 7]"] ;
345 -> 347 ;
348 [label="gini = 0.0\nsamples = 2\nvalue = [0, 4]"] ;
347 -> 348 ;
349 [label="gini = 0.49\nsamples = 3\nvalue = [4, 3]"] ;
347 -> 349 ;
350 [label="gini = 0.0\nsamples = 4\nvalue = [0, 7]"] ;
344 -> 350 ;
351 [label="X[5] <= 0.5\ngini = 0.302\nsamples = 335\nvalue = [102, 448]"] ;
343 -> 351 ;
352 [label="X[6] <= 0.5\ngini = 0.301\nsamples = 333\nvalue = [101, 446]"] ;
351 -> 352 ;
353 [label="X[4] <= 0.5\ngini = 0.292\nsamples = 308\nvalue = [90, 417]"] ;
352 -> 353 ;
354 [label="gini = 0.0\nsamples = 2\nvalue = [0, 4]"] ;
353 -> 354 ;
355 [label="X[15] <= 0.5\ngini = 0.294\nsamples = 306\nvalue = [90, 413]"] ;
353 -> 355 ;
356 [label="gini = 0.308\nsamples = 39\nvalue = [12, 51]"] ;
355 -> 356 ;
357 [label="gini = 0.292\nsamples = 267\nvalue = [78, 362]"] ;
355 -> 357 ;
358 [label="X[12] <= 0.5\ngini = 0.399\nsamples = 25\nvalue = [11, 29]"] ;
352 -> 358 ;
359 [label="gini = 0.412\nsamples = 20\nvalue = [9, 22]"] ;
358 -> 359 ;
360 [label="gini = 0.346\nsamples = 5\nvalue = [2, 7]"] ;
358 -> 360 ;
361 [label="gini = 0.444\nsamples = 2\nvalue = [1, 2]"] ;
351 -> 361 ;
362 [label="gini = 0.0\nsamples = 10\nvalue = [0, 14]"] ;
342 -> 362 ;
363 [label="X[2] <= 0.5\ngini = 0.299\nsamples = 718\nvalue = [204, 913]"] ;
341 -> 363 ;
364 [label="X[4] <= 0.5\ngini = 0.294\nsamples = 630\nvalue = [176, 807]"] ;
363 -> 364 ;
365 [label="X[6] <= 0.5\ngini = 0.395\nsamples = 72\nvalue = [29, 78]"] ;
364 -> 365 ;
366 [label="X[0] <= 0.5\ngini = 0.459\nsamples = 20\nvalue = [10, 18]"] ;
365 -> 366 ;
367 [label="gini = 0.415\nsamples = 12\nvalue = [5, 12]"] ;
366 -> 367 ;
368 [label="X[5] <= 0.5\ngini = 0.496\nsamples = 8\nvalue = [5, 6]"] ;
366 -> 368 ;
369 [label="gini = 0.469\nsamples = 6\nvalue = [5, 3]"] ;
368 -> 369 ;
370 [label="gini = 0.0\nsamples = 2\nvalue = [0, 3]"] ;
368 -> 370 ;
371 [label="X[3] <= 0.5\ngini = 0.365\nsamples = 52\nvalue = [19, 60]"] ;
365 -> 371 ;
372 [label="gini = 0.353\nsamples = 46\nvalue = [16, 54]"] ;
371 -> 372 ;
373 [label="gini = 0.444\nsamples = 6\nvalue = [3, 6]"] ;
371 -> 373 ;
374 [label="gini = 0.279\nsamples = 558\nvalue = [147, 729]"] ;
364 -> 374 ;
375 [label="X[7] <= 0.5\ngini = 0.331\nsamples = 88\nvalue = [28, 106]"] ;
363 -> 375 ;
376 [label="gini = 0.334\nsamples = 87\nvalue = [28, 104]"] ;
375 -> 376 ;
377 [label="gini = 0.0\nsamples = 1\nvalue = [0, 2]"] ;
375 -> 377 ;
378 [label="X[4] <= 0.5\ngini = 0.256\nsamples = 690\nvalue = [157, 886]"] ;
340 -> 378 ;
379 [label="X[2] <= 0.5\ngini = 0.314\nsamples = 137\nvalue = [42, 173]"] ;
378 -> 379 ;
380 [label="X[6] <= 0.5\ngini = 0.359\nsamples = 61\nvalue = [22, 72]"] ;
379 -> 380 ;
381 [label="X[7] <= 0.5\ngini = 0.417\nsamples = 17\nvalue = [8, 19]"] ;
380 -> 381 ;
382 [label="gini = 0.375\nsamples = 3\nvalue = [1, 3]"] ;
381 -> 382 ;
383 [label="X[0] <= 0.5\ngini = 0.423\nsamples = 14\nvalue = [7, 16]"] ;
381 -> 383 ;
384 [label="gini = 0.388\nsamples = 12\nvalue = [5, 14]"] ;
383 -> 384 ;
385 [label="gini = 0.5\nsamples = 2\nvalue = [2, 2]"] ;
383 -> 385 ;
386 [label="X[0] <= 0.5\ngini = 0.331\nsamples = 44\nvalue = [14, 53]"] ;
380 -> 386 ;
387 [label="gini = 0.0\nsamples = 3\nvalue = [0, 6]"] ;
386 -> 387 ;
388 [label="gini = 0.354\nsamples = 41\nvalue = [14, 47]"] ;
386 -> 388 ;
389 [label="X[7] <= 0.5\ngini = 0.276\nsamples = 76\nvalue = [20, 101]"] ;
379 -> 389 ;
390 [label="gini = 0.28\nsamples = 75\nvalue = [20, 99]"] ;
389 -> 390 ;
391 [label="gini = 0.0\nsamples = 1\nvalue = [0, 2]"] ;
389 -> 391 ;
392 [label="gini = 0.239\nsamples = 553\nvalue = [115, 713]"] ;
378 -> 392 ;
393 [label="X[23] <= 0.5\ngini = 0.439\nsamples = 26\nvalue = [13, 27]"] ;
259 -> 393 ;
394 [label="X[4] <= 0.5\ngini = 0.48\nsamples = 15\nvalue = [8, 12]"] ;
393 -> 394 ;
395 [label="X[13] <= 0.5\ngini = 0.459\nsamples = 11\nvalue = [5, 9]"] ;
394 -> 395 ;
396 [label="X[14] <= 0.5\ngini = 0.444\nsamples = 9\nvalue = [4, 8]"] ;
395 -> 396 ;
397 [label="X[5] <= 0.5\ngini = 0.219\nsamples = 6\nvalue = [1, 7]"] ;
396 -> 397 ;
398 [label="gini = 0.0\nsamples = 4\nvalue = [0, 6]"] ;
397 -> 398 ;
399 [label="gini = 0.5\nsamples = 2\nvalue = [1, 1]"] ;
397 -> 399 ;
400 [label="X[6] <= 0.5\ngini = 0.375\nsamples = 3\nvalue = [3, 1]"] ;
396 -> 400 ;
401 [label="gini = 0.0\nsamples = 2\nvalue = [3, 0]"] ;
400 -> 401 ;
402 [label="gini = 0.0\nsamples = 1\nvalue = [0, 1]"] ;
400 -> 402 ;
403 [label="gini = 0.5\nsamples = 2\nvalue = [1, 1]"] ;
395 -> 403 ;
404 [label="X[22] <= 0.5\ngini = 0.5\nsamples = 4\nvalue = [3, 3]"] ;
394 -> 404 ;
405 [label="gini = 0.0\nsamples = 2\nvalue = [0, 3]"] ;
404 -> 405 ;
406 [label="gini = 0.0\nsamples = 2\nvalue = [3, 0]"] ;
404 -> 406 ;
407 [label="X[6] <= 0.5\ngini = 0.375\nsamples = 11\nvalue = [5, 15]"] ;
393 -> 407 ;
408 [label="X[14] <= 0.5\ngini = 0.444\nsamples = 8\nvalue = [5, 10]"] ;
407 -> 408 ;
409 [label="X[5] <= 0.5\ngini = 0.298\nsamples = 5\nvalue = [2, 9]"] ;
408 -> 409 ;
410 [label="gini = 0.375\nsamples = 4\nvalue = [2, 6]"] ;
409 -> 410 ;
411 [label="gini = 0.0\nsamples = 1\nvalue = [0, 3]"] ;
409 -> 411 ;
412 [label="X[7] <= 0.5\ngini = 0.375\nsamples = 3\nvalue = [3, 1]"] ;
408 -> 412 ;
413 [label="gini = 0.0\nsamples = 1\nvalue = [2, 0]"] ;
412 -> 413 ;
414 [label="gini = 0.5\nsamples = 2\nvalue = [1, 1]"] ;
412 -> 414 ;
415 [label="gini = 0.0\nsamples = 3\nvalue = [0, 5]"] ;
407 -> 415 ;
416 [label="X[2] <= 0.5\ngini = 0.496\nsamples = 251\nvalue = [223, 187]"] ;
118 -> 416 ;
417 [label="X[19] <= 0.5\ngini = 0.494\nsamples = 232\nvalue = [212, 171]"] ;
416 -> 417 ;
418 [label="X[15] <= 0.5\ngini = 0.493\nsamples = 231\nvalue = [212, 167]"] ;
417 -> 418 ;
419 [label="X[7] <= 0.5\ngini = 0.499\nsamples = 185\nvalue = [149, 160]"] ;
418 -> 419 ;
420 [label="X[1] <= 0.5\ngini = 0.499\nsamples = 181\nvalue = [144, 160]"] ;
419 -> 420 ;
421 [label="X[12] <= 0.5\ngini = 0.499\nsamples = 177\nvalue = [140, 156]"] ;
420 -> 421 ;
422 [label="X[13] <= 0.5\ngini = 0.5\nsamples = 167\nvalue = [140, 143]"] ;
421 -> 422 ;
423 [label="X[6] <= 0.5\ngini = 0.49\nsamples = 59\nvalue = [56, 42]"] ;
422 -> 423 ;
424 [label="X[20] <= 0.5\ngini = 0.487\nsamples = 56\nvalue = [54, 39]"] ;
423 -> 424 ;
425 [label="gini = 0.49\nsamples = 5\nvalue = [3, 4]"] ;
424 -> 425 ;
426 [label="X[4] <= 0.5\ngini = 0.483\nsamples = 51\nvalue = [51, 35]"] ;
424 -> 426 ;
427 [label="gini = 0.0\nsamples = 1\nvalue = [1, 0]"] ;
426 -> 427 ;
428 [label="gini = 0.484\nsamples = 50\nvalue = [50, 35]"] ;
426 -> 428 ;
429 [label="gini = 0.48\nsamples = 3\nvalue = [2, 3]"] ;
423 -> 429 ;
430 [label="X[18] <= 0.5\ngini = 0.496\nsamples = 108\nvalue = [84, 101]"] ;
422 -> 430 ;
431 [label="X[6] <= 0.5\ngini = 0.497\nsamples = 107\nvalue = [84, 98]"] ;
430 -> 431 ;
432 [label="gini = 0.497\nsamples = 97\nvalue = [75, 87]"] ;
431 -> 432 ;
433 [label="X[0] <= 0.5\ngini = 0.495\nsamples = 10\nvalue = [9, 11]"] ;
431 -> 433 ;
434 [label="gini = 0.444\nsamples = 3\nvalue = [1, 2]"] ;
433 -> 434 ;
435 [label="gini = 0.498\nsamples = 7\nvalue = [8, 9]"] ;
433 -> 435 ;
436 [label="gini = 0.0\nsamples = 1\nvalue = [0, 3]"] ;
430 -> 436 ;
437 [label="gini = 0.0\nsamples = 10\nvalue = [0, 13]"] ;
421 -> 437 ;
438 [label="X[18] <= 0.5\ngini = 0.5\nsamples = 4\nvalue = [4, 4]"] ;
420 -> 438 ;
439 [label="X[13] <= 0.5\ngini = 0.32\nsamples = 3\nvalue = [1, 4]"] ;
438 -> 439 ;
440 [label="gini = 0.0\nsamples = 1\nvalue = [1, 0]"] ;
439 -> 440 ;
441 [label="gini = 0.0\nsamples = 2\nvalue = [0, 4]"] ;
439 -> 441 ;
442 [label="gini = 0.0\nsamples = 1\nvalue = [3, 0]"] ;
438 -> 442 ;
443 [label="gini = 0.0\nsamples = 4\nvalue = [5, 0]"] ;
419 -> 443 ;
444 [label="X[4] <= 0.5\ngini = 0.18\nsamples = 46\nvalue = [63, 7]"] ;
418 -> 444 ;
445 [label="gini = 0.0\nsamples = 2\nvalue = [2, 0]"] ;
444 -> 445 ;
446 [label="X[20] <= 0.5\ngini = 0.185\nsamples = 44\nvalue = [61, 7]"] ;
444 -> 446 ;
447 [label="gini = 0.0\nsamples = 1\nvalue = [1, 0]"] ;
446 -> 447 ;
448 [label="gini = 0.187\nsamples = 43\nvalue = [60, 7]"] ;
446 -> 448 ;
449 [label="gini = 0.0\nsamples = 1\nvalue = [0, 4]"] ;
417 -> 449 ;
450 [label="X[14] <= 0.5\ngini = 0.483\nsamples = 19\nvalue = [11, 16]"] ;
416 -> 450 ;
451 [label="X[15] <= 0.5\ngini = 0.5\nsamples = 15\nvalue = [10, 10]"] ;
450 -> 451 ;
452 [label="X[6] <= 0.5\ngini = 0.346\nsamples = 8\nvalue = [2, 7]"] ;
451 -> 452 ;
453 [label="gini = 0.0\nsamples = 1\nvalue = [1, 0]"] ;
452 -> 453 ;
454 [label="gini = 0.219\nsamples = 7\nvalue = [1, 7]"] ;
452 -> 454 ;
455 [label="X[19] <= 0.5\ngini = 0.397\nsamples = 7\nvalue = [8, 3]"] ;
451 -> 455 ;
456 [label="gini = 0.42\nsamples = 6\nvalue = [7, 3]"] ;
455 -> 456 ;
457 [label="gini = 0.0\nsamples = 1\nvalue = [1, 0]"] ;
455 -> 457 ;
458 [label="gini = 0.245\nsamples = 4\nvalue = [1, 6]"] ;
450 -> 458 ;
}