digraph Tree {
node [shape=box] ;
0 [label="X[9] <= 0.5\ngini = 0.488\nsamples = 6336\nvalue = [4254, 5841]"] ;
1 [label="X[11] <= 0.5\ngini = 0.201\nsamples = 1846\nvalue = [2595, 331]"] ;
0 -> 1 [labeldistance=2.5, labelangle=45, headlabel="True"] ;
2 [label="X[3] <= 0.5\ngini = 0.31\nsamples = 672\nvalue = [888, 211]"] ;
1 -> 2 ;
3 [label="X[13] <= 0.5\ngini = 0.308\nsamples = 670\nvalue = [888, 208]"] ;
2 -> 3 ;
4 [label="X[10] <= 0.5\ngini = 0.408\nsamples = 369\nvalue = [420, 168]"] ;
3 -> 4 ;
5 [label="X[1] <= 0.5\ngini = 0.11\nsamples = 278\nvalue = [419, 26]"] ;
4 -> 5 ;
6 [label="X[21] <= 0.5\ngini = 0.111\nsamples = 276\nvalue = [414, 26]"] ;
5 -> 6 ;
7 [label="X[19] <= 0.5\ngini = 0.112\nsamples = 273\nvalue = [409, 26]"] ;
6 -> 7 ;
8 [label="X[22] <= 0.5\ngini = 0.111\nsamples = 264\nvalue = [398, 25]"] ;
7 -> 8 ;
9 [label="X[23] <= 0.5\ngini = 0.113\nsamples = 260\nvalue = [391, 25]"] ;
8 -> 9 ;
10 [label="X[6] <= 0.5\ngini = 0.107\nsamples = 180\nvalue = [283, 17]"] ;
9 -> 10 ;
11 [label="X[16] <= 0.5\ngini = 0.102\nsamples = 165\nvalue = [262, 15]"] ;
10 -> 11 ;
12 [label="X[14] <= 0.5\ngini = 0.03\nsamples = 158\nvalue = [260, 4]"] ;
11 -> 12 ;
13 [label="X[12] <= 0.5\ngini = 0.024\nsamples = 50\nvalue = [82, 1]"] ;
12 -> 13 ;
14 [label="gini = 0.048\nsamples = 25\nvalue = [40, 1]"] ;
13 -> 14 ;
15 [label="gini = 0.0\nsamples = 25\nvalue = [42, 0]"] ;
13 -> 15 ;
16 [label="gini = 0.033\nsamples = 108\nvalue = [178, 3]"] ;
12 -> 16 ;
17 [label="gini = 0.26\nsamples = 7\nvalue = [2, 11]"] ;
11 -> 17 ;
18 [label="X[15] <= 0.5\ngini = 0.159\nsamples = 15\nvalue = [21, 2]"] ;
10 -> 18 ;
19 [label="X[0] <= 0.5\ngini = 0.231\nsamples = 10\nvalue = [13, 2]"] ;
18 -> 19 ;
20 [label="X[16] <= 0.5\ngini = 0.26\nsamples = 9\nvalue = [11, 2]"] ;
19 -> 20 ;
21 [label="gini = 0.0\nsamples = 8\nvalue = [11, 0]"] ;
20 -> 21 ;
22 [label="gini = 0.0\nsamples = 1\nvalue = [0, 2]"] ;
20 -> 22 ;
23 [label="gini = 0.0\nsamples = 1\nvalue = [2, 0]"] ;
19 -> 23 ;
24 [label="gini = 0.0\nsamples = 5\nvalue = [8, 0]"] ;
18 -> 24 ;
25 [label="X[12] <= 0.5\ngini = 0.128\nsamples = 80\nvalue = [108, 8]"] ;
9 -> 25 ;
26 [label="X[2] <= 0.5\ngini = 0.138\nsamples = 75\nvalue = [99, 8]"] ;
25 -> 26 ;
27 [label="X[4] <= 0.5\ngini = 0.147\nsamples = 72\nvalue = [92, 8]"] ;
26 -> 27 ;
28 [label="gini = 0.0\nsamples = 2\nvalue = [5, 0]"] ;
27 -> 28 ;
29 [label="X[14] <= 0.5\ngini = 0.154\nsamples = 70\nvalue = [87, 8]"] ;
27 -> 29 ;
30 [label="gini = 0.153\nsamples = 11\nvalue = [11, 1]"] ;
29 -> 30 ;
31 [label="gini = 0.154\nsamples = 59\nvalue = [76, 7]"] ;
29 -> 31 ;
32 [label="gini = 0.0\nsamples = 3\nvalue = [7, 0]"] ;
26 -> 32 ;
33 [label="gini = 0.0\nsamples = 5\nvalue = [9, 0]"] ;
25 -> 33 ;
34 [label="gini = 0.0\nsamples = 4\nvalue = [7, 0]"] ;
8 -> 34 ;
35 [label="X[23] <= 0.5\ngini = 0.153\nsamples = 9\nvalue = [11, 1]"] ;
7 -> 35 ;
36 [label="X[14] <= 0.5\ngini = 0.165\nsamples = 8\nvalue = [10, 1]"] ;
35 -> 36 ;
37 [label="gini = 0.0\nsamples = 6\nvalue = [7, 0]"] ;
36 -> 37 ;
38 [label="gini = 0.375\nsamples = 2\nvalue = [3, 1]"] ;
36 -> 38 ;
39 [label="gini = 0.0\nsamples = 1\nvalue = [1, 0]"] ;
35 -> 39 ;
40 [label="gini = 0.0\nsamples = 3\nvalue = [5, 0]"] ;
6 -> 40 ;
41 [label="gini = 0.0\nsamples = 2\nvalue = [5, 0]"] ;
5 -> 41 ;
42 [label="X[12] <= 0.5\ngini = 0.014\nsamples = 91\nvalue = [1, 142]"] ;
4 -> 42 ;
43 [label="gini = 0.0\nsamples = 89\nvalue = [0, 140]"] ;
42 -> 43 ;
44 [label="X[4] <= 0.5\ngini = 0.444\nsamples = 2\nvalue = [1, 2]"] ;
42 -> 44 ;
45 [label="gini = 0.0\nsamples = 1\nvalue = [1, 0]"] ;
44 -> 45 ;
46 [label="gini = 0.0\nsamples = 1\nvalue = [0, 2]"] ;
44 -> 46 ;
47 [label="X[19] <= 0.5\ngini = 0.145\nsamples = 301\nvalue = [468, 40]"] ;
3 -> 47 ;
48 [label="X[22] <= 0.5\ngini = 0.126\nsamples = 289\nvalue = [457, 33]"] ;
47 -> 48 ;
49 [label="X[4] <= 0.5\ngini = 0.133\nsamples = 272\nvalue = [428, 33]"] ;
48 -> 49 ;
50 [label="X[6] <= 0.5\ngini = 0.051\nsamples = 25\nvalue = [37, 1]"] ;
49 -> 50 ;
51 [label="gini = 0.0\nsamples = 3\nvalue = [4, 0]"] ;
50 -> 51 ;
52 [label="X[24] <= 0.5\ngini = 0.057\nsamples = 22\nvalue = [33, 1]"] ;
50 -> 52 ;
53 [label="gini = 0.0\nsamples = 5\nvalue = [7, 0]"] ;
52 -> 53 ;
54 [label="X[0] <= 0.5\ngini = 0.071\nsamples = 17\nvalue = [26, 1]"] ;
52 -> 54 ;
55 [label="gini = 0.117\nsamples = 9\nvalue = [15, 1]"] ;
54 -> 55 ;
56 [label="gini = 0.0\nsamples = 8\nvalue = [11, 0]"] ;
54 -> 56 ;
57 [label="X[20] <= 0.5\ngini = 0.14\nsamples = 247\nvalue = [391, 32]"] ;
49 -> 57 ;
58 [label="X[24] <= 0.5\ngini = 0.141\nsamples = 244\nvalue = [388, 32]"] ;
57 -> 58 ;
59 [label="X[23] <= 0.5\ngini = 0.173\nsamples = 113\nvalue = [170, 18]"] ;
58 -> 59 ;
60 [label="gini = 0.332\nsamples = 10\nvalue = [15, 4]"] ;
59 -> 60 ;
61 [label="gini = 0.152\nsamples = 103\nvalue = [155, 14]"] ;
59 -> 61 ;
62 [label="gini = 0.113\nsamples = 131\nvalue = [218, 14]"] ;
58 -> 62 ;
63 [label="gini = 0.0\nsamples = 3\nvalue = [3, 0]"] ;
57 -> 63 ;
64 [label="gini = 0.0\nsamples = 17\nvalue = [29, 0]"] ;
48 -> 64 ;
65 [label="X[8] <= 0.5\ngini = 0.475\nsamples = 12\nvalue = [11, 7]"] ;
47 -> 65 ;
66 [label="gini = 0.48\nsamples = 2\nvalue = [2, 3]"] ;
65 -> 66 ;
67 [label="gini = 0.426\nsamples = 10\nvalue = [9, 4]"] ;
65 -> 67 ;
68 [label="gini = 0.0\nsamples = 2\nvalue = [0, 3]"] ;
2 -> 68 ;
69 [label="X[12] <= 0.5\ngini = 0.123\nsamples = 1174\nvalue = [1707, 120]"] ;
1 -> 69 ;
70 [label="X[15] <= 0.5\ngini = 0.107\nsamples = 1038\nvalue = [1534, 92]"] ;
69 -> 70 ;
71 [label="X[6] <= 0.5\ngini = 0.125\nsamples = 646\nvalue = [945, 68]"] ;
70 -> 71 ;
72 [label="X[16] <= 0.5\ngini = 0.137\nsamples = 491\nvalue = [727, 58]"] ;
71 -> 72 ;
73 [label="X[2] <= 0.5\ngini = 0.131\nsamples = 480\nvalue = [712, 54]"] ;
72 -> 73 ;
74 [label="X[7] <= 0.5\ngini = 0.125\nsamples = 479\nvalue = [712, 51]"] ;
73 -> 74 ;
75 [label="X[19] <= 0.5\ngini = 0.127\nsamples = 467\nvalue = [695, 51]"] ;
74 -> 75 ;
76 [label="X[14] <= 0.5\ngini = 0.245\nsamples = 6\nvalue = [6, 1]"] ;
75 -> 76 ;
77 [label="gini = 0.0\nsamples = 3\nvalue = [4, 0]"] ;
76 -> 77 ;
78 [label="gini = 0.444\nsamples = 3\nvalue = [2, 1]"] ;
76 -> 78 ;
79 [label="X[4] <= 0.5\ngini = 0.126\nsamples = 461\nvalue = [689, 50]"] ;
75 -> 79 ;
80 [label="gini = 0.0\nsamples = 3\nvalue = [3, 0]"] ;
79 -> 80 ;
81 [label="X[14] <= 0.5\ngini = 0.127\nsamples = 458\nvalue = [686, 50]"] ;
79 -> 81 ;
82 [label="gini = 0.134\nsamples = 223\nvalue = [334, 26]"] ;
81 -> 82 ;
83 [label="gini = 0.12\nsamples = 235\nvalue = [352, 24]"] ;
81 -> 83 ;
84 [label="gini = 0.0\nsamples = 12\nvalue = [17, 0]"] ;
74 -> 84 ;
85 [label="gini = 0.0\nsamples = 1\nvalue = [0, 3]"] ;
73 -> 85 ;
86 [label="X[1] <= 0.5\ngini = 0.332\nsamples = 11\nvalue = [15, 4]"] ;
72 -> 86 ;
87 [label="gini = 0.36\nsamples = 10\nvalue = [13, 4]"] ;
86 -> 87 ;
88 [label="gini = 0.0\nsamples = 1\nvalue = [2, 0]"] ;
86 -> 88 ;
89 [label="X[0] <= 0.5\ngini = 0.084\nsamples = 155\nvalue = [218, 10]"] ;
71 -> 89 ;
90 [label="X[13] <= 0.5\ngini = 0.104\nsamples = 121\nvalue = [171, 10]"] ;
89 -> 90 ;
91 [label="X[16] <= 0.5\ngini = 0.13\nsamples = 68\nvalue = [93, 7]"] ;
90 -> 91 ;
92 [label="X[1] <= 0.5\ngini = 0.102\nsamples = 64\nvalue = [88, 5]"] ;
91 -> 92 ;
93 [label="X[3] <= 0.5\ngini = 0.104\nsamples = 62\nvalue = [86, 5]"] ;
92 -> 93 ;
94 [label="gini = 0.085\nsamples = 61\nvalue = [86, 4]"] ;
93 -> 94 ;
95 [label="gini = 0.0\nsamples = 1\nvalue = [0, 1]"] ;
93 -> 95 ;
96 [label="gini = 0.0\nsamples = 2\nvalue = [2, 0]"] ;
92 -> 96 ;
97 [label="gini = 0.408\nsamples = 4\nvalue = [5, 2]"] ;
91 -> 97 ;
98 [label="X[2] <= 0.5\ngini = 0.071\nsamples = 53\nvalue = [78, 3]"] ;
90 -> 98 ;
99 [label="gini = 0.0\nsamples = 6\nvalue = [11, 0]"] ;
98 -> 99 ;
100 [label="gini = 0.082\nsamples = 47\nvalue = [67, 3]"] ;
98 -> 100 ;
101 [label="gini = 0.0\nsamples = 34\nvalue = [47, 0]"] ;
89 -> 101 ;
102 [label="X[3] <= 0.5\ngini = 0.075\nsamples = 392\nvalue = [589, 24]"] ;
70 -> 102 ;
103 [label="X[1] <= 0.5\ngini = 0.075\nsamples = 390\nvalue = [587, 24]"] ;
102 -> 103 ;
104 [label="X[6] <= 0.5\ngini = 0.076\nsamples = 385\nvalue = [579, 24]"] ;
103 -> 104 ;
105 [label="X[2] <= 0.5\ngini = 0.076\nsamples = 321\nvalue = [486, 20]"] ;
104 -> 105 ;
106 [label="X[7] <= 0.5\ngini = 0.076\nsamples = 320\nvalue = [485, 20]"] ;
105 -> 106 ;
107 [label="X[19] <= 0.5\ngini = 0.073\nsamples = 315\nvalue = [479, 19]"] ;
106 -> 107 ;
108 [label="gini = 0.0\nsamples = 2\nvalue = [2, 0]"] ;
107 -> 108 ;
109 [label="X[4] <= 0.5\ngini = 0.074\nsamples = 313\nvalue = [477, 19]"] ;
107 -> 109 ;
110 [label="gini = 0.0\nsamples = 3\nvalue = [3, 0]"] ;
109 -> 110 ;
111 [label="gini = 0.074\nsamples = 310\nvalue = [474, 19]"] ;
109 -> 111 ;
112 [label="gini = 0.245\nsamples = 5\nvalue = [6, 1]"] ;
106 -> 112 ;
113 [label="gini = 0.0\nsamples = 1\nvalue = [1, 0]"] ;
105 -> 113 ;
114 [label="X[2] <= 0.5\ngini = 0.079\nsamples = 64\nvalue = [93, 4]"] ;
104 -> 114 ;
115 [label="gini = 0.0\nsamples = 15\nvalue = [22, 0]"] ;
114 -> 115 ;
116 [label="gini = 0.101\nsamples = 49\nvalue = [71, 4]"] ;
114 -> 116 ;
117 [label="gini = 0.0\nsamples = 5\nvalue = [8, 0]"] ;
103 -> 117 ;
118 [label="gini = 0.0\nsamples = 2\nvalue = [2, 0]"] ;
102 -> 118 ;
119 [label="X[7] <= 0.5\ngini = 0.24\nsamples = 136\nvalue = [173, 28]"] ;
69 -> 119 ;
120 [label="X[6] <= 0.5\ngini = 0.242\nsamples = 134\nvalue = [171, 28]"] ;
119 -> 120 ;
121 [label="gini = 0.285\nsamples = 101\nvalue = [130, 27]"] ;
120 -> 121 ;
122 [label="X[3] <= 0.5\ngini = 0.046\nsamples = 33\nvalue = [41, 1]"] ;
120 -> 122 ;
123 [label="X[2] <= 0.5\ngini = 0.049\nsamples = 31\nvalue = [39, 1]"] ;
122 -> 123 ;
124 [label="gini = 0.0\nsamples = 7\nvalue = [13, 0]"] ;
123 -> 124 ;
125 [label="gini = 0.071\nsamples = 24\nvalue = [26, 1]"] ;
123 -> 125 ;
126 [label="gini = 0.0\nsamples = 2\nvalue = [2, 0]"] ;
122 -> 126 ;
127 [label="gini = 0.0\nsamples = 2\nvalue = [2, 0]"] ;
119 -> 127 ;
128 [label="X[18] <= 0.5\ngini = 0.356\nsamples = 4490\nvalue = [1659, 5510]"] ;
0 -> 128 [labeldistance=2.5, labelangle=-45, headlabel="False"] ;
129 [label="X[21] <= 0.5\ngini = 0.368\nsamples = 4185\nvalue = [1629, 5061]"] ;
128 -> 129 ;
130 [label="X[19] <= 0.5\ngini = 0.347\nsamples = 3948\nvalue = [1406, 4900]"] ;
129 -> 130 ;
131 [label="X[4] <= 0.5\ngini = 0.315\nsamples = 2733\nvalue = [858, 3530]"] ;
130 -> 131 ;
132 [label="X[5] <= 0.5\ngini = 0.351\nsamples = 571\nvalue = [207, 704]"] ;
131 -> 132 ;
133 [label="X[7] <= 0.5\ngini = 0.351\nsamples = 550\nvalue = [200, 682]"] ;
132 -> 133 ;
134 [label="X[15] <= 0.5\ngini = 0.328\nsamples = 489\nvalue = [162, 621]"] ;
133 -> 134 ;
135 [label="X[13] <= 0.5\ngini = 0.331\nsamples = 413\nvalue = [139, 524]"] ;
134 -> 135 ;
136 [label="X[14] <= 0.5\ngini = 0.303\nsamples = 229\nvalue = [68, 298]"] ;
135 -> 136 ;
137 [label="X[1] <= 0.5\ngini = 0.202\nsamples = 44\nvalue = [8, 62]"] ;
136 -> 137 ;
138 [label="X[23] <= 0.5\ngini = 0.213\nsamples = 41\nvalue = [8, 58]"] ;
137 -> 138 ;
139 [label="X[24] <= 0.5\ngini = 0.19\nsamples = 29\nvalue = [5, 42]"] ;
138 -> 139 ;
140 [label="X[2] <= 0.5\ngini = 0.375\nsamples = 4\nvalue = [1, 3]"] ;
139 -> 140 ;
141 [label="gini = 0.0\nsamples = 1\nvalue = [0, 1]"] ;
140 -> 141 ;
142 [label="X[12] <= 0.5\ngini = 0.444\nsamples = 3\nvalue = [1, 2]"] ;
140 -> 142 ;
143 [label="gini = 0.0\nsamples = 1\nvalue = [0, 1]"] ;
142 -> 143 ;
144 [label="gini = 0.5\nsamples = 2\nvalue = [1, 1]"] ;
142 -> 144 ;
145 [label="X[2] <= 0.5\ngini = 0.169\nsamples = 25\nvalue = [4, 39]"] ;
139 -> 145 ;
146 [label="X[12] <= 0.5\ngini = 0.426\nsamples = 9\nvalue = [4, 9]"] ;
145 -> 146 ;
147 [label="gini = 0.0\nsamples = 7\nvalue = [0, 8]"] ;
146 -> 147 ;
148 [label="gini = 0.32\nsamples = 2\nvalue = [4, 1]"] ;
146 -> 148 ;
149 [label="gini = 0.0\nsamples = 16\nvalue = [0, 30]"] ;
145 -> 149 ;
150 [label="X[16] <= 0.5\ngini = 0.266\nsamples = 12\nvalue = [3, 16]"] ;
138 -> 150 ;
151 [label="X[2] <= 0.5\ngini = 0.278\nsamples = 11\nvalue = [3, 15]"] ;
150 -> 151 ;
152 [label="gini = 0.198\nsamples = 5\nvalue = [1, 8]"] ;
151 -> 152 ;
153 [label="gini = 0.346\nsamples = 6\nvalue = [2, 7]"] ;
151 -> 153 ;
154 [label="gini = 0.0\nsamples = 1\nvalue = [0, 1]"] ;
150 -> 154 ;
155 [label="gini = 0.0\nsamples = 3\nvalue = [0, 4]"] ;
137 -> 155 ;
156 [label="X[2] <= 0.5\ngini = 0.323\nsamples = 185\nvalue = [60, 236]"] ;
136 -> 156 ;
157 [label="X[23] <= 0.5\ngini = 0.304\nsamples = 72\nvalue = [20, 87]"] ;
156 -> 157 ;
158 [label="X[3] <= 0.5\ngini = 0.198\nsamples = 28\nvalue = [5, 40]"] ;
157 -> 158 ;
159 [label="X[24] <= 0.5\ngini = 0.201\nsamples = 27\nvalue = [5, 39]"] ;
158 -> 159 ;
160 [label="gini = 0.0\nsamples = 16\nvalue = [0, 28]"] ;
159 -> 160 ;
161 [label="gini = 0.43\nsamples = 11\nvalue = [5, 11]"] ;
159 -> 161 ;
162 [label="gini = 0.0\nsamples = 1\nvalue = [0, 1]"] ;
158 -> 162 ;
163 [label="X[3] <= 0.5\ngini = 0.367\nsamples = 44\nvalue = [15, 47]"] ;
157 -> 163 ;
164 [label="X[0] <= 0.5\ngini = 0.38\nsamples = 38\nvalue = [14, 41]"] ;
163 -> 164 ;
165 [label="gini = 0.0\nsamples = 2\nvalue = [0, 2]"] ;
164 -> 165 ;
166 [label="gini = 0.389\nsamples = 36\nvalue = [14, 39]"] ;
164 -> 166 ;
167 [label="gini = 0.245\nsamples = 6\nvalue = [1, 6]"] ;
163 -> 167 ;
168 [label="X[22] <= 0.5\ngini = 0.334\nsamples = 113\nvalue = [40, 149]"] ;
156 -> 168 ;
169 [label="X[24] <= 0.5\ngini = 0.33\nsamples = 97\nvalue = [34, 129]"] ;
168 -> 169 ;
170 [label="gini = 0.316\nsamples = 81\nvalue = [25, 102]"] ;
169 -> 170 ;
171 [label="gini = 0.375\nsamples = 16\nvalue = [9, 27]"] ;
169 -> 171 ;
172 [label="gini = 0.355\nsamples = 16\nvalue = [6, 20]"] ;
168 -> 172 ;
173 [label="X[2] <= 0.5\ngini = 0.364\nsamples = 184\nvalue = [71, 226]"] ;
135 -> 173 ;
174 [label="X[0] <= 0.5\ngini = 0.388\nsamples = 72\nvalue = [30, 84]"] ;
173 -> 174 ;
175 [label="X[23] <= 0.5\ngini = 0.142\nsamples = 10\nvalue = [1, 12]"] ;
174 -> 175 ;
176 [label="gini = 0.0\nsamples = 2\nvalue = [0, 3]"] ;
175 -> 176 ;
177 [label="X[3] <= 0.5\ngini = 0.18\nsamples = 8\nvalue = [1, 9]"] ;
175 -> 177 ;
178 [label="gini = 0.375\nsamples = 4\nvalue = [1, 3]"] ;
177 -> 178 ;
179 [label="gini = 0.0\nsamples = 4\nvalue = [0, 6]"] ;
177 -> 179 ;
180 [label="X[23] <= 0.5\ngini = 0.409\nsamples = 62\nvalue = [29, 72]"] ;
174 -> 180 ;
181 [label="X[22] <= 0.5\ngini = 0.375\nsamples = 19\nvalue = [7, 21]"] ;
180 -> 181 ;
182 [label="gini = 0.305\nsamples = 9\nvalue = [3, 13]"] ;
181 -> 182 ;
183 [label="gini = 0.444\nsamples = 10\nvalue = [4, 8]"] ;
181 -> 183 ;
184 [label="gini = 0.421\nsamples = 43\nvalue = [22, 51]"] ;
180 -> 184 ;
185 [label="X[22] <= 0.5\ngini = 0.348\nsamples = 112\nvalue = [41, 142]"] ;
173 -> 185 ;
186 [label="X[23] <= 0.5\ngini = 0.361\nsamples = 98\nvalue = [38, 123]"] ;
185 -> 186 ;
187 [label="gini = 0.423\nsamples = 16\nvalue = [7, 16]"] ;
186 -> 187 ;
188 [label="gini = 0.348\nsamples = 82\nvalue = [31, 107]"] ;
186 -> 188 ;
189 [label="gini = 0.236\nsamples = 14\nvalue = [3, 19]"] ;
185 -> 189 ;
190 [label="X[24] <= 0.5\ngini = 0.31\nsamples = 76\nvalue = [23, 97]"] ;
134 -> 190 ;
191 [label="X[1] <= 0.5\ngini = 0.256\nsamples = 71\nvalue = [17, 96]"] ;
190 -> 191 ;
192 [label="X[3] <= 0.5\ngini = 0.267\nsamples = 69\nvalue = [17, 90]"] ;
191 -> 192 ;
193 [label="X[0] <= 0.5\ngini = 0.28\nsamples = 66\nvalue = [17, 84]"] ;
192 -> 193 ;
194 [label="X[23] <= 0.5\ngini = 0.239\nsamples = 44\nvalue = [10, 62]"] ;
193 -> 194 ;
195 [label="gini = 0.346\nsamples = 10\nvalue = [4, 14]"] ;
194 -> 195 ;
196 [label="gini = 0.198\nsamples = 34\nvalue = [6, 48]"] ;
194 -> 196 ;
197 [label="X[22] <= 0.5\ngini = 0.366\nsamples = 22\nvalue = [7, 22]"] ;
193 -> 197 ;
198 [label="gini = 0.375\nsamples = 21\nvalue = [7, 21]"] ;
197 -> 198 ;
199 [label="gini = 0.0\nsamples = 1\nvalue = [0, 1]"] ;
197 -> 199 ;
200 [label="gini = 0.0\nsamples = 3\nvalue = [0, 6]"] ;
192 -> 200 ;
201 [label="gini = 0.0\nsamples = 2\nvalue = [0, 6]"] ;
191 -> 201 ;
202 [label="X[2] <= 0.5\ngini = 0.245\nsamples = 5\nvalue = [6, 1]"] ;
190 -> 202 ;
203 [label="gini = 0.0\nsamples = 1\nvalue = [1, 0]"] ;
202 -> 203 ;
204 [label="gini = 0.278\nsamples = 4\nvalue = [5, 1]"] ;
202 -> 204 ;
205 [label="X[15] <= 0.5\ngini = 0.473\nsamples = 61\nvalue = [38, 61]"] ;
133 -> 205 ;
206 [label="X[14] <= 0.5\ngini = 0.375\nsamples = 48\nvalue = [19, 57]"] ;
205 -> 206 ;
207 [label="X[0] <= 0.5\ngini = 0.18\nsamples = 25\nvalue = [4, 36]"] ;
206 -> 207 ;
208 [label="X[24] <= 0.5\ngini = 0.111\nsamples = 20\nvalue = [2, 32]"] ;
207 -> 208 ;
209 [label="X[22] <= 0.5\ngini = 0.128\nsamples = 17\nvalue = [2, 27]"] ;
208 -> 209 ;
210 [label="X[3] <= 0.5\ngini = 0.147\nsamples = 14\nvalue = [2, 23]"] ;
209 -> 210 ;
211 [label="X[1] <= 0.5\ngini = 0.278\nsamples = 4\nvalue = [1, 5]"] ;
210 -> 211 ;
212 [label="gini = 0.0\nsamples = 1\nvalue = [0, 1]"] ;
211 -> 212 ;
213 [label="gini = 0.32\nsamples = 3\nvalue = [1, 4]"] ;
211 -> 213 ;
214 [label="gini = 0.1\nsamples = 10\nvalue = [1, 18]"] ;
210 -> 214 ;
215 [label="gini = 0.0\nsamples = 3\nvalue = [0, 4]"] ;
209 -> 215 ;
216 [label="gini = 0.0\nsamples = 3\nvalue = [0, 5]"] ;
208 -> 216 ;
217 [label="X[23] <= 0.5\ngini = 0.444\nsamples = 5\nvalue = [2, 4]"] ;
207 -> 217 ;
218 [label="gini = 0.444\nsamples = 2\nvalue = [1, 2]"] ;
217 -> 218 ;
219 [label="gini = 0.444\nsamples = 3\nvalue = [1, 2]"] ;
217 -> 219 ;
220 [label="X[2] <= 0.5\ngini = 0.486\nsamples = 23\nvalue = [15, 21]"] ;
206 -> 220 ;
221 [label="X[1] <= 0.5\ngini = 0.493\nsamples = 22\nvalue = [15, 19]"] ;
220 -> 221 ;
222 [label="X[23] <= 0.5\ngini = 0.464\nsamples = 21\nvalue = [11, 19]"] ;
221 -> 222 ;
223 [label="X[22] <= 0.5\ngini = 0.444\nsamples = 5\nvalue = [2, 4]"] ;
222 -> 223 ;
224 [label="X[3] <= 0.5\ngini = 0.5\nsamples = 3\nvalue = [2, 2]"] ;
223 -> 224 ;
225 [label="gini = 0.0\nsamples = 1\nvalue = [0, 2]"] ;
224 -> 225 ;
226 [label="gini = 0.0\nsamples = 2\nvalue = [2, 0]"] ;
224 -> 226 ;
227 [label="gini = 0.0\nsamples = 2\nvalue = [0, 2]"] ;
223 -> 227 ;
228 [label="X[0] <= 0.5\ngini = 0.469\nsamples = 16\nvalue = [9, 15]"] ;
222 -> 228 ;
229 [label="gini = 0.469\nsamples = 10\nvalue = [6, 10]"] ;
228 -> 229 ;
230 [label="gini = 0.469\nsamples = 6\nvalue = [3, 5]"] ;
228 -> 230 ;
231 [label="gini = 0.0\nsamples = 1\nvalue = [4, 0]"] ;
221 -> 231 ;
232 [label="gini = 0.0\nsamples = 1\nvalue = [0, 2]"] ;
220 -> 232 ;
233 [label="X[24] <= 0.5\ngini = 0.287\nsamples = 13\nvalue = [19, 4]"] ;
205 -> 233 ;
234 [label="X[0] <= 0.5\ngini = 0.375\nsamples = 10\nvalue = [12, 4]"] ;
233 -> 234 ;
235 [label="X[2] <= 0.5\ngini = 0.142\nsamples = 7\nvalue = [12, 1]"] ;
234 -> 235 ;
236 [label="X[1] <= 0.5\ngini = 0.165\nsamples = 6\nvalue = [10, 1]"] ;
235 -> 236 ;
237 [label="gini = 0.198\nsamples = 5\nvalue = [8, 1]"] ;
236 -> 237 ;
238 [label="gini = 0.0\nsamples = 1\nvalue = [2, 0]"] ;
236 -> 238 ;
239 [label="gini = 0.0\nsamples = 1\nvalue = [2, 0]"] ;
235 -> 239 ;
240 [label="gini = 0.0\nsamples = 3\nvalue = [0, 3]"] ;
234 -> 240 ;
241 [label="gini = 0.0\nsamples = 3\nvalue = [7, 0]"] ;
233 -> 241 ;
242 [label="X[24] <= 0.5\ngini = 0.366\nsamples = 21\nvalue = [7, 22]"] ;
132 -> 242 ;
243 [label="X[3] <= 0.5\ngini = 0.236\nsamples = 14\nvalue = [3, 19]"] ;
242 -> 243 ;
244 [label="X[23] <= 0.5\ngini = 0.245\nsamples = 13\nvalue = [3, 18]"] ;
243 -> 244 ;
245 [label="gini = 0.0\nsamples = 1\nvalue = [0, 1]"] ;
244 -> 245 ;
246 [label="X[14] <= 0.5\ngini = 0.255\nsamples = 12\nvalue = [3, 17]"] ;
244 -> 246 ;
247 [label="X[13] <= 0.5\ngini = 0.245\nsamples = 8\nvalue = [2, 12]"] ;
246 -> 247 ;
248 [label="X[0] <= 0.5\ngini = 0.408\nsamples = 4\nvalue = [2, 5]"] ;
247 -> 248 ;
249 [label="gini = 0.0\nsamples = 1\nvalue = [0, 1]"] ;
248 -> 249 ;
250 [label="gini = 0.444\nsamples = 3\nvalue = [2, 4]"] ;
248 -> 250 ;
251 [label="gini = 0.0\nsamples = 4\nvalue = [0, 7]"] ;
247 -> 251 ;
252 [label="X[1] <= 0.5\ngini = 0.278\nsamples = 4\nvalue = [1, 5]"] ;
246 -> 252 ;
253 [label="gini = 0.32\nsamples = 3\nvalue = [1, 4]"] ;
252 -> 253 ;
254 [label="gini = 0.0\nsamples = 1\nvalue = [0, 1]"] ;
252 -> 254 ;
255 [label="gini = 0.0\nsamples = 1\nvalue = [0, 1]"] ;
243 -> 255 ;
256 [label="X[15] <= 0.5\ngini = 0.49\nsamples = 7\nvalue = [4, 3]"] ;
242 -> 256 ;
257 [label="X[1] <= 0.5\ngini = 0.48\nsamples = 5\nvalue = [3, 2]"] ;
256 -> 257 ;
258 [label="X[13] <= 0.5\ngini = 0.444\nsamples = 3\nvalue = [2, 1]"] ;
257 -> 258 ;
259 [label="gini = 0.0\nsamples = 1\nvalue = [1, 0]"] ;
258 -> 259 ;
260 [label="gini = 0.5\nsamples = 2\nvalue = [1, 1]"] ;
258 -> 260 ;
261 [label="X[13] <= 0.5\ngini = 0.5\nsamples = 2\nvalue = [1, 1]"] ;
257 -> 261 ;
262 [label="gini = 0.0\nsamples = 1\nvalue = [1, 0]"] ;
261 -> 262 ;
263 [label="gini = 0.0\nsamples = 1\nvalue = [0, 1]"] ;
261 -> 263 ;
264 [label="X[1] <= 0.5\ngini = 0.5\nsamples = 2\nvalue = [1, 1]"] ;
256 -> 264 ;
265 [label="gini = 0.0\nsamples = 1\nvalue = [0, 1]"] ;
264 -> 265 ;
266 [label="gini = 0.0\nsamples = 1\nvalue = [1, 0]"] ;
264 -> 266 ;
267 [label="X[24] <= 0.5\ngini = 0.304\nsamples = 2162\nvalue = [651, 2826]"] ;
131 -> 267 ;
268 [label="X[0] <= 0.5\ngini = 0.274\nsamples = 1864\nvalue = [491, 2509]"] ;
267 -> 268 ;
269 [label="gini = 0.0\nsamples = 4\nvalue = [4, 0]"] ;
268 -> 269 ;
270 [label="X[23] <= 0.5\ngini = 0.272\nsamples = 1860\nvalue = [487, 2509]"] ;
268 -> 270 ;
271 [label="X[13] <= 0.5\ngini = 0.248\nsamples = 419\nvalue = [99, 584]"] ;
270 -> 271 ;
272 [label="X[12] <= 0.5\ngini = 0.218\nsamples = 271\nvalue = [56, 395]"] ;
271 -> 272 ;
273 [label="X[14] <= 0.5\ngini = 0.224\nsamples = 254\nvalue = [54, 367]"] ;
272 -> 273 ;
274 [label="X[15] <= 0.5\ngini = 0.241\nsamples = 99\nvalue = [23, 141]"] ;
273 -> 274 ;
275 [label="gini = 0.0\nsamples = 4\nvalue = [0, 6]"] ;
274 -> 275 ;
276 [label="gini = 0.249\nsamples = 95\nvalue = [23, 135]"] ;
274 -> 276 ;
277 [label="gini = 0.212\nsamples = 155\nvalue = [31, 226]"] ;
273 -> 277 ;
278 [label="gini = 0.124\nsamples = 17\nvalue = [2, 28]"] ;
272 -> 278 ;
279 [label="gini = 0.302\nsamples = 148\nvalue = [43, 189]"] ;
271 -> 279 ;
280 [label="X[16] <= 0.5\ngini = 0.279\nsamples = 1441\nvalue = [388, 1925]"] ;
270 -> 280 ;
281 [label="X[15] <= 0.5\ngini = 0.28\nsamples = 1433\nvalue = [388, 1912]"] ;
280 -> 281 ;
282 [label="X[13] <= 0.5\ngini = 0.27\nsamples = 1174\nvalue = [301, 1574]"] ;
281 -> 282 ;
283 [label="X[14] <= 0.5\ngini = 0.278\nsamples = 610\nvalue = [160, 798]"] ;
282 -> 283 ;
284 [label="gini = 0.285\nsamples = 44\nvalue = [11, 53]"] ;
283 -> 284 ;
285 [label="gini = 0.278\nsamples = 566\nvalue = [149, 745]"] ;
283 -> 285 ;
286 [label="gini = 0.26\nsamples = 564\nvalue = [141, 776]"] ;
282 -> 286 ;
287 [label="gini = 0.326\nsamples = 259\nvalue = [87, 338]"] ;
281 -> 287 ;
288 [label="gini = 0.0\nsamples = 8\nvalue = [0, 13]"] ;
280 -> 288 ;
289 [label="X[16] <= 0.5\ngini = 0.446\nsamples = 298\nvalue = [160, 317]"] ;
267 -> 289 ;
290 [label="X[0] <= 0.5\ngini = 0.494\nsamples = 214\nvalue = [154, 192]"] ;
289 -> 290 ;
291 [label="gini = 0.0\nsamples = 4\nvalue = [0, 5]"] ;
290 -> 291 ;
292 [label="X[15] <= 0.5\ngini = 0.495\nsamples = 210\nvalue = [154, 187]"] ;
290 -> 292 ;
293 [label="X[13] <= 0.5\ngini = 0.491\nsamples = 165\nvalue = [115, 150]"] ;
292 -> 293 ;
294 [label="X[12] <= 0.5\ngini = 0.461\nsamples = 60\nvalue = [35, 62]"] ;
293 -> 294 ;
295 [label="gini = 0.474\nsamples = 46\nvalue = [29, 46]"] ;
294 -> 295 ;
296 [label="gini = 0.397\nsamples = 14\nvalue = [6, 16]"] ;
294 -> 296 ;
297 [label="gini = 0.499\nsamples = 105\nvalue = [80, 88]"] ;
293 -> 297 ;
298 [label="gini = 0.5\nsamples = 45\nvalue = [39, 37]"] ;
292 -> 298 ;
299 [label="gini = 0.087\nsamples = 84\nvalue = [6, 125]"] ;
289 -> 299 ;
300 [label="X[2] <= 0.5\ngini = 0.408\nsamples = 1215\nvalue = [548, 1370]"] ;
130 -> 300 ;
301 [label="X[3] <= 0.5\ngini = 0.412\nsamples = 1109\nvalue = [508, 1241]"] ;
300 -> 301 ;
302 [label="X[23] <= 0.5\ngini = 0.411\nsamples = 1078\nvalue = [491, 1206]"] ;
301 -> 302 ;
303 [label="X[12] <= 0.5\ngini = 0.411\nsamples = 1054\nvalue = [476, 1173]"] ;
302 -> 303 ;
304 [label="X[15] <= 0.5\ngini = 0.425\nsamples = 806\nvalue = [380, 862]"] ;
303 -> 304 ;
305 [label="X[14] <= 0.5\ngini = 0.409\nsamples = 673\nvalue = [297, 740]"] ;
304 -> 305 ;
306 [label="X[5] <= 0.5\ngini = 0.393\nsamples = 500\nvalue = [205, 559]"] ;
305 -> 306 ;
307 [label="X[16] <= 0.5\ngini = 0.394\nsamples = 494\nvalue = [204, 551]"] ;
306 -> 307 ;
308 [label="X[1] <= 0.5\ngini = 0.453\nsamples = 365\nvalue = [194, 365]"] ;
307 -> 308 ;
309 [label="X[4] <= 0.5\ngini = 0.454\nsamples = 364\nvalue = [194, 364]"] ;
308 -> 309 ;
310 [label="X[6] <= 0.5\ngini = 0.431\nsamples = 33\nvalue = [16, 35]"] ;
309 -> 310 ;
311 [label="gini = 0.375\nsamples = 3\nvalue = [1, 3]"] ;
310 -> 311 ;
312 [label="gini = 0.435\nsamples = 30\nvalue = [15, 32]"] ;
310 -> 312 ;
313 [label="X[24] <= 0.5\ngini = 0.456\nsamples = 331\nvalue = [178, 329]"] ;
309 -> 313 ;
314 [label="gini = 0.0\nsamples = 2\nvalue = [0, 3]"] ;
313 -> 314 ;
315 [label="gini = 0.457\nsamples = 329\nvalue = [178, 326]"] ;
313 -> 315 ;
316 [label="gini = 0.0\nsamples = 1\nvalue = [0, 1]"] ;
308 -> 316 ;
317 [label="X[0] <= 0.5\ngini = 0.097\nsamples = 129\nvalue = [10, 186]"] ;
307 -> 317 ;
318 [label="gini = 0.0\nsamples = 3\nvalue = [0, 5]"] ;
317 -> 318 ;
319 [label="X[4] <= 0.5\ngini = 0.099\nsamples = 126\nvalue = [10, 181]"] ;
317 -> 319 ;
320 [label="gini = 0.0\nsamples = 6\nvalue = [0, 13]"] ;
319 -> 320 ;
321 [label="gini = 0.106\nsamples = 120\nvalue = [10, 168]"] ;
319 -> 321 ;
322 [label="X[1] <= 0.5\ngini = 0.198\nsamples = 6\nvalue = [1, 8]"] ;
306 -> 322 ;
323 [label="gini = 0.0\nsamples = 5\nvalue = [0, 8]"] ;
322 -> 323 ;
324 [label="gini = 0.0\nsamples = 1\nvalue = [1, 0]"] ;
322 -> 324 ;
325 [label="X[6] <= 0.5\ngini = 0.447\nsamples = 173\nvalue = [92, 181]"] ;
305 -> 325 ;
326 [label="X[0] <= 0.5\ngini = 0.44\nsamples = 163\nvalue = [85, 175]"] ;
325 -> 326 ;
327 [label="X[5] <= 0.5\ngini = 0.469\nsamples = 5\nvalue = [3, 5]"] ;
326 -> 327 ;
328 [label="X[4] <= 0.5\ngini = 0.49\nsamples = 4\nvalue = [3, 4]"] ;
327 -> 328 ;
329 [label="gini = 0.48\nsamples = 3\nvalue = [3, 2]"] ;
328 -> 329 ;
330 [label="gini = 0.0\nsamples = 1\nvalue = [0, 2]"] ;
328 -> 330 ;
331 [label="gini = 0.0\nsamples = 1\nvalue = [0, 1]"] ;
327 -> 331 ;
332 [label="X[4] <= 0.5\ngini = 0.439\nsamples = 158\nvalue = [82, 170]"] ;
326 -> 332 ;
333 [label="gini = 0.278\nsamples = 3\nvalue = [1, 5]"] ;
332 -> 333 ;
334 [label="X[22] <= 0.5\ngini = 0.442\nsamples = 155\nvalue = [81, 165]"] ;
332 -> 334 ;
335 [label="gini = 0.444\nsamples = 150\nvalue = [79, 159]"] ;
334 -> 335 ;
336 [label="gini = 0.375\nsamples = 5\nvalue = [2, 6]"] ;
334 -> 336 ;
337 [label="X[1] <= 0.5\ngini = 0.497\nsamples = 10\nvalue = [7, 6]"] ;
325 -> 337 ;
338 [label="gini = 0.5\nsamples = 8\nvalue = [5, 5]"] ;
337 -> 338 ;
339 [label="gini = 0.444\nsamples = 2\nvalue = [2, 1]"] ;
337 -> 339 ;
340 [label="X[22] <= 0.5\ngini = 0.482\nsamples = 133\nvalue = [83, 122]"] ;
304 -> 340 ;
341 [label="X[6] <= 0.5\ngini = 0.483\nsamples = 132\nvalue = [83, 120]"] ;
340 -> 341 ;
342 [label="X[7] <= 0.5\ngini = 0.479\nsamples = 121\nvalue = [75, 114]"] ;
341 -> 342 ;
343 [label="gini = 0.48\nsamples = 120\nvalue = [75, 113]"] ;
342 -> 343 ;
344 [label="gini = 0.0\nsamples = 1\nvalue = [0, 1]"] ;
342 -> 344 ;
345 [label="gini = 0.49\nsamples = 11\nvalue = [8, 6]"] ;
341 -> 345 ;
346 [label="gini = 0.0\nsamples = 1\nvalue = [0, 2]"] ;
340 -> 346 ;
347 [label="X[7] <= 0.5\ngini = 0.36\nsamples = 248\nvalue = [96, 311]"] ;
303 -> 347 ;
348 [label="X[4] <= 0.5\ngini = 0.351\nsamples = 244\nvalue = [91, 310]"] ;
347 -> 348 ;
349 [label="X[1] <= 0.5\ngini = 0.18\nsamples = 25\nvalue = [4, 36]"] ;
348 -> 349 ;
350 [label="gini = 0.202\nsamples = 24\nvalue = [4, 31]"] ;
349 -> 350 ;
351 [label="gini = 0.0\nsamples = 1\nvalue = [0, 5]"] ;
349 -> 351 ;
352 [label="X[24] <= 0.5\ngini = 0.366\nsamples = 219\nvalue = [87, 274]"] ;
348 -> 352 ;
353 [label="gini = 0.0\nsamples = 1\nvalue = [0, 1]"] ;
352 -> 353 ;
354 [label="X[1] <= 0.5\ngini = 0.367\nsamples = 218\nvalue = [87, 273]"] ;
352 -> 354 ;
355 [label="gini = 0.369\nsamples = 217\nvalue = [87, 270]"] ;
354 -> 355 ;
356 [label="gini = 0.0\nsamples = 1\nvalue = [0, 3]"] ;
354 -> 356 ;
357 [label="X[1] <= 0.5\ngini = 0.278\nsamples = 4\nvalue = [5, 1]"] ;
347 -> 357 ;
358 [label="gini = 0.0\nsamples = 2\nvalue = [3, 0]"] ;
357 -> 358 ;
359 [label="gini = 0.444\nsamples = 2\nvalue = [2, 1]"] ;
357 -> 359 ;
360 [label="X[4] <= 0.5\ngini = 0.43\nsamples = 24\nvalue = [15, 33]"] ;
302 -> 360 ;
361 [label="gini = 0.0\nsamples = 1\nvalue = [0, 3]"] ;
360 -> 361 ;
362 [label="X[12] <= 0.5\ngini = 0.444\nsamples = 23\nvalue = [15, 30]"] ;
360 -> 362 ;
363 [label="X[13] <= 0.5\ngini = 0.414\nsamples = 21\nvalue = [12, 29]"] ;
362 -> 363 ;
364 [label="X[14] <= 0.5\ngini = 0.459\nsamples = 13\nvalue = [10, 18]"] ;
363 -> 364 ;
365 [label="gini = 0.408\nsamples = 4\nvalue = [5, 2]"] ;
364 -> 365 ;
366 [label="gini = 0.363\nsamples = 9\nvalue = [5, 16]"] ;
364 -> 366 ;
367 [label="gini = 0.26\nsamples = 8\nvalue = [2, 11]"] ;
363 -> 367 ;
368 [label="gini = 0.375\nsamples = 2\nvalue = [3, 1]"] ;
362 -> 368 ;
369 [label="X[12] <= 0.5\ngini = 0.44\nsamples = 31\nvalue = [17, 35]"] ;
301 -> 369 ;
370 [label="X[7] <= 0.5\ngini = 0.434\nsamples = 28\nvalue = [14, 30]"] ;
369 -> 370 ;
371 [label="X[22] <= 0.5\ngini = 0.48\nsamples = 7\nvalue = [4, 6]"] ;
370 -> 371 ;
372 [label="X[14] <= 0.5\ngini = 0.494\nsamples = 6\nvalue = [4, 5]"] ;
371 -> 372 ;
373 [label="X[16] <= 0.5\ngini = 0.408\nsamples = 5\nvalue = [2, 5]"] ;
372 -> 373 ;
374 [label="X[15] <= 0.5\ngini = 0.444\nsamples = 4\nvalue = [2, 4]"] ;
373 -> 374 ;
375 [label="gini = 0.5\nsamples = 3\nvalue = [2, 2]"] ;
374 -> 375 ;
376 [label="gini = 0.0\nsamples = 1\nvalue = [0, 2]"] ;
374 -> 376 ;
377 [label="gini = 0.0\nsamples = 1\nvalue = [0, 1]"] ;
373 -> 377 ;
378 [label="gini = 0.0\nsamples = 1\nvalue = [2, 0]"] ;
372 -> 378 ;
379 [label="gini = 0.0\nsamples = 1\nvalue = [0, 1]"] ;
371 -> 379 ;
380 [label="X[24] <= 0.5\ngini = 0.415\nsamples = 21\nvalue = [10, 24]"] ;
370 -> 380 ;
381 [label="gini = 0.0\nsamples = 1\nvalue = [0, 2]"] ;
380 -> 381 ;
382 [label="X[13] <= 0.5\ngini = 0.43\nsamples = 20\nvalue = [10, 22]"] ;
380 -> 382 ;
383 [label="X[16] <= 0.5\ngini = 0.375\nsamples = 11\nvalue = [4, 12]"] ;
382 -> 383 ;
384 [label="X[14] <= 0.5\ngini = 0.494\nsamples = 7\nvalue = [4, 5]"] ;
383 -> 384 ;
385 [label="gini = 0.5\nsamples = 3\nvalue = [2, 2]"] ;
384 -> 385 ;
386 [label="gini = 0.48\nsamples = 4\nvalue = [2, 3]"] ;
384 -> 386 ;
387 [label="gini = 0.0\nsamples = 4\nvalue = [0, 7]"] ;
383 -> 387 ;
388 [label="gini = 0.469\nsamples = 9\nvalue = [6, 10]"] ;
382 -> 388 ;
389 [label="gini = 0.469\nsamples = 3\nvalue = [3, 5]"] ;
369 -> 389 ;
390 [label="X[16] <= 0.5\ngini = 0.361\nsamples = 106\nvalue = [40, 129]"] ;
300 -> 390 ;
391 [label="X[12] <= 0.5\ngini = 0.413\nsamples = 87\nvalue = [40, 97]"] ;
390 -> 391 ;
392 [label="X[14] <= 0.5\ngini = 0.47\nsamples = 57\nvalue = [34, 56]"] ;
391 -> 392 ;
393 [label="X[15] <= 0.5\ngini = 0.476\nsamples = 41\nvalue = [27, 42]"] ;
392 -> 393 ;
394 [label="gini = 0.464\nsamples = 33\nvalue = [19, 33]"] ;
393 -> 394 ;
395 [label="X[23] <= 0.5\ngini = 0.498\nsamples = 8\nvalue = [8, 9]"] ;
393 -> 395 ;
396 [label="gini = 0.498\nsamples = 7\nvalue = [8, 7]"] ;
395 -> 396 ;
397 [label="gini = 0.0\nsamples = 1\nvalue = [0, 2]"] ;
395 -> 397 ;
398 [label="gini = 0.444\nsamples = 16\nvalue = [7, 14]"] ;
392 -> 398 ;
399 [label="gini = 0.223\nsamples = 30\nvalue = [6, 41]"] ;
391 -> 399 ;
400 [label="gini = 0.0\nsamples = 19\nvalue = [0, 32]"] ;
390 -> 400 ;
401 [label="X[0] <= 0.5\ngini = 0.487\nsamples = 237\nvalue = [223, 161]"] ;
129 -> 401 ;
402 [label="X[12] <= 0.5\ngini = 0.496\nsamples = 24\nvalue = [20, 24]"] ;
401 -> 402 ;
403 [label="X[2] <= 0.5\ngini = 0.493\nsamples = 23\nvalue = [19, 24]"] ;
402 -> 403 ;
404 [label="X[14] <= 0.5\ngini = 0.457\nsamples = 9\nvalue = [6, 11]"] ;
403 -> 404 ;
405 [label="X[1] <= 0.5\ngini = 0.469\nsamples = 8\nvalue = [6, 10]"] ;
404 -> 405 ;
406 [label="X[7] <= 0.5\ngini = 0.444\nsamples = 7\nvalue = [5, 10]"] ;
405 -> 406 ;
407 [label="gini = 0.42\nsamples = 4\nvalue = [3, 7]"] ;
406 -> 407 ;
408 [label="gini = 0.48\nsamples = 3\nvalue = [2, 3]"] ;
406 -> 408 ;
409 [label="gini = 0.0\nsamples = 1\nvalue = [1, 0]"] ;
405 -> 409 ;
410 [label="gini = 0.0\nsamples = 1\nvalue = [0, 1]"] ;
404 -> 410 ;
411 [label="X[15] <= 0.5\ngini = 0.5\nsamples = 14\nvalue = [13, 13]"] ;
403 -> 411 ;
412 [label="X[13] <= 0.5\ngini = 0.426\nsamples = 8\nvalue = [4, 9]"] ;
411 -> 412 ;
413 [label="gini = 0.0\nsamples = 1\nvalue = [1, 0]"] ;
412 -> 413 ;
414 [label="gini = 0.375\nsamples = 7\nvalue = [3, 9]"] ;
412 -> 414 ;
415 [label="X[19] <= 0.5\ngini = 0.426\nsamples = 6\nvalue = [9, 4]"] ;
411 -> 415 ;
416 [label="gini = 0.463\nsamples = 5\nvalue = [7, 4]"] ;
415 -> 416 ;
417 [label="gini = 0.0\nsamples = 1\nvalue = [2, 0]"] ;
415 -> 417 ;
418 [label="gini = 0.0\nsamples = 1\nvalue = [1, 0]"] ;
402 -> 418 ;
419 [label="X[13] <= 0.5\ngini = 0.481\nsamples = 213\nvalue = [203, 137]"] ;
401 -> 419 ;
420 [label="X[7] <= 0.5\ngini = 0.422\nsamples = 113\nvalue = [129, 56]"] ;
419 -> 420 ;
421 [label="X[15] <= 0.5\ngini = 0.426\nsamples = 111\nvalue = [126, 56]"] ;
420 -> 421 ;
422 [label="X[6] <= 0.5\ngini = 0.499\nsamples = 63\nvalue = [52, 47]"] ;
421 -> 422 ;
423 [label="X[5] <= 0.5\ngini = 0.5\nsamples = 59\nvalue = [44, 45]"] ;
422 -> 423 ;
424 [label="X[12] <= 0.5\ngini = 0.5\nsamples = 58\nvalue = [43, 45]"] ;
423 -> 424 ;
425 [label="X[16] <= 0.5\ngini = 0.489\nsamples = 50\nvalue = [43, 32]"] ;
424 -> 425 ;
426 [label="gini = 0.484\nsamples = 49\nvalue = [43, 30]"] ;
425 -> 426 ;
427 [label="gini = 0.0\nsamples = 1\nvalue = [0, 2]"] ;
425 -> 427 ;
428 [label="gini = 0.0\nsamples = 8\nvalue = [0, 13]"] ;
424 -> 428 ;
429 [label="gini = 0.0\nsamples = 1\nvalue = [1, 0]"] ;
423 -> 429 ;
430 [label="X[14] <= 0.5\ngini = 0.32\nsamples = 4\nvalue = [8, 2]"] ;
422 -> 430 ;
431 [label="gini = 0.0\nsamples = 1\nvalue = [3, 0]"] ;
430 -> 431 ;
432 [label="gini = 0.408\nsamples = 3\nvalue = [5, 2]"] ;
430 -> 432 ;
433 [label="X[4] <= 0.5\ngini = 0.193\nsamples = 48\nvalue = [74, 9]"] ;
421 -> 433 ;
434 [label="gini = 0.278\nsamples = 4\nvalue = [5, 1]"] ;
433 -> 434 ;
435 [label="gini = 0.186\nsamples = 44\nvalue = [69, 8]"] ;
433 -> 435 ;
436 [label="gini = 0.0\nsamples = 2\nvalue = [3, 0]"] ;
420 -> 436 ;
437 [label="X[6] <= 0.5\ngini = 0.499\nsamples = 100\nvalue = [74, 81]"] ;
419 -> 437 ;
438 [label="X[20] <= 0.5\ngini = 0.499\nsamples = 95\nvalue = [72, 77]"] ;
437 -> 438 ;
439 [label="gini = 0.0\nsamples = 1\nvalue = [0, 1]"] ;
438 -> 439 ;
440 [label="X[4] <= 0.5\ngini = 0.5\nsamples = 94\nvalue = [72, 76]"] ;
438 -> 440 ;
441 [label="gini = 0.0\nsamples = 1\nvalue = [0, 1]"] ;
440 -> 441 ;
442 [label="gini = 0.5\nsamples = 93\nvalue = [72, 75]"] ;
440 -> 442 ;
443 [label="gini = 0.444\nsamples = 5\nvalue = [2, 4]"] ;
437 -> 443 ;
444 [label="X[21] <= 0.5\ngini = 0.117\nsamples = 305\nvalue = [30, 449]"] ;
128 -> 444 ;
445 [label="X[4] <= 0.5\ngini = 0.079\nsamples = 297\nvalue = [19, 441]"] ;
444 -> 445 ;
446 [label="gini = 0.0\nsamples = 71\nvalue = [0, 109]"] ;
445 -> 446 ;
447 [label="X[3] <= 0.5\ngini = 0.102\nsamples = 226\nvalue = [19, 332]"] ;
445 -> 447 ;
448 [label="X[16] <= 0.5\ngini = 0.103\nsamples = 225\nvalue = [19, 331]"] ;
447 -> 448 ;
449 [label="X[23] <= 0.5\ngini = 0.105\nsamples = 220\nvalue = [19, 322]"] ;
448 -> 449 ;
450 [label="X[14] <= 0.5\ngini = 0.182\nsamples = 56\nvalue = [8, 71]"] ;
449 -> 450 ;
451 [label="X[15] <= 0.5\ngini = 0.093\nsamples = 30\nvalue = [2, 39]"] ;
450 -> 451 ;
452 [label="X[22] <= 0.5\ngini = 0.056\nsamples = 26\nvalue = [1, 34]"] ;
451 -> 452 ;
453 [label="gini = 0.0\nsamples = 8\nvalue = [0, 11]"] ;
452 -> 453 ;
454 [label="gini = 0.08\nsamples = 18\nvalue = [1, 23]"] ;
452 -> 454 ;
455 [label="X[24] <= 0.5\ngini = 0.278\nsamples = 4\nvalue = [1, 5]"] ;
451 -> 455 ;
456 [label="gini = 0.0\nsamples = 3\nvalue = [0, 5]"] ;
455 -> 456 ;
457 [label="gini = 0.0\nsamples = 1\nvalue = [1, 0]"] ;
455 -> 457 ;
458 [label="X[24] <= 0.5\ngini = 0.266\nsamples = 26\nvalue = [6, 32]"] ;
450 -> 458 ;
459 [label="gini = 0.083\nsamples = 15\nvalue = [1, 22]"] ;
458 -> 459 ;
460 [label="gini = 0.444\nsamples = 11\nvalue = [5, 10]"] ;
458 -> 460 ;
461 [label="X[14] <= 0.5\ngini = 0.08\nsamples = 164\nvalue = [11, 251]"] ;
449 -> 461 ;
462 [label="X[13] <= 0.5\ngini = 0.089\nsamples = 82\nvalue = [6, 122]"] ;
461 -> 462 ;
463 [label="gini = 0.0\nsamples = 22\nvalue = [0, 36]"] ;
462 -> 463 ;
464 [label="gini = 0.122\nsamples = 60\nvalue = [6, 86]"] ;
462 -> 464 ;
465 [label="X[1] <= 0.5\ngini = 0.072\nsamples = 82\nvalue = [5, 129]"] ;
461 -> 465 ;
466 [label="gini = 0.072\nsamples = 81\nvalue = [5, 128]"] ;
465 -> 466 ;
467 [label="gini = 0.0\nsamples = 1\nvalue = [0, 1]"] ;
465 -> 467 ;
468 [label="gini = 0.0\nsamples = 5\nvalue = [0, 9]"] ;
448 -> 468 ;
469 [label="gini = 0.0\nsamples = 1\nvalue = [0, 1]"] ;
447 -> 469 ;
470 [label="X[4] <= 0.5\ngini = 0.488\nsamples = 8\nvalue = [11, 8]"] ;
444 -> 470 ;
471 [label="gini = 0.0\nsamples = 1\nvalue = [2, 0]"] ;
470 -> 471 ;
472 [label="X[15] <= 0.5\ngini = 0.498\nsamples = 7\nvalue = [9, 8]"] ;
470 -> 472 ;
473 [label="gini = 0.497\nsamples = 5\nvalue = [7, 6]"] ;
472 -> 473 ;
474 [label="gini = 0.5\nsamples = 2\nvalue = [2, 2]"] ;
472 -> 474 ;
}